{"learner":{"attributes":{"scikit_learn":"{\"_estimator_type\": \"classifier\"}"},"feature_names":[],"feature_types":[],"gradient_booster":{"model":{"gbtree_model_param":{"num_parallel_tree":"1","num_trees":"600"},"iteration_indptr":[0,6,12,18,24,30,36,42,48,54,60,66,72,78,84,90,96,102,108,114,120,126,132,138,144,150,156,162,168,174,180,186,192,198,204,210,216,222,228,234,240,246,252,258,264,270,276,282,288,294,300,306,312,318,324,330,336,342,348,354,360,366,372,378,384,390,396,402,408,414,420,426,432,438,444,450,456,462,468,474,480,486,492,498,504,510,516,522,528,534,540,546,552,558,564,570,576,582,588,594,600],"tree_info":[0,1,2,3,4,5,0,1,2,3,4,5,0,1,2,3,4,5,0,1,2,3,4,5,0,1,2,3,4,5,0,1,2,3,4,5,0,1,2,3,4,5,0,1,2,3,4,5,0,1,2,3,4,5,0,1,2,3,4,5,0,1,2,3,4,5,0,1,2,3,4,5,0,1,2,3,4,5,0,1,2,3,4,5,0,1,2,3,4,5,0,1,2,3,4,5,0,1,2,3,4,5,0,1,2,3,4,5,0,1,2,3,4,5,0,1,2,3,4,5,0,1,2,3,4,5,0,1,2,3,4,5,0,1,2,3,4,5,0,1,2,3,4,5,0,1,2,3,4,5,0,1,2,3,4,5,0,1,2,3,4,5,0,1,2,3,4,5,0,1,2,3,4,5,0,1,2,3,4,5,0,1,2,3,4,5,0,1,2,3,4,5,0,1,2,3,4,5,0,1,2,3,4,5,0,1,2,3,4,5,0,1,2,3,4,5,0,1,2,3,4,5,0,1,2,3,4,5,0,1,2,3,4,5,0,1,2,3,4,5,0,1,2,3,4,5,0,1,2,3,4,5,0,1,2,3,4,5,0,1,2,3,4,5,0,1,2,3,4,5,0,1,2,3,4,5,0,1,2,3,4,5,0,1,2,3,4,5,0,1,2,3,4,5,0,1,2,3,4,5,0,1,2,3,4,5,0,1,2,3,4,5,0,1,2,3,4,5,0,1,2,3,4,5,0,1,2,3,4,5,0,1,2,3,4,5,0,1,2,3,4,5,0,1,2,3,4,5,0,1,2,3,4,5,0,1,2,3,4,5,0,1,2,3,4,5,0,1,2,3,4,5,0,1,2,3,4,5,0,1,2,3,4,5,0,1,2,3,4,5,0,1,2,3,4,5,0,1,2,3,4,5,0,1,2,3,4,5,0,1,2,3,4,5,0,1,2,3,4,5,0,1,2,3,4,5,0,1,2,3,4,5,0,1,2,3,4,5,0,1,2,3,4,5,0,1,2,3,4,5,0,1,2,3,4,5,0,1,2,3,4,5,0,1,2,3,4,5,0,1,2,3,4,5,0,1,2,3,4,5,0,1,2,3,4,5,0,1,2,3,4,5,0,1,2,3,4,5,0,1,2,3,4,5,0,1,2,3,4,5,0,1,2,3,4,5,0,1,2,3,4,5,0,1,2,3,4,5,0,1,2,3,4,5,0,1,2,3,4,5,0,1,2,3,4,5,0,1,2,3,4,5,0,1,2,3,4,5,0,1,2,3,4,5,0,1,2,3,4,5,0,1,2,3,4,5,0,1,2,3,4,5,0,1,2,3,4,5,0,1,2,3,4,5,0,1,2,3,4,5],"trees":[{"base_weights":[1.1702359E-1,-1.6565356E-1,2.998562E0,-2.782973E-1,1.9145523E0,2.9995394E-1,1.3248149E0,-3.691072E-1,1.994385E0,2.8932612E0,-3.3830455E-1,2.815008E-1,-4.9775657E-1,-4.0451404E-1,2.981799E0,-3.1852958E-1,2.7790802E0,2.5681772E0,2.9997677E-1,-5.959186E-1,2.9398234E0,3.1404477E-3,-5.5283595E-2,-4.4028774E-1,1.4253001E0,2.999338E-1,6.6820055E-1,-5.308626E-1,2.9887617E-1,2.9806054E0,-4.9871182E-1,2.9971945E-1,2.2002754E0,-5.9868075E-2,2.524026E-1,-5.3509332E-2,2.9943904E-1,-4.5538794E-2,2.7842948E-1,2.1032397E-1,3.78135E-3,-5.2183695E-2,2.7700573E-1,2.5886166E-1,-5.9303124E-2,2.9864198E-1,1.332714E-1,-5.9129354E-2,2.8535315E-1,1.28181875E-2,2.921558E-1],"categories":[],"categories_nodes":[],"categories_segments":[],"categories_sizes":[],"default_left":[0,0,0,0,0,0,0,0,0,0,0,0,0,0,0,0,0,0,0,0,0,0,0,0,0,0,0,0,0,0,0,0,0,0,0,0,0,0,0,0,0,0,0,0,0,0,0,0,0,0,0],"id":0,"left_children":[1,3,5,7,9,-1,11,13,15,17,19,-1,21,23,25,27,29,31,-1,33,35,-1,-1,37,39,-1,41,43,-1,45,47,-1,49,-1,-1,-1,-1,-1,-1,-1,-1,-1,-1,-1,-1,-1,-1,-1,-1,-1,-1],"loss_changes":[4.2832797E5,1.1221103E5,7.28125E1,9.37548E4,5.4239477E4,0E0,8.07168E1,5.182791E4,3.167918E4,5.860625E2,6.294042E3,0E0,4.2500615E-1,2.8295656E4,1.8333594E2,3.1072444E3,8.610391E3,6.6246875E2,0E0,6.105005E1,1.04572266E2,0E0,0E0,2.0645008E4,7.7967812E3,0E0,9.062015E1,8.076207E2,0E0,1.1365625E2,2.3623215E2,0E0,3.4158838E3,0E0,0E0,0E0,0E0,0E0,0E0,0E0,0E0,0E0,0E0,0E0,0E0,0E0,0E0,0E0,0E0,0E0,0E0],"parents":[2147483647,0,0,1,1,2,2,3,3,4,4,6,6,7,7,8,8,9,9,10,10,12,12,13,13,14,14,15,15,16,16,17,17,19,19,20,20,23,23,24,24,26,26,27,27,29,29,30,30,32,32],"right_children":[2,4,6,8,10,-1,12,14,16,18,20,-1,22,24,26,28,30,32,-1,34,36,-1,-1,38,40,-1,42,44,-1,46,48,-1,50,-1,-1,-1,-1,-1,-1,-1,-1,-1,-1,-1,-1,-1,-1,-1,-1,-1,-1],"split_conditions":[2.3E1,3.5568E4,7.1628605E6,3.0625E4,1E0,2.9995394E-1,1.375E3,3.0016E4,9.460925E-2,2.4E1,2E0,2.815008E-1,1.8181818E4,4.007E3,4E1,8.1E1,1.757579E3,2.37E2,2.9997677E-1,2.33E2,1.11705564E-1,3.1404477E-3,-5.5283595E-2,1.034E3,4.99686E5,2.999338E-1,4.4E1,1.36E2,2.9887617E-1,1.547982E3,8.1E1,2.9971945E-1,2.51E2,-5.9868075E-2,2.524026E-1,-5.3509332E-2,2.9943904E-1,-4.5538794E-2,2.7842948E-1,2.1032397E-1,3.78135E-3,-5.2183695E-2,2.7700573E-1,2.5886166E-1,-5.9303124E-2,2.9864198E-1,1.332714E-1,-5.9129354E-2,2.8535315E-1,1.28181875E-2,2.921558E-1],"split_indices":[11,0,14,72,46,0,11,66,37,34,2,0,15,24,69,0,13,66,0,1,15,0,0,19,24,0,34,34,0,13,0,0,66,0,0,0,0,0,0,0,0,0,0,0,0,0,0,0,0,0,0],"split_type":[0,0,0,0,0,0,0,0,0,0,0,0,0,0,0,0,0,0,0,0,0,0,0,0,0,0,0,0,0,0,0,0,0,0,0,0,0,0,0,0,0,0,0,0,0,0,0,0,0,0,0],"sum_hessian":[5.258477E5,4.7887166E5,4.6976066E4,4.5427347E5,2.4598176E4,4.6947863E4,2.8203283E1,4.3682022E5,1.7453246E4,1.71482E4,7.449978E3,1.5216918E1,1.2986366E1,4.3225375E5,4.5664688E3,4.421456E3,1.303179E4,4.237969E3,1.29102295E4,6.9079316E3,5.4204663E2,1.264814E0,1.1721552E1,4.239658E5,8.287958E3,4.5318174E3,3.4651485E1,4.155506E3,2.6595023E2,1.22770625E4,7.547275E2,1.9531815E3,2.2847878E3,6.902629E3,5.3028655E0,8.244045E0,5.3380255E2,4.2199053E5,1.9752545E3,5.5672354E3,2.7207222E3,2.260476E1,1.2046727E1,8.040341E1,4.0751023E3,1.2233089E4,4.3973763E1,7.352452E2,1.9482265E1,5.902631E2,1.6945247E3],"tree_param":{"num_deleted":"0","num_feature":"78","num_nodes":"51","size_leaf_vector":"1"}},{"base_weights":[-5.851182E-1,-5.9318185E-1,-3.296644E-1,-3.6572447E-1,-5.989128E-1,-5.999591E-2,2.4420273E0,-5.9992995E-2,1.4042301E-1,-5.992433E-1,-4.064164E-1,2.86742E0,-5.965997E-2,2.0305805E0,-4.8888353E-1,-5.996836E-1,-5.5254066E-1,-5.9924837E-2,2.2459288E0,2.884421E0,-5.1575363E-2,-5.9657168E-2,2.5912247E0,-5.325688E-1,-1.8185507E-1,-5.9999865E-2,-5.964313E-1,-5.9986677E-2,9.135867E-1,-5.507475E-2,2.9229352E-1,2.8876412E0,-3.212928E-2,-5.907004E-2,2.8604302E-1,-5.826035E-2,-4.2792864E-2,5.3511787E-2,-4.1934367E-2,-5.9975564E-2,6.0895546E-3,2.861748E-1,-5.9277296E-2,2.7598128E-1,2.9954877E-1],"categories":[],"categories_nodes":[],"categories_segments":[],"categories_sizes":[],"default_left":[0,0,0,0,0,0,0,0,0,0,0,0,0,0,0,0,0,0,0,0,0,0,0,0,0,0,0,0,0,0,0,0,0,0,0,0,0,0,0,0,0,0,0,0,0],"id":1,"left_children":[1,3,5,7,9,-1,11,-1,13,15,17,19,-1,21,23,25,27,-1,29,31,-1,-1,33,35,37,-1,39,-1,41,-1,-1,43,-1,-1,-1,-1,-1,-1,-1,-1,-1,-1,-1,-1,-1],"loss_changes":[1.083E3,6.6428125E2,1.2058161E4,1.4854866E3,3.1390625E1,0E0,1.8503545E3,0E0,4.7170303E3,9.859375E0,4.3886877E2,7.365527E1,0E0,1.4604553E3,3.9809082E1,1.5625E-1,3.2306787E2,0E0,1.1178186E2,1.3816406E1,0E0,0E0,7.010884E2,1.338501E1,6.358631E1,0E0,9.53125E1,0E0,4.2940872E2,0E0,0E0,8.9296875E0,0E0,0E0,0E0,0E0,0E0,0E0,0E0,0E0,0E0,0E0,0E0,0E0,0E0],"parents":[2147483647,0,0,1,1,2,2,3,3,4,4,6,6,8,8,9,9,10,10,11,11,13,13,14,14,15,15,16,16,18,18,19,19,22,22,23,23,24,24,26,26,28,28,31,31],"right_children":[2,4,6,8,10,-1,12,-1,14,16,18,20,-1,22,24,26,28,-1,30,32,-1,-1,34,36,38,-1,40,-1,42,-1,-1,44,-1,-1,-1,-1,-1,-1,-1,-1,-1,-1,-1,-1,-1],"split_conditions":[5.55E2,2.4E1,8.08E3,2.37E2,4.7903E4,-5.999591E-2,8.1E3,-5.9992995E-2,2.51E2,1.94E2,1.6647612E3,1.0240018E7,-5.965997E-2,2.56E2,6.7272725E5,8.08E3,8.08E3,-5.9924837E-2,4.44E2,4E0,-5.1575363E-2,-5.9657168E-2,8.833333E0,1.025E3,2.43E2,-5.9999865E-2,1.28E2,-5.9986677E-2,8.1E3,-5.507475E-2,2.9229352E-1,3E0,-3.212928E-2,-5.907004E-2,2.8604302E-1,-5.826035E-2,-4.2792864E-2,5.3511787E-2,-4.1934367E-2,-5.9975564E-2,6.0895546E-3,2.861748E-1,-5.9277296E-2,2.7598128E-1,2.9954877E-1],"split_indices":[29,34,0,66,4,0,0,0,66,29,41,23,0,67,14,0,0,0,0,68,0,0,52,66,67,0,10,0,0,0,0,68,0,0,0,0,0,0,0,0,0,0,0,0,0],"split_type":[0,0,0,0,0,0,0,0,0,0,0,0,0,0,0,0,0,0,0,0,0,0,0,0,0,0,0,0,0,0,0,0,0,0,0,0,0,0,0,0,0,0,0,0,0],"sum_hessian":[5.258477E5,5.0975538E5,1.609233E4,1.2529546E4,4.9722584E5,1.4663165E4,1.4291647E3,8.565785E3,3.9637605E3,4.963714E5,8.544442E2,1.2537081E3,1.7545657E2,9.895037E2,2.9742568E3,4.9172422E5,4.647188E3,7.972558E2,5.7188385E1,1.2475862E3,6.12197E0,1.7401468E2,8.154891E2,2.6031372E3,3.7111978E2,4.4812322E5,4.3600977E4,4.5024414E3,1.4474652E2,1.1182129E1,4.6006256E1,1.2464333E3,1.1527969E0,6.3519104E1,7.5197E2,1.7579766E3,8.451605E2,9.202998E1,2.7908978E2,4.338167E4,2.1930713E2,6.272503E1,8.202149E1,5.8254443E2,6.638889E2],"tree_param":{"num_deleted":"0","num_feature":"78","num_nodes":"45","size_leaf_vector":"1"}},{"base_weights":[1.1702365E-1,-3.0220953E-1,2.9607856E0,1.3514661E0,-5.695861E-1,2.9853332E0,-5.85374E-1,2.3793166E0,-4.224623E-1,-5.892644E-1,1.9953446E0,-5.9710063E-2,2.9963715E0,-5.906844E-1,7.957635E-2,2.7759342E0,-5.9987355E-2,-5.5459857E-1,2.9158351E0,-5.8994335E-1,1.9503351E0,2.9908762E0,-5.9928037E-2,2.999606E0,1.2624284E0,-5.933372E-1,1.37165105E-2,2.8963032E0,1.1889918E0,-5.84231E-1,9.456566E-1,2.995129E-1,-5.709516E-2,-5.935995E-1,-1.5925266E-1,2.9600647E-1,-5.8048286E-2,-4.636596E-2,2.9965098E0,2.999811E-1,6.868377E-1,-4.1654497E-1,2.9491782E-1,-5.960072E-2,1.37165105E-2,-5.8098245E-2,2.9341868E-1,-5.3844433E-2,2.9776517E-1,-1.7814154E-3,-5.911518E-2,2.9611552E-1,-5.975805E-2,-2.4717342E-2,-5.943894E-2,2.935804E-1,-3.3376724E-2,2.9984236E-1,-3.212928E-2,-4.7511004E-2,2.121075E-1,2.2687855E-1,-5.901727E-2],"categories":[],"categories_nodes":[],"categories_segments":[],"categories_sizes":[],"default_left":[0,0,0,0,0,0,0,0,0,0,0,0,0,0,0,0,0,0,0,0,0,0,0,0,0,0,0,0,0,0,0,0,0,0,0,0,0,0,0,0,0,0,0,0,0,0,0,0,0,0,0,0,0,0,0,0,0,0,0,0,0,0,0],"id":2,"left_children":[1,3,5,7,9,11,13,15,17,19,21,-1,23,25,-1,27,-1,29,31,33,35,37,-1,39,41,43,-1,45,47,49,51,-1,-1,53,55,-1,-1,-1,57,-1,59,61,-1,-1,-1,-1,-1,-1,-1,-1,-1,-1,-1,-1,-1,-1,-1,-1,-1,-1,-1,-1,-1],"loss_changes":[6.269174E5,2.026347E5,5.8829375E3,1.1630397E5,1.9913117E4,2.655E3,3.882782E0,4.7721516E4,1.0324088E4,6.7615625E2,7.760788E3,0E0,3.71375E2,9.7746277E-1,0E0,6.8046562E3,0E0,1.0013042E3,2.4809668E2,6.162344E2,2.6969144E2,4.363867E1,0E0,2.95625E1,3.5882623E2,9.8402405E-1,0E0,4.365625E3,7.7708027E3,8.6526855E1,1.3591361E3,0E0,0E0,1.060625E2,1.7812446E3,0E0,0E0,0E0,1.47265625E1,0E0,1.3035752E1,3.1252102E1,0E0,0E0,0E0,0E0,0E0,0E0,0E0,0E0,0E0,0E0,0E0,0E0,0E0,0E0,0E0,0E0,0E0,0E0,0E0,0E0,0E0],"parents":[2147483647,0,0,1,1,2,2,3,3,4,4,5,5,6,6,7,7,8,8,9,9,10,10,12,12,13,13,15,15,17,17,18,18,19,19,20,20,21,21,23,23,24,24,25,25,27,27,28,28,29,29,30,30,33,33,34,34,38,38,40,40,41,41],"right_children":[2,4,6,8,10,12,14,16,18,20,22,-1,24,26,-1,28,-1,30,32,34,36,38,-1,40,42,44,-1,46,48,50,52,-1,-1,54,56,-1,-1,-1,58,-1,60,62,-1,-1,-1,-1,-1,-1,-1,-1,-1,-1,-1,-1,-1,-1,-1,-1,-1,-1,-1,-1,-1],"split_conditions":[1.3106659E3,4.8800644E-2,2.43E2,7.75E0,1E0,2.29E2,2.738E3,8.1E1,1E0,1.448E3,8.1E1,-5.9710063E-2,2.5853482E2,1.22E2,7.957635E-2,4.77E2,-5.9987355E-2,1.4466667E2,7E0,9.2E2,8.1E1,2.27E2,-5.9928037E-2,8.1E1,5.099093E6,6.01799E6,1.37165105E-2,6.4E1,4E1,8.833333E0,8.1E1,2.995129E-1,-5.709516E-2,3E0,7E1,2.9600647E-1,-5.8048286E-2,-4.636596E-2,2.36E2,2.999811E-1,4.44E2,5.017279E6,2.9491782E-1,-5.960072E-2,1.37165105E-2,-5.8098245E-2,2.9341868E-1,-5.3844433E-2,2.9776517E-1,-1.7814154E-3,-5.911518E-2,2.9611552E-1,-5.975805E-2,-2.4717342E-2,-5.943894E-2,2.935804E-1,-3.3376724E-2,2.9984236E-1,-3.212928E-2,-4.7511004E-2,2.121075E-1,2.2687855E-1,-5.901727E-2],"split_indices":[13,37,67,52,43,67,6,0,46,7,0,0,9,19,0,66,0,8,5,13,0,67,0,0,1,27,0,34,69,52,0,0,0,16,4,0,0,0,67,0,0,1,0,0,0,0,0,0,0,0,0,0,0,0,0,0,0,0,0,0,0,0,0],"split_type":[0,0,0,0,0,0,0,0,0,0,0,0,0,0,0,0,0,0,0,0,0,0,0,0,0,0,0,0,0,0,0,0,0,0,0,0,0,0,0,0,0,0,0,0,0,0,0,0,0,0,0,0,0,0,0,0,0,0,0,0,0,0,0],"sum_hessian":[5.258477E5,4.58287E5,6.756071E4,6.378491E4,3.945021E5,6.709641E4,4.6430307E2,4.038479E4,2.3400117E4,3.9149925E5,3.0028337E3,2.0594054E2,6.689047E4,4.630948E2,1.2082616E0,3.5640113E4,4.7446777E3,2.2509963E4,8.9015393E2,3.913954E5,1.0386374E2,2.1700532E3,8.327804E2,6.6765195E4,1.2527005E2,4.6159726E2,1.4975483E0,3.3126645E4,2.51347E3,2.2074566E4,4.3539725E2,8.704987E2,1.9655186E1,3.8810044E5,3.2949778E3,7.412158E1,2.9742159E1,3.4007506E0,2.1666526E3,6.675898E4,6.21749E0,6.3157135E1,6.2112915E1,4.600997E2,1.4975483E0,3.5685495E2,3.276979E4,1.2789734E3,1.2344966E3,2.6650595E2,2.180806E4,1.8841052E2,2.4698672E2,8.836201E2,3.872168E5,1.7502611E2,3.1199517E3,2.1654998E3,1.1527969E0,3.8042295E0,2.4132607E0,3.102764E0,6.005437E1],"tree_param":{"num_deleted":"0","num_feature":"78","num_nodes":"63","size_leaf_vector":"1"}},{"base_weights":[1.170236E-1,2.925814E0,-5.9991725E-2,2.9708245E0,-5.9955515E-2,-4.9787283E-1,2.981986E0,-5.9818204E-2,2.7133182E-1,2.9864943E0,-5.9549857E-2,2.990371E0,-5.9475947E-2,2.9918656E-1,-5.865745E-2],"categories":[],"categories_nodes":[],"categories_segments":[],"categories_sizes":[],"default_left":[0,0,0,0,0,0,0,0,0,0,0,0,0,0,0],"id":3,"left_children":[1,3,-1,5,-1,7,9,-1,-1,11,-1,13,-1,-1,-1],"loss_changes":[1.0589225E6,1.6969125E4,0E0,4.089125E3,0E0,1.1098083E2,1.69925E3,0E0,0E0,1.4610625E3,0E0,5.63E2,0E0,0E0,0E0],"parents":[2147483647,0,0,1,1,3,3,5,5,6,6,9,9,11,11],"right_children":[2,4,-1,6,-1,8,10,-1,-1,12,-1,14,-1,-1,-1],"split_conditions":[2.3E1,2E0,-5.9991725E-2,2.8E1,-5.9955515E-2,2.47E2,3.04E2,-5.9818204E-2,2.7133182E-1,3.4E1,-5.9549857E-2,2E0,-5.9475947E-2,2.9918656E-1,-5.865745E-2],"split_indices":[0,11,0,69,0,67,67,0,0,2,0,51,0,0,0],"split_type":[0,0,0,0,0,0,0,0,0,0,0,0,0,0,0],"sum_hessian":[5.258477E5,1.0692803E5,4.189197E5,1.0558018E5,1.3478513E3,3.3850238E2,1.0524167E5,3.290378E2,9.46456E0,1.0510938E5,1.3229076E2,1.0499589E5,1.1349284E2,1.049522E5,4.3690998E1],"tree_param":{"num_deleted":"0","num_feature":"78","num_nodes":"15","size_leaf_vector":"1"}},{"base_weights":[1.1702356E-1,-5.283795E-1,2.252963E0,-5.78448E-1,5.568996E-1,-5.999708E-2,2.8317776E0,1.8990415E0,-5.8045423E-1,-5.9945446E-2,2.9332435E0,2.998135E0,-4.3968707E-1,-4.4443718E-1,2.975353E0,-5.866055E-1,-6.609822E-2,2.9976636E-1,-5.943066E-2,2.9984381E0,-5.3426255E-2,2.498071E0,-5.8970755E-1,-5.9349146E-2,1.3151503E0,2.985907E-1,8.512666E-2,-2.3956835E-1,-5.9333086E-1,2.781271E0,-5.813987E-1,2.9984853E-1,-3.3545867E-2,2.8384528E0,-5.7564177E-2,-5.9986997E-2,2.3811275E-1,-4.3568093E-2,2.2537242E-1,-5.99908E-2,2.990742E-1,-5.9586026E-2,-2.0095821E-2,2.995435E-1,-5.8592465E-2,-5.9984114E-2,2.343265E-2,-5.1695623E-2,2.9409313E-1,2.7885902E-1,-5.864202E-2],"categories":[],"categories_nodes":[],"categories_segments":[],"categories_sizes":[],"default_left":[0,0,0,0,0,0,0,0,0,0,0,0,0,0,0,0,0,0,0,0,0,0,0,0,0,0,0,0,0,0,0,0,0,0,0,0,0,0,0,0,0,0,0,0,0,0,0,0,0,0,0],"id":4,"left_children":[1,3,5,7,9,-1,11,13,15,-1,17,19,21,23,25,27,29,-1,-1,31,-1,33,35,-1,37,-1,-1,39,41,43,45,-1,-1,47,-1,-1,49,-1,-1,-1,-1,-1,-1,-1,-1,-1,-1,-1,-1,-1,-1],"loss_changes":[7.249056E5,2.194364E4,2.01499E5,1.9198125E3,4.893957E4,0E0,5.5209125E4,7.897427E2,1.2203203E3,0E0,1.3265352E3,1.049375E2,2.1652764E3,2.6810667E1,2.2628174E0,8.894375E2,6.691319E3,0E0,0E0,1.625E1,0E0,2.5139966E2,3.944641E1,0E0,1.4229495E1,0E0,0E0,8.438223E3,3.7096875E2,5.057212E2,5.8232544E1,0E0,0E0,7.548242E1,0E0,0E0,1.2228963E2,0E0,0E0,0E0,0E0,0E0,0E0,0E0,0E0,0E0,0E0,0E0,0E0,0E0,0E0],"parents":[2147483647,0,0,1,1,2,2,3,3,4,4,6,6,7,7,8,8,10,10,11,11,12,12,13,13,14,14,15,15,16,16,19,19,21,21,22,22,24,24,27,27,28,28,29,29,30,30,33,33,36,36],"right_children":[2,4,6,8,10,-1,12,14,16,-1,18,20,22,24,26,28,30,-1,-1,32,-1,34,36,-1,38,-1,-1,40,42,44,46,-1,-1,48,-1,-1,50,-1,-1,-1,-1,-1,-1,-1,-1,-1,-1,-1,-1,-1,-1],"split_conditions":[4.44E2,1.5384615E4,1E0,2.1E1,1E0,-5.999708E-2,4.8E1,2.2677867E0,4E1,-5.9945446E-2,2E0,2.8E1,2.3103154E0,2.7454E4,1.23E2,3.2E1,1.48E2,2.9976636E-1,-5.943066E-2,6.5535E4,-5.3426255E-2,1.3463313E3,2.9336228E6,-5.9349146E-2,8.80918E5,2.985907E-1,8.512666E-2,1E0,2.92E4,4.4E1,0E0,2.9984853E-1,-3.3545867E-2,1.95E2,-5.7564177E-2,-5.9986997E-2,1.75E2,-4.3568093E-2,2.2537242E-1,-5.99908E-2,2.990742E-1,-5.9586026E-2,-2.0095821E-2,2.995435E-1,-5.8592465E-2,-5.9984114E-2,2.343265E-2,-5.1695623E-2,2.9409313E-1,2.7885902E-1,-5.864202E-2],"split_indices":[0,37,46,0,46,0,34,41,69,0,2,35,14,24,1,34,1,0,0,66,0,22,26,0,73,0,0,46,67,34,67,0,0,20,0,0,39,0,0,0,0,0,0,0,0,0,0,0,0,0,0],"split_type":[0,0,0,0,0,0,0,0,0,0,0,0,0,0,0,0,0,0,0,0,0,0,0,0,0,0,0,0,0,0,0,0,0,0,0,0,0,0,0,0,0,0,0,0,0,0,0,0,0,0,0],"sum_hessian":[5.258477E5,4.0382675E5,1.2202097E5,3.8601856E5,1.78082E4,2.0580613E4,1.0144036E5,3.1157828E2,3.8570697E5,1.1979564E4,5.828635E3,9.6531695E4,4.9086597E3,9.824788E1,2.133304E2,3.8114862E5,4.558344E3,5.724249E3,1.0438575E2,9.652357E4,8.127217E0,2.3772795E2,4.6709316E3,9.1186226E1,7.061654E0,2.1187195E2,1.4584427E0,7.2467354E3,3.7390188E5,6.978536E2,3.8604905E3,9.65223E4,1.2680765E0,2.1409561E2,2.3632336E1,4.6145576E3,5.637378E1,2.6514328E0,4.4102216E0,6.520222E3,7.265134E2,3.7150653E5,2.3953645E3,6.5622595E2,4.162759E1,3.775399E3,8.5091644E1,6.225103E0,2.0787051E2,1.3190472E1,4.3183308E1],"tree_param":{"num_deleted":"0","num_feature":"78","num_nodes":"51","size_leaf_vector":"1"}},{"base_weights":[1.1702362E-1,-5.082084E-1,2.64564E0,-5.5042064E-1,5.5803746E-1,2.876026E0,-5.999132E-2,-5.8769023E-1,-1.7559215E-1,-2.3311706E-1,2.0984094E0,-5.997182E-2,2.9537332E0,-4.6392062E-1,-5.968508E-1,1.2493918E0,-5.5519325E-1,-4.8948163E-1,2.8148673E0,2.664944E0,-5.99366E-2,2.9772742E0,-5.9904393E-2,-5.9997242E-2,3.4197754E-1,-5.993606E-1,-4.0333056E-1,-5.9982326E-2,2.7015805E0,-5.999766E-2,-2.0796074E-1,-5.505606E-1,3.0649012E-2,2.9861138E0,-5.851155E-2,-5.980132E-2,2.898823E0,2.9843073E0,-5.9678435E-2,2.7729297E-1,-5.997734E-2,-5.999982E-2,-5.7291687E-2,-5.4381143E-2,5.9593566E-2,2.8547764E-1,-5.9688557E-2,1.3916352E-1,-5.9977442E-2,-5.9990384E-2,-4.282784E-2,-5.9911896E-2,1.2581462E-1,2.996162E-1,-4.1193075E-2,2.9553393E-1,-5.9114974E-2,-5.9545733E-2,2.9892915E-1],"categories":[],"categories_nodes":[],"categories_segments":[],"categories_sizes":[],"default_left":[0,0,0,0,0,0,0,0,0,0,0,0,0,0,0,0,0,0,0,0,0,0,0,0,0,0,0,0,0,0,0,0,0,0,0,0,0,0,0,0,0,0,0,0,0,0,0,0,0,0,0,0,0,0,0,0,0,0,0],"id":5,"left_children":[1,3,5,7,9,11,-1,13,15,17,19,-1,21,23,25,27,29,31,33,35,-1,37,-1,-1,39,41,43,-1,45,-1,47,49,51,53,-1,-1,55,57,-1,-1,-1,-1,-1,-1,-1,-1,-1,-1,-1,-1,-1,-1,-1,-1,-1,-1,-1,-1,-1],"loss_changes":[8.313534E5,1.8976117E4,7.795006E4,5.6652734E3,1.9567473E4,2.6291688E4,0E0,4.1796094E2,1.9841092E4,8.290905E3,8.328781E3,0E0,7.9646875E3,2.787831E3,1.6657031E2,2.0721672E4,4.5026953E2,3.1092163E2,4.8104834E2,3.4381094E3,0E0,2.37925E3,0E0,0E0,8.410082E3,5.3671875E0,6.1801306E2,0E0,2.1856777E3,0E0,2.0755547E3,5.2587402E1,7.965159E2,2.8E1,0E0,0E0,8.3054297E2,1.6860625E3,0E0,0E0,0E0,0E0,0E0,0E0,0E0,0E0,0E0,0E0,0E0,0E0,0E0,0E0,0E0,0E0,0E0,0E0,0E0,0E0,0E0],"parents":[2147483647,0,0,1,1,2,2,3,3,4,4,5,5,7,7,8,8,9,9,10,10,12,12,13,13,14,14,15,15,16,16,17,17,18,18,19,19,21,21,24,24,25,25,26,26,28,28,30,30,31,31,32,32,33,33,36,36,37,37],"right_children":[2,4,6,8,10,12,-1,14,16,18,20,-1,22,24,26,28,30,32,34,36,-1,38,-1,-1,40,42,44,-1,46,-1,48,50,52,54,-1,-1,56,58,-1,-1,-1,-1,-1,-1,-1,-1,-1,-1,-1,-1,-1,-1,-1,-1,-1,-1,-1,-1,-1],"split_conditions":[1.159E3,1.915E2,8.1E1,1E0,7.54E2,2.8E1,-5.999132E-2,1E0,2.43E2,2.664E3,5.008872E6,-5.997182E-2,1.3979E4,1.025E3,1.7650941E2,2.35E2,2.6E2,1.1632E4,6.04E2,1.36E2,-5.99366E-2,5.000017E6,-5.9904393E-2,-5.9997242E-2,1.444E3,1.547359E2,7.54E2,-5.9982326E-2,8.1E1,-5.999766E-2,8.1E1,2.36E2,6E1,5.3177625E5,-5.851155E-2,-5.980132E-2,6.04E2,2.3E1,-5.9678435E-2,2.7729297E-1,-5.997734E-2,-5.999982E-2,-5.7291687E-2,-5.4381143E-2,5.9593566E-2,2.8547764E-1,-5.9688557E-2,1.3916352E-1,-5.9977442E-2,-5.9990384E-2,-4.282784E-2,-5.9911896E-2,1.2581462E-1,2.996162E-1,-4.1193075E-2,2.9553393E-1,-5.9114974E-2,-5.9545733E-2,2.9892915E-1],"split_indices":[67,9,0,48,29,69,0,39,67,34,18,0,24,66,9,67,66,5,6,35,0,74,0,0,66,9,29,0,0,0,0,67,29,17,0,0,6,0,0,0,0,0,0,0,0,0,0,0,0,0,0,0,0,0,0,0,0,0,0],"split_type":[0,0,0,0,0,0,0,0,0,0,0,0,0,0,0,0,0,0,0,0,0,0,0,0,0,0,0,0,0,0,0,0,0,0,0,0,0,0,0,0,0,0,0,0,0,0,0,0,0,0,0,0,0,0,0,0,0,0,0],"sum_hessian":[5.258477E5,4.2160212E5,1.0424559E5,4.0554712E5,1.6054985E4,9.733628E4,6.9093105E3,3.6886953E5,3.6677617E4,1.0607624E4,5.4473613E3,2.1284153E3,9.520787E4,2.5423367E4,3.4344616E5,7.7147896E3,2.8962826E4,9.785417E3,8.222075E2,4.501959E3,9.4540216E2,9.458132E4,6.265429E2,2.1751527E4,3.6718389E3,3.3904697E5,4.3991904E3,3.3937634E3,4.3210264E3,2.5653508E4,3.3093174E3,8.757021E3,1.0283954E3,7.8289716E2,3.931037E1,3.0100073E2,4.2009585E3,9.4395734E4,1.8558725E2,1.0247349E3,2.647104E3,3.3104316E5,8.0038228E3,3.8573625E3,5.418279E2,4.1293735E3,1.9165247E2,6.506125E2,2.658705E3,6.2365474E3,2.5204739E3,6.800218E2,3.483736E2,7.8070685E2,2.190314E0,4.1341636E3,6.6794785E1,1.310803E2,9.426466E4],"tree_param":{"num_deleted":"0","num_feature":"78","num_nodes":"59","size_leaf_vector":"1"}},{"base_weights":[1.0967586E-1,-2.3121606E-1,1.8514808E0,-3.2405204E-1,1.5767577E0,-3.6372232E-1,2.2532098E0,-4.088705E-1,1.239292E0,-3.1269008E-1,2.102822E0,-5.901251E-1,2.4516597E0,2.2796862E0,1.8457266E0,-4.3845403E-1,2.2352145E0,2.2786283E0,-3.4748745E-1,-5.2672476E-1,2.2643788E-1,2.24382E0,-4.1271806E-1,-5.930761E-1,2.2543915E-1,2.7769694E0,2.23761E-1,2.282561E0,-1.6114816E-1,1.2060422E0,2.2728078E0,-4.6973622E-1,1.0629708E0,2.2484641E-1,5.162186E-1,2.9249465E0,2.2466063E-1,-5.8715814E-1,2.2562654E0,2.052302E0,-5.865515E-1,2.448826E0,2.2388248E0,-5.7773477E-1,2.371553E-1,-2.640373E-2,-5.934587E-2,2.9305026E-1,2.2222796E-1,2.5219073E0,2.2494044E0,-5.8968928E-2,2.2995956E-1,2.351345E0,-2.4134107E-1,2.3569846E0,2.1279998E0,-4.821688E-2,2.48753E-1,3.8942624E-2,2.2801192E-1,-5.1118433E-2,2.1846926E-1,2.9546344E-1,2.3656328E-1,2.2813156E-1,-5.9084803E-2,2.2974339E-1,-5.4138917E-2,2.283238E-1,1.1129123E-1,-1.2306785E-2,-5.8702882E-2,2.8342283E-1,2.281364E-1,1.9538043E-1,2.2425985E-1,-5.901424E-2,2.0988145E-1,-3.211574E-2,1.03799365E-1,2.6771647E-1,2.244648E-1,2.9508784E-1,2.2475724E-1,2.7866167E-1,2.2421096E-1,2.759318E-1,-4.5800313E-2,2.4517202E-1,2.266985E-1,1.891515E-1,2.2422886E-1],"categories":[],"categories_nodes":[],"categories_segments":[],"categories_sizes":[],"default_left":[0,0,0,0,0,0,0,0,0,0,0,0,0,0,0,0,0,0,0,0,0,0,0,0,0,0,0,0,0,0,0,0,0,0,0,0,0,0,0,0,0,0,0,0,0,0,0,0,0,0,0,0,0,0,0,0,0,0,0,0,0,0,0,0,0,0,0,0,0,0,0,0,0,0,0,0,0,0,0,0,0,0,0,0,0,0,0,0,0,0,0,0,0],"id":6,"left_children":[1,3,5,7,9,11,13,15,17,19,21,23,25,27,29,31,33,35,37,39,-1,41,43,45,-1,47,-1,49,51,53,55,57,59,-1,61,63,-1,65,67,69,71,73,75,77,-1,79,-1,-1,-1,81,83,-1,-1,85,87,89,91,-1,-1,-1,-1,-1,-1,-1,-1,-1,-1,-1,-1,-1,-1,-1,-1,-1,-1,-1,-1,-1,-1,-1,-1,-1,-1,-1,-1,-1,-1,-1,-1,-1,-1,-1,-1],"loss_changes":[3.137698E5,7.417884E4,7.697272E4,5.5740645E4,2.1455406E4,8.4654E3,7.8571875E2,3.1190148E4,3.5678004E4,2.5945952E3,5.989492E3,1.0451221E2,6.2620605E1,4.8278125E2,1.2190771E3,1.852079E4,9.932617E1,2.6396875E2,5.344744E3,6.7115283E2,0E0,1.08984375E1,4.1349042E2,2.6469727E0,0E0,2.6544678E1,0E0,5.3921875E2,8.762376E1,2.972181E3,2.7660156E1,1.4203E4,6.5971006E3,0E0,6.1190025E1,3.2016602E0,0E0,8.4346924E1,8.439331E1,1.886258E1,8.668213E-1,1.7390137E1,1.24140625E1,2.9386932E1,0E0,3.261127E0,0E0,0E0,0E0,3.5327344E2,7.0875E1,0E0,0E0,4.1338867E1,5.166768E2,8.816406E0,2.267041E1,0E0,0E0,0E0,0E0,0E0,0E0,0E0,0E0,0E0,0E0,0E0,0E0,0E0,0E0,0E0,0E0,0E0,0E0,0E0,0E0,0E0,0E0,0E0,0E0,0E0,0E0,0E0,0E0,0E0,0E0,0E0,0E0,0E0,0E0,0E0,0E0],"parents":[2147483647,0,0,1,1,2,2,3,3,4,4,5,5,6,6,7,7,8,8,9,9,10,10,11,11,12,12,13,13,14,14,15,15,16,16,17,17,18,18,19,19,21,21,22,22,23,23,25,25,27,27,28,28,29,29,30,30,31,31,32,32,34,34,35,35,37,37,38,38,39,39,40,40,41,41,42,42,43,43,45,45,49,49,50,50,53,53,54,54,55,55,56,56],"right_children":[2,4,6,8,10,12,14,16,18,20,22,24,26,28,30,32,34,36,38,40,-1,42,44,46,-1,48,-1,50,52,54,56,58,60,-1,62,64,-1,66,68,70,72,74,76,78,-1,80,-1,-1,-1,82,84,-1,-1,86,88,90,92,-1,-1,-1,-1,-1,-1,-1,-1,-1,-1,-1,-1,-1,-1,-1,-1,-1,-1,-1,-1,-1,-1,-1,-1,-1,-1,-1,-1,-1,-1,-1,-1,-1,-1,-1,-1],"split_conditions":[6E0,1.7026E4,7.75E0,3.2779E4,8.362692E-2,8.1E1,2.56E2,3.0016E4,1E0,8.1E1,1.547982E3,1.3979E4,3.5568E4,3.56E2,2.51E2,4.007E3,4E1,3.5568E4,2E0,1.36E2,2.2643788E-1,3.0625E4,8.1E1,5.87E2,2.2543915E-1,3.0625E4,2.23761E-1,8.459974E-3,8.1E1,2.37E2,5.1296E4,6.43E2,2.36E2,2.2484641E-1,4.4E1,1.019E3,2.2466063E-1,4E0,1.64E7,4.211156E6,3.5575758E6,2.1155888E1,2.1E1,1.3E1,2.371553E-1,3E0,-5.934587E-2,2.9305026E-1,2.2222796E-1,3.5568E4,2.3E1,-5.8968928E-2,2.2995956E-1,3.5568E4,8.833333E0,2.0332666E4,5.3764E4,-4.821688E-2,2.48753E-1,3.8942624E-2,2.2801192E-1,-5.1118433E-2,2.1846926E-1,2.9546344E-1,2.3656328E-1,2.2813156E-1,-5.9084803E-2,2.2974339E-1,-5.4138917E-2,2.283238E-1,1.1129123E-1,-1.2306785E-2,-5.8702882E-2,2.8342283E-1,2.281364E-1,1.9538043E-1,2.2425985E-1,-5.901424E-2,2.0988145E-1,-3.211574E-2,1.03799365E-1,2.6771647E-1,2.244648E-1,2.9508784E-1,2.2475724E-1,2.7866167E-1,2.2421096E-1,2.759318E-1,-4.5800313E-2,2.4517202E-1,2.266985E-1,1.891515E-1,2.2422886E-1],"split_indices":[38,72,52,0,37,0,67,66,46,0,13,24,0,38,66,24,69,0,2,34,0,72,0,20,0,72,0,37,0,66,0,6,67,0,34,24,0,11,21,22,22,14,6,3,0,21,0,0,0,0,0,0,0,0,52,16,0,0,0,0,0,0,0,0,0,0,0,0,0,0,0,0,0,0,0,0,0,0,0,0,0,0,0,0,0,0,0,0,0,0,0,0,0],"split_type":[0,0,0,0,0,0,0,0,0,0,0,0,0,0,0,0,0,0,0,0,0,0,0,0,0,0,0,0,0,0,0,0,0,0,0,0,0,0,0,0,0,0,0,0,0,0,0,0,0,0,0,0,0,0,0,0,0,0,0,0,0,0,0,0,0,0,0,0,0,0,0,0,0,0,0,0,0,0,0,0,0,0,0,0,0,0,0,0,0,0,0,0,0],"sum_hessian":[5.284373E5,4.419444E5,8.64929E4,4.2036053E5,2.1583883E4,1.3277661E4,7.321524E4,3.9872844E5,2.1632078E4,4.7007524E3,1.688313E4,1.2290124E4,9.875366E2,6.8743945E4,4.4712935E3,3.9431744E5,4.4110146E3,1.30705E4,8.561579E3,4.3410117E3,3.5974075E2,1.5987147E4,8.959837E2,1.2278178E4,1.1946453E1,3.8716092E2,6.003757E2,6.866314E4,8.08068E1,1.7916204E3,2.6796733E3,3.862702E5,8.047253E3,4.3769697E3,3.404458E1,6.12748E2,1.2457752E4,7.8406367E3,7.2094183E2,9.766206E1,4.2433496E3,3.686319E2,1.5618516E4,8.4660034E2,4.938337E1,8.331978E0,1.2269846E4,2.9987512E2,8.728579E1,8.345442E3,6.03177E4,6.9469055E1,1.1337748E1,9.998346E2,7.9178577E2,1.6849421E3,9.947311E2,3.846539E5,1.6162767E3,5.1813315E3,2.8659211E3,2.1499418E1,1.254516E1,5.777964E2,3.49516E1,9.279938E0,7.831357E3,7.1066296E2,1.0278866E1,7.724251E1,2.041956E1,4.6322613E0,4.2387173E3,1.0683472E2,2.6179718E2,2.1086014E2,1.5407655E4,8.4346985E2,3.1305223E0,7.0718966E0,1.2600813E0,5.344196E3,3.0012468E3,1.5291818E2,6.016478E4,1.9566322E2,8.041714E2,5.2530434E1,7.392554E2,8.080888E2,8.7685333E2,3.298207E2,6.649104E2],"tree_param":{"num_deleted":"0","num_feature":"78","num_nodes":"93","size_leaf_vector":"1"}},{"base_weights":[-5.7666445E-1,-5.850246E-1,-3.1811467E-1,-3.557127E-1,-5.9095776E-1,-5.92357E-2,1.9179173E0,-5.9256565E-2,1.2149251E-1,-5.9130156E-1,-3.937758E-1,2.1899219E0,-5.891599E-2,1.6156291E0,-4.8052806E-1,-5.917506E-1,-5.4415166E-1,-5.9107393E-2,1.7723435E0,2.2004511E0,-5.0515063E-2,-5.941865E-2,1.9988708E0,-5.24633E-1,-1.8165545E-1,-5.9206974E-2,-5.8846056E-1,-5.928678E-2,7.9587287E-1,-5.450482E-2,2.2141425E-1,2.2025025E0,-3.1558473E-2,-5.89482E-2,2.1757713E-1,-5.76512E-2,-4.163588E-2,4.5183476E-2,-4.113766E-2,-5.9192885E-2,5.9114764E-3,2.1740595E-1,-5.8503576E-2,2.1184607E-1,2.2409974E-1],"categories":[],"categories_nodes":[],"categories_segments":[],"categories_sizes":[],"default_left":[0,0,0,0,0,0,0,0,0,0,0,0,0,0,0,0,0,0,0,0,0,0,0,0,0,0,0,0,0,0,0,0,0,0,0,0,0,0,0,0,0,0,0,0,0],"id":7,"left_children":[1,3,5,7,9,-1,11,-1,13,15,17,19,-1,21,23,25,27,-1,29,31,-1,-1,33,35,37,-1,39,-1,41,-1,-1,43,-1,-1,-1,-1,-1,-1,-1,-1,-1,-1,-1,-1,-1],"loss_changes":[1.0761094E3,6.5603125E2,9.566431E3,1.3753591E3,3.1640625E1,0E0,1.1635503E3,0E0,3.6319368E3,9.609375E0,3.5210062E2,4.474707E1,0E0,9.8326587E2,3.784491E1,1.40625E-1,2.9035095E2,0E0,7.166884E1,8.602539E0,0E0,0E0,4.5388208E2,1.3845398E1,5.4271286E1,0E0,9.272168E1,0E0,2.9853748E2,0E0,0E0,2.0458984E-1,0E0,0E0,0E0,0E0,0E0,0E0,0E0,0E0,0E0,0E0,0E0,0E0,0E0],"parents":[2147483647,0,0,1,1,2,2,3,3,4,4,6,6,8,8,9,9,10,10,11,11,13,13,14,14,15,15,16,16,18,18,19,19,22,22,23,23,24,24,26,26,28,28,31,31],"right_children":[2,4,6,8,10,-1,12,-1,14,16,18,20,-1,22,24,26,28,-1,30,32,-1,-1,34,36,38,-1,40,-1,42,-1,-1,44,-1,-1,-1,-1,-1,-1,-1,-1,-1,-1,-1,-1,-1],"split_conditions":[5.55E2,2.4E1,8.08E3,2.37E2,4.7903E4,-5.92357E-2,8.1E3,-5.9256565E-2,2.51E2,1.94E2,1.6647612E3,1.0240018E7,-5.891599E-2,2.56E2,6.7272725E5,8.08E3,8.08E3,-5.9107393E-2,4.44E2,1.04013E5,-5.0515063E-2,-5.941865E-2,8.833333E0,1.025E3,2.43E2,-5.9206974E-2,1.28E2,-5.928678E-2,8.1E3,-5.450482E-2,2.2141425E-1,6.00081E0,-3.1558473E-2,-5.89482E-2,2.1757713E-1,-5.76512E-2,-4.163588E-2,4.5183476E-2,-4.113766E-2,-5.9192885E-2,5.9114764E-3,2.1740595E-1,-5.8503576E-2,2.1184607E-1,2.2409974E-1],"split_indices":[29,34,0,66,4,0,0,0,66,29,41,23,0,67,14,0,0,0,0,72,0,0,52,66,67,0,10,0,0,0,0,15,0,0,0,0,0,0,0,0,0,0,0,0,0],"split_type":[0,0,0,0,0,0,0,0,0,0,0,0,0,0,0,0,0,0,0,0,0,0,0,0,0,0,0,0,0,0,0,0,0,0,0,0,0,0,0,0,0,0,0,0,0],"sum_hessian":[4.979374E5,4.823398E5,1.5597607E4,1.2166724E4,4.7017306E5,1.3894256E4,1.7033518E3,8.130862E3,4.0358613E3,4.6935266E5,8.204239E2,1.5367491E3,1.6660269E2,1.158624E3,2.8772373E3,4.6491316E5,4.4394927E3,7.526013E2,6.782258E1,1.5309517E3,5.797562E0,1.7115785E2,9.874661E2,2.506583E3,3.7065436E2,4.236464E5,4.126675E4,4.284296E3,1.5519661E2,1.0822268E1,5.7000313E1,1.5298289E3,1.1226927E0,6.302156E1,9.244446E2,1.6916931E3,8.1489E2,9.838267E1,2.7227167E2,4.1046992E4,2.1975502E2,7.738739E1,7.780921E1,4.981982E2,1.0316307E3],"tree_param":{"num_deleted":"0","num_feature":"78","num_nodes":"45","size_leaf_vector":"1"}},{"base_weights":[1.08423755E-1,-2.9073536E-1,2.2259777E0,1.1307868E0,-5.604898E-1,2.2411594E0,-5.808473E-1,1.8549132E0,-4.1305807E-1,-5.8086884E-1,1.6002281E0,-5.943289E-2,2.2480488E0,-5.862867E-1,7.425866E-2,2.1131232E0,-5.9567392E-2,-5.466509E-1,2.1955414E0,-5.846525E-1,-1.5655611E-1,2.2656412E0,-5.957936E-2,2.2499542E0,1.0844135E0,-5.890071E-1,1.4065799E-2,-5.832452E-1,2.1433742E0,-5.770059E-1,8.022864E-1,2.2437142E-1,-5.632751E-2,-5.8536434E-1,1.5753616E0,1.7395911E0,-3.8867727E-1,-4.5532335E-2,2.2691348E0,2.250076E0,6.160441E-1,-4.0298057E-1,2.2490735E-1,-5.917402E-2,1.3507326E-2,-5.960405E-2,3.8650062E-2,2.2109847E-1,1.09496765E-1,-2.4806082E-3,-5.8414217E-2,2.2473693E-1,-5.9425123E-2,-2.3556879E-2,-5.8618825E-2,2.2320588E-1,-5.7211604E-2,2.0537558E-1,-5.843659E-2,2.6413894E-1,-4.3592088E-2,2.2703508E-1,-3.179331E-2,2.2501183E-1,-3.5175294E-2,-4.7027208E-2,1.785148E-1,1.8782449E-1,-5.8171716E-2],"categories":[],"categories_nodes":[],"categories_segments":[],"categories_sizes":[],"default_left":[0,0,0,0,0,0,0,0,0,0,0,0,0,0,0,0,0,0,0,0,0,0,0,0,0,0,0,0,0,0,0,0,0,0,0,0,0,0,0,0,0,0,0,0,0,0,0,0,0,0,0,0,0,0,0,0,0,0,0,0,0,0,0,0,0,0,0,0,0],"id":8,"left_children":[1,3,5,7,9,11,13,15,17,19,21,-1,23,25,-1,27,-1,29,31,33,35,37,-1,39,41,43,-1,45,47,49,51,-1,-1,53,55,57,59,-1,61,63,65,67,-1,-1,-1,-1,-1,-1,-1,-1,-1,-1,-1,-1,-1,-1,-1,-1,-1,-1,-1,-1,-1,-1,-1,-1,-1,-1,-1],"loss_changes":[4.4696356E5,1.7061467E5,3.5751875E3,7.933609E4,1.6467938E4,1.6309062E3,3.6891327E0,3.056875E4,7.897644E3,5.946875E2,5.1076104E3,0E0,1.820625E2,9.7413635E-1,0E0,3.566E3,0E0,8.8311523E2,1.4799707E2,5.655469E2,1.4424353E3,2.6526367E1,0E0,1.515625E1,2.3992435E2,9.689026E-1,0E0,6.2565155E0,3.0610469E3,8.306152E1,9.595653E2,0E0,0E0,1.0566406E2,1.7226309E2,2.6217688E2,4.1904767E2,0E0,9.147461E0,9.9375E0,1.0459886E1,2.6144466E1,0E0,0E0,0E0,0E0,0E0,0E0,0E0,0E0,0E0,0E0,0E0,0E0,0E0,0E0,0E0,0E0,0E0,0E0,0E0,0E0,0E0,0E0,0E0,0E0,0E0,0E0,0E0],"parents":[2147483647,0,0,1,1,2,2,3,3,4,4,5,5,6,6,7,7,8,8,9,9,10,10,12,12,13,13,15,15,17,17,18,18,19,19,20,20,21,21,23,23,24,24,25,25,27,27,28,28,29,29,30,30,33,33,34,34,35,35,36,36,38,38,39,39,40,40,41,41],"right_children":[2,4,6,8,10,12,14,16,18,20,22,-1,24,26,-1,28,-1,30,32,34,36,38,-1,40,42,44,-1,46,48,50,52,-1,-1,54,56,58,60,-1,62,64,66,68,-1,-1,-1,-1,-1,-1,-1,-1,-1,-1,-1,-1,-1,-1,-1,-1,-1,-1,-1,-1,-1,-1,-1,-1,-1,-1,-1],"split_conditions":[1.3106659E3,4.8800644E-2,2.43E2,7.75E0,1E0,2.29E2,4.44E2,8.1E1,1E0,9.2E2,8.1E1,-5.943289E-2,2.5853482E2,1.22E2,7.425866E-2,6.4E1,-5.9567392E-2,1.4466667E2,7E0,1.448E3,3.45E2,2.27E2,-5.957936E-2,8.1E1,5.099093E6,6.01799E6,1.4065799E-2,2.6832817E0,4.77E2,8.833333E0,8.1E1,2.2437142E-1,-5.632751E-2,3E0,8.1E1,2.36E2,2.75E2,-4.5532335E-2,2.36E2,1.448E4,4.44E2,5.017279E6,2.2490735E-1,-5.917402E-2,1.3507326E-2,-5.960405E-2,3.8650062E-2,2.2109847E-1,1.09496765E-1,-2.4806082E-3,-5.8414217E-2,2.2473693E-1,-5.9425123E-2,-2.3556879E-2,-5.8618825E-2,2.2320588E-1,-5.7211604E-2,2.0537558E-1,-5.843659E-2,2.6413894E-1,-4.3592088E-2,2.2703508E-1,-3.179331E-2,2.2501183E-1,-3.5175294E-2,-4.7027208E-2,1.785148E-1,1.8782449E-1,-5.8171716E-2],"split_indices":[13,37,67,52,43,67,0,0,46,13,0,0,9,19,0,34,0,8,5,7,63,67,0,0,1,27,0,9,66,52,0,0,0,16,0,67,66,0,67,5,0,1,0,0,0,0,0,0,0,0,0,0,0,0,0,0,0,0,0,0,0,0,0,0,0,0,0,0,0],"split_type":[0,0,0,0,0,0,0,0,0,0,0,0,0,0,0,0,0,0,0,0,0,0,0,0,0,0,0,0,0,0,0,0,0,0,0,0,0,0,0,0,0,0,0,0,0,0,0,0,0,0,0,0,0,0,0,0,0,0,0,0,0,0,0,0,0,0,0,0,0],"sum_hessian":[5.2879844E5,4.4492994E5,8.386848E4,7.09647E4,3.7396522E5,8.3417484E4,4.509921E2,4.830669E4,2.2658016E4,3.704718E5,3.4934177E3,2.0198059E2,8.32155E4,4.4970078E2,1.2913043E0,4.3702086E4,4.604604E3,2.1554924E4,1.1030905E3,3.671971E5,3.2747139E3,2.6810154E3,8.124022E2,8.307852E4,1.369766E2,4.4821323E2,1.4875762E0,4.8465826E2,4.321743E4,2.108111E4,4.7381488E2,1.084343E3,1.874742E1,3.6707684E5,1.2024585E2,3.5645078E2,2.918263E3,3.2718613E0,2.6777437E3,8.307195E4,6.575006E0,6.0441017E1,7.6535576E1,4.4670984E2,1.5033802E0,4.7872708E2,5.9311914E0,4.059819E4,2.6192358E3,2.6901804E2,2.0812092E4,2.3256078E2,2.412541E2,8.632815E2,3.6621356E5,9.205585E1,2.8190004E1,3.141047E2,4.2346054E1,4.3958885E1,2.8743042E3,2.6766082E3,1.1355455E0,8.3070734E4,1.2132804E0,3.7180195E0,2.8569863E0,3.7006712E0,5.6740345E1],"tree_param":{"num_deleted":"0","num_feature":"78","num_nodes":"69","size_leaf_vector":"1"}},{"base_weights":[1.0829413E-1,2.2042956E0,-5.9210606E-2,2.2317529E0,-5.930659E-2,-4.9700856E-1,2.2387786E0,-5.964592E-2,2.1178E-1,2.2416449E0,-5.951434E-2,2.2441099E0,-5.944876E-2,2.2450852E-1,-6.285205E-2],"categories":[],"categories_nodes":[],"categories_segments":[],"categories_sizes":[],"default_left":[0,0,0,0,0,0,0,0,0,0,0,0,0,0,0],"id":9,"left_children":[1,3,-1,5,-1,7,9,-1,-1,11,-1,13,-1,-1,-1],"loss_changes":[7.763517E5,1.0174875E4,0E0,2.51575E3,0E0,8.907112E1,1.0640625E3,0E0,0E0,9.15E2,0E0,3.671875E2,0E0,0E0,0E0],"parents":[2147483647,0,0,1,1,3,3,5,5,6,6,9,9,11,11],"right_children":[2,4,-1,6,-1,8,10,-1,-1,12,-1,14,-1,-1,-1],"split_conditions":[2.3E1,2E0,-5.9210606E-2,2.8E1,-5.930659E-2,2.47E2,3.04E2,-5.964592E-2,2.1178E-1,3.4E1,-5.951434E-2,3.061E3,-5.944876E-2,2.2450852E-1,-6.285205E-2],"split_indices":[0,11,0,69,0,67,67,0,0,2,0,29,0,0,0],"split_type":[0,0,0,0,0,0,0,0,0,0,0,0,0,0,0],"sum_hessian":[5.288337E5,1.3245369E5,3.9638003E5,1.3116644E5,1.2872494E3,3.3666516E2,1.3082977E5,3.2507333E2,1.1591826E1,1.306978E5,1.3197781E2,1.3058451E5,1.1329168E2,1.3054041E5,4.410027E1],"tree_param":{"num_deleted":"0","num_feature":"78","num_nodes":"15","size_leaf_vector":"1"}},{"base_weights":[1.08318366E-1,-5.1811117E-1,1.7732228E0,-5.696962E-1,4.973843E-1,-5.930395E-2,2.144187E0,1.5290695E0,-5.7177293E-1,-5.9176784E-2,2.207145E0,2.2480156E0,-4.35987E-1,-5.5554175E-1,2.2052448E0,-5.7814825E-1,-6.153802E-2,2.2481802E-1,-5.9397936E-2,2.2482028E0,-5.2920397E-2,1.9476209E0,-5.8583546E-1,-5.8850955E-2,9.729086E-2,2.2418776E-1,6.367622E-1,-2.2965688E-1,-5.851201E-1,2.1146538E0,-5.72492E-1,2.2482319E-1,-3.2766756E-2,2.1645713E0,-5.6793194E-2,-5.961554E-2,2.251167E-1,-4.6182375E-2,1.6426013E-1,-5.921755E-2,2.2444752E-1,-5.877475E-2,-1.962757E-2,2.2475174E-1,-5.8026977E-2,-5.9174296E-2,2.2030842E-2,2.2292016E-1,-5.1567495E-2,2.1540852E-1,-5.774218E-2],"categories":[],"categories_nodes":[],"categories_segments":[],"categories_sizes":[],"default_left":[0,0,0,0,0,0,0,0,0,0,0,0,0,0,0,0,0,0,0,0,0,0,0,0,0,0,0,0,0,0,0,0,0,0,0,0,0,0,0,0,0,0,0,0,0,0,0,0,0,0,0],"id":10,"left_children":[1,3,5,7,9,-1,11,13,15,-1,17,19,21,23,25,27,29,-1,-1,31,-1,33,35,-1,-1,-1,37,39,41,43,45,-1,-1,47,-1,-1,49,-1,-1,-1,-1,-1,-1,-1,-1,-1,-1,-1,-1,-1,-1],"loss_changes":[5.515373E5,2.0128984E4,1.2691006E5,1.5947031E3,3.45934E4,0E0,3.3483375E4,5.111397E2,1.1883203E3,0E0,8.322461E2,6.3625E1,1.728358E3,5.077402E0,1.4278687E1,8.764844E2,5.0153335E3,0E0,0E0,9.6875E0,0E0,1.5745178E2,3.821704E1,0E0,0E0,0E0,9.195617E0,6.3499224E3,3.6127344E2,3.083943E2,5.587854E1,0E0,0E0,4.683484E1,0E0,0E0,9.088651E1,0E0,0E0,0E0,0E0,0E0,0E0,0E0,0E0,0E0,0E0,0E0,0E0,0E0,0E0],"parents":[2147483647,0,0,1,1,2,2,3,3,4,4,6,6,7,7,8,8,10,10,11,11,12,12,13,13,14,14,15,15,16,16,19,19,21,21,22,22,26,26,27,27,28,28,29,29,30,30,33,33,36,36],"right_children":[2,4,6,8,10,-1,12,14,16,-1,18,20,22,24,26,28,30,-1,-1,32,-1,34,36,-1,-1,-1,38,40,42,44,46,-1,-1,48,-1,-1,50,-1,-1,-1,-1,-1,-1,-1,-1,-1,-1,-1,-1,-1,-1],"split_conditions":[4.44E2,1.5384615E4,1E0,2.1E1,1E0,-5.930395E-2,4.8E1,6.6E1,4E1,-5.9176784E-2,2E0,2.8E1,2.3103154E0,6.83E2,1.23E2,3.2E1,1.48E2,2.2481802E-1,-5.9397936E-2,6.5535E4,-5.2920397E-2,1.3463313E3,2.9336228E6,-5.8850955E-2,9.729086E-2,2.2418776E-1,1.66018E6,1E0,2.92E4,4.4E1,0E0,2.2482319E-1,-3.2766756E-2,4.4E1,-5.6793194E-2,-5.961554E-2,1.75E2,-4.6182375E-2,1.6426013E-1,-5.921755E-2,2.2444752E-1,-5.877475E-2,-1.962757E-2,2.2475174E-1,-5.8026977E-2,-5.9174296E-2,2.2030842E-2,2.2292016E-1,-5.1567495E-2,2.1540852E-1,-5.774218E-2],"split_indices":[0,37,46,0,46,0,34,19,69,0,2,35,14,24,19,34,1,0,0,66,0,22,26,0,0,0,70,46,67,34,67,0,0,35,0,0,39,0,0,0,0,0,0,0,0,0,0,0,0,0,0],"split_type":[0,0,0,0,0,0,0,0,0,0,0,0,0,0,0,0,0,0,0,0,0,0,0,0,0,0,0,0,0,0,0,0,0,0,0,0,0,0,0,0,0,0,0,0,0,0,0,0,0,0,0],"sum_hessian":[5.2882475E5,3.8424944E5,1.445753E5,3.656744E5,1.8575033E4,1.9593562E4,1.24981734E5,3.6075388E2,3.6531366E5,1.1347256E4,7.2277783E3,1.2014703E5,4.8347056E3,8.839999E1,2.723539E2,3.6080528E5,4.5083716E3,7.1236177E3,1.04160576E2,1.20139125E5,7.9081626E0,2.8525272E2,4.549453E3,8.713548E1,1.2645023E0,2.657186E2,6.635312E0,7.0772246E3,3.5372806E5,8.5665857E2,3.651713E3,1.201379E5,1.2254567E0,2.627332E2,2.251953E1,4.492547E3,5.6906044E1,3.4299493E0,3.2053628E0,6.173432E3,9.0379254E2,3.5135344E5,2.374619E3,8.165668E2,4.0091816E1,3.565391E3,8.632179E1,2.5671124E2,6.021944E0,1.622465E1,4.0681396E1],"tree_param":{"num_deleted":"0","num_feature":"78","num_nodes":"51","size_leaf_vector":"1"}},{"base_weights":[1.0835606E-1,-4.9753118E-1,2.0294516E0,-5.408065E-1,4.939837E-1,2.1732852E0,-5.9328087E-2,-5.79321E-1,-1.6724142E-1,-2.2619349E-1,1.6712127E0,-5.9423786E-2,2.2212636E0,-4.5283437E-1,-5.8880913E-1,1.0559467E0,-5.456092E-1,-4.8001534E-1,2.1380205E0,2.0404603E0,-5.916045E-2,2.2356503E0,-5.929753E-2,-5.9233952E-2,3.1040394E-1,-5.9142685E-1,-3.905613E-1,-5.9295185E-2,2.065927E0,-5.9198536E-2,-2.0029102E-1,-5.423955E-1,2.8311579E-2,2.2425842E0,-5.771457E-2,-5.936676E-2,2.1886227E0,2.2399323E0,-5.9051167E-2,2.111713E-1,-5.9221804E-2,-5.9209585E-2,-5.637276E-2,-5.3375598E-2,5.3331524E-2,-6.2821925E-2,2.1718109E-1,1.1748045E-1,-5.9295792E-2,-5.932371E-2,-4.184143E-2,-5.921728E-2,1.0778846E-1,2.2487031E-1,-4.020737E-2,2.2234045E-1,-5.851264E-2,-5.9517767E-2,2.2431014E-1],"categories":[],"categories_nodes":[],"categories_segments":[],"categories_sizes":[],"default_left":[0,0,0,0,0,0,0,0,0,0,0,0,0,0,0,0,0,0,0,0,0,0,0,0,0,0,0,0,0,0,0,0,0,0,0,0,0,0,0,0,0,0,0,0,0,0,0,0,0,0,0,0,0,0,0,0,0,0,0],"id":11,"left_children":[1,3,5,7,9,11,-1,13,15,17,19,-1,21,23,25,27,29,31,33,35,-1,37,-1,-1,39,41,43,-1,45,-1,47,49,51,53,-1,-1,55,57,-1,-1,-1,-1,-1,-1,-1,-1,-1,-1,-1,-1,-1,-1,-1,-1,-1,-1,-1,-1,-1],"loss_changes":[6.155299E5,1.7250469E4,4.7832688E4,5.542258E3,1.4255027E4,1.59618125E4,0E0,4.188203E2,1.6664262E4,6.2615312E3,5.333461E3,0E0,4.7849375E3,2.5951636E3,1.6833594E2,1.4167638E4,4.4027393E2,2.9878198E2,2.8850684E2,2.1426523E3,0E0,1.4239375E3,0E0,0E0,6.1258726E3,5.609375E0,5.6073413E2,0E0,1.5062988E3,0E0,1.7595574E3,5.265088E1,6.719429E2,1.6670898E1,0E0,0E0,5.024707E2,1.055875E3,0E0,0E0,0E0,0E0,0E0,0E0,0E0,0E0,0E0,0E0,0E0,0E0,0E0,0E0,0E0,0E0,0E0,0E0,0E0,0E0,0E0],"parents":[2147483647,0,0,1,1,2,2,3,3,4,4,5,5,7,7,8,8,9,9,10,10,12,12,13,13,14,14,15,15,16,16,17,17,18,18,19,19,21,21,24,24,25,25,26,26,28,28,30,30,31,31,32,32,33,33,36,36,37,37],"right_children":[2,4,6,8,10,12,-1,14,16,18,20,-1,22,24,26,28,30,32,34,36,-1,38,-1,-1,40,42,44,-1,46,-1,48,50,52,54,-1,-1,56,58,-1,-1,-1,-1,-1,-1,-1,-1,-1,-1,-1,-1,-1,-1,-1,-1,-1,-1,-1,-1,-1],"split_conditions":[1.159E3,1.915E2,8.1E1,1E0,7.54E2,2.8E1,-5.9328087E-2,1E0,2.43E2,2.664E3,5.008872E6,-5.9423786E-2,1.3979E4,1.025E3,1.7650941E2,2.35E2,2.6E2,1.1632E4,6.04E2,1.36E2,-5.916045E-2,5.000017E6,-5.929753E-2,-5.9233952E-2,1.444E3,1.547359E2,7.54E2,-5.9295185E-2,2.6350461E3,-5.9198536E-2,8.1E1,2.36E2,6E1,5.3177625E5,-5.771457E-2,-5.936676E-2,6.04E2,2.3E1,-5.9051167E-2,2.111713E-1,-5.9221804E-2,-5.9209585E-2,-5.637276E-2,-5.3375598E-2,5.3331524E-2,-6.2821925E-2,2.1718109E-1,1.1748045E-1,-5.9295792E-2,-5.932371E-2,-4.184143E-2,-5.921728E-2,1.0778846E-1,2.2487031E-1,-4.020737E-2,2.2234045E-1,-5.851264E-2,-5.9517767E-2,2.2431014E-1],"split_indices":[67,9,0,48,29,69,0,39,67,34,18,0,24,66,9,67,66,5,6,35,0,74,0,0,66,9,29,0,36,0,0,67,29,17,0,0,6,0,0,0,0,0,0,0,0,0,0,0,0,0,0,0,0,0,0,0,0,0,0],"split_type":[0,0,0,0,0,0,0,0,0,0,0,0,0,0,0,0,0,0,0,0,0,0,0,0,0,0,0,0,0,0,0,0,0,0,0,0,0,0,0,0,0,0,0,0,0,0,0,0,0,0,0,0,0,0,0,0,0,0,0],"sum_hessian":[5.288187E5,4.0202594E5,1.2679274E5,3.8521353E5,1.6812428E4,1.2020095E5,6.5917935E3,3.4920944E5,3.6004074E4,1.0431624E4,6.380803E3,2.0481265E3,1.1815283E5,2.4370574E4,3.2483888E5,8.505544E3,2.7498531E4,9.420984E3,1.0106393E3,5.485736E3,8.9506726E2,1.1755209E5,6.0073065E2,2.0604664E4,3.7659092E3,3.206035E5,4.235389E3,3.2310042E3,5.2745396E3,2.4242105E4,3.2564243E3,8.391181E3,1.0298041E3,9.7332947E2,3.730978E1,2.9196576E2,5.1937705E3,1.1737446E5,1.7763031E2,1.2566827E3,2.5092266E3,3.1302278E5,7.580713E3,3.6673906E3,5.679984E2,1.9927145E2,5.075268E3,7.228957E2,2.5335286E3,5.9481895E3,2.4429915E3,6.474699E2,3.8233417E2,9.712321E2,2.0973396E0,5.129645E3,6.4125336E1,1.3084103E2,1.17243625E5],"tree_param":{"num_deleted":"0","num_feature":"78","num_nodes":"59","size_leaf_vector":"1"}},{"base_weights":[1.03402175E-1,-2.2069962E-1,1.5321823E0,-3.1188303E-1,1.3307332E0,-3.527454E-1,1.8167566E0,-3.963335E-1,1.0705943E0,-3.034951E-1,1.7163062E0,-5.826579E-1,1.9401941E0,1.8351979E0,1.5255163E0,-4.260597E-1,1.8125386E0,1.8367739E0,-3.3643043E-1,-5.181304E-1,1.8282317E-1,1.8147205E0,-4.01069E-1,-5.8571637E-1,1.8497603E-1,2.1281345E0,1.8092567E-1,1.8371727E0,-1.5225475E-1,1.0412095E0,1.8266811E0,-4.577995E-1,9.276995E-1,1.8216126E-1,4.811946E-1,2.2107227E-1,1.816911E-1,-5.795791E-1,1.8230025E0,1.6809764E0,-5.795003E-1,1.8162822E0,1.4653841E0,-5.6956774E-1,1.896407E-1,-4.5934733E-2,-5.861119E-2,2.2114444E-1,1.8019572E-1,1.9569277E0,1.8124398E0,-5.815316E-2,1.8623629E-1,1.8803905E0,-2.2944435E-1,1.8885663E0,1.7233118E0,-4.700313E-2,2.1090224E-1,1.3924937E-1,-2.9612575E-2,-5.008135E-2,1.8246734E-1,1.8552326E-1,-5.8340963E-2,1.8515094E-1,-5.3243626E-2,1.7251737E-1,-4.3259818E-2,-1.30493585E-2,-5.799925E-2,-1.0939193E-2,1.8164273E-1,-5.4178145E-2,1.6994537E-1,-5.825125E-2,1.7585425E-1,-3.2758147E-2,9.394636E-2,2.0560515E-1,1.8198712E-1,1.813562E-1,1.2103929E-2,2.135903E-1,1.8124658E-1,2.123405E-1,-4.45247E-2,1.9505948E-1,1.8179566E-1,4.2854793E-2,1.8615839E-1],"categories":[],"categories_nodes":[],"categories_segments":[],"categories_sizes":[],"default_left":[0,0,0,0,0,0,0,0,0,0,0,0,0,0,0,0,0,0,0,0,0,0,0,0,0,0,0,0,0,0,0,0,0,0,0,0,0,0,0,0,0,0,0,0,0,0,0,0,0,0,0,0,0,0,0,0,0,0,0,0,0,0,0,0,0,0,0,0,0,0,0,0,0,0,0,0,0,0,0,0,0,0,0,0,0,0,0,0,0,0,0],"id":12,"left_children":[1,3,5,7,9,11,13,15,17,19,21,23,25,27,29,31,33,35,37,39,-1,41,43,45,-1,47,-1,49,51,53,55,57,59,-1,61,-1,-1,63,65,67,69,71,73,75,-1,77,-1,-1,-1,79,81,-1,-1,83,85,87,89,-1,-1,-1,-1,-1,-1,-1,-1,-1,-1,-1,-1,-1,-1,-1,-1,-1,-1,-1,-1,-1,-1,-1,-1,-1,-1,-1,-1,-1,-1,-1,-1,-1,-1],"loss_changes":[2.4398172E5,6.0754035E4,5.225583E4,4.7357113E4,1.5022453E4,6.738E3,4.5175E2,2.5101184E4,2.51746E4,2.0836067E3,4.020211E3,8.749634E1,2.4813965E1,3.126875E2,7.341123E2,1.6207781E4,6.044922E1,1.0828516E2,4.324261E3,5.591946E2,0E0,7.3945312E0,3.3305585E2,2.4501953E0,0E0,8.858154E0,0E0,2.3196875E2,7.0213295E1,2.065999E3,1.6639648E1,1.1572445E4,4.915842E3,0E0,4.804433E1,0E0,0E0,7.0109375E1,5.695288E1,1.1260193E1,8.138428E-1,5.3242188E0,4.1894424E1,2.5125488E1,0E0,2.966554E0,0E0,0E0,0E0,1.810039E2,1.24890625E2,0E0,0E0,1.6378418E1,3.9261206E2,4.9282227E0,2.0975659E2,0E0,0E0,0E0,0E0,0E0,0E0,0E0,0E0,0E0,0E0,0E0,0E0,0E0,0E0,0E0,0E0,0E0,0E0,0E0,0E0,0E0,0E0,0E0,0E0,0E0,0E0,0E0,0E0,0E0,0E0,0E0,0E0,0E0,0E0],"parents":[2147483647,0,0,1,1,2,2,3,3,4,4,5,5,6,6,7,7,8,8,9,9,10,10,11,11,12,12,13,13,14,14,15,15,16,16,17,17,18,18,19,19,21,21,22,22,23,23,25,25,27,27,28,28,29,29,30,30,31,31,32,32,34,34,37,37,38,38,39,39,40,40,41,41,42,42,43,43,45,45,49,49,50,50,53,53,54,54,55,55,56,56],"right_children":[2,4,6,8,10,12,14,16,18,20,22,24,26,28,30,32,34,36,38,40,-1,42,44,46,-1,48,-1,50,52,54,56,58,60,-1,62,-1,-1,64,66,68,70,72,74,76,-1,78,-1,-1,-1,80,82,-1,-1,84,86,88,90,-1,-1,-1,-1,-1,-1,-1,-1,-1,-1,-1,-1,-1,-1,-1,-1,-1,-1,-1,-1,-1,-1,-1,-1,-1,-1,-1,-1,-1,-1,-1,-1,-1,-1],"split_conditions":[6E0,1.7026E4,7.75E0,3.2779E4,8.362692E-2,8.1E1,2.56E2,3.0016E4,1E0,8.1E1,1.547982E3,1.3979E4,3.5568E4,3.56E2,2.51E2,4.007E3,4E1,3.5568E4,2E0,1.36E2,1.8282317E-1,1.3106659E3,8.1E1,5.87E2,1.8497603E-1,3.0625E4,1.8092567E-1,1.1E1,8.1E1,2.37E2,1.025E3,1.034E3,4.99686E5,1.8216126E-1,4.4E1,2.2107227E-1,1.816911E-1,4E0,1.64E7,5.527E3,3.5575758E6,2.1E1,2.57E2,1.3E1,1.896407E-1,3E0,-5.861119E-2,2.2114444E-1,1.8019572E-1,3.5568E4,2.29E2,-5.815316E-2,1.8623629E-1,3.5568E4,8.833333E0,3.5568E4,1.444E3,-4.700313E-2,2.1090224E-1,1.3924937E-1,-2.9612575E-2,-5.008135E-2,1.8246734E-1,1.8552326E-1,-5.8340963E-2,1.8515094E-1,-5.3243626E-2,1.7251737E-1,-4.3259818E-2,-1.30493585E-2,-5.799925E-2,-1.0939193E-2,1.8164273E-1,-5.4178145E-2,1.6994537E-1,-5.825125E-2,1.7585425E-1,-3.2758147E-2,9.394636E-2,2.0560515E-1,1.8198712E-1,1.813562E-1,1.2103929E-2,2.135903E-1,1.8124658E-1,2.123405E-1,-4.45247E-2,1.9505948E-1,1.8179566E-1,4.2854793E-2,1.8615839E-1],"split_indices":[38,72,52,0,37,0,67,66,46,0,13,24,0,38,66,24,69,0,2,34,0,13,0,20,0,72,0,11,0,66,66,19,24,0,34,0,0,11,21,5,22,0,66,3,0,21,0,0,0,0,67,0,0,0,52,0,66,0,0,0,0,0,0,0,0,0,0,0,0,0,0,0,0,0,0,0,0,0,0,0,0,0,0,0,0,0,0,0,0,0,0],"split_type":[0,0,0,0,0,0,0,0,0,0,0,0,0,0,0,0,0,0,0,0,0,0,0,0,0,0,0,0,0,0,0,0,0,0,0,0,0,0,0,0,0,0,0,0,0,0,0,0,0,0,0,0,0,0,0,0,0,0,0,0,0,0,0,0,0,0,0,0,0,0,0,0,0,0,0,0,0,0,0,0,0,0,0,0,0,0,0,0,0,0,0],"sum_hessian":[5.268766E5,4.294597E5,9.741698E4,4.0562066E5,2.3839016E4,1.2778184E4,8.463879E4,3.822699E5,2.3350756E4,4.550825E3,1.9288191E4,1.161436E4,1.1638229E3,7.959363E4,5.0451597E3,3.7719456E5,5.0753374E3,1.5118073E4,8.232683E3,4.1352227E3,4.1560257E2,1.8431643E4,8.5654865E2,1.1600533E4,1.3827156E1,4.716253E2,6.921975E2,7.9514695E4,7.893523E1,1.9361196E3,3.1090398E3,3.6855422E5,8.640347E3,5.040614E3,3.4723686E1,7.5695465E2,1.4361118E4,7.4001675E3,8.325154E2,1.1155108E2,4.0236716E3,1.834543E4,8.621208E1,7.9872186E2,5.7826805E1,8.580092E0,1.1591953E4,3.7106937E2,1.00555916E2,1.3597696E4,6.5917E4,6.5656425E1,1.3278797E1,1.1657444E3,7.7037524E2,1.9339526E3,1.1750873E3,3.6680706E5,1.7471432E3,6.261983E3,2.3783638E3,2.0422907E1,1.4300778E1,1.0864573E1,7.3893027E3,8.227717E2,9.743701E0,1.094462E2,2.104887E0,4.697087E0,4.0189746E3,1.3251168E0,1.8344105E4,8.866502E0,7.734558E1,7.9505096E2,3.6708596E0,7.1920295E0,1.3880626E0,7.882676E3,5.7150205E3,6.587323E4,4.3777416E1,2.3842319E2,9.273212E2,6.3979633E1,7.063956E2,1.0153611E3,9.1859155E2,1.1377837E2,1.0613088E3],"tree_param":{"num_deleted":"0","num_feature":"78","num_nodes":"91","size_leaf_vector":"1"}},{"base_weights":[-5.689169E-1,-5.775442E-1,-3.080126E-1,-3.4514502E-1,-5.8368164E-1,-5.8544803E-2,1.5931805E0,-5.853802E-2,1.11622795E-1,-5.840396E-1,-3.806479E-1,1.7873832E0,-5.815334E-2,1.3541703E0,-4.6972665E-1,-5.844983E-1,-5.3630006E-1,-5.835926E-2,1.5497317E0,1.794771E0,-4.9452867E-2,-5.878302E-2,1.6369641E0,-5.211741E-1,-2.0235994E-1,-5.848391E-2,-5.809842E-1,-5.8628183E-2,7.1137285E-1,-5.365638E-2,1.8903413E-1,1.7962942E0,-3.2059543E-2,-5.823327E-2,1.7625658E-1,-5.7176095E-2,-4.1612454E-2,3.7870947E-2,-3.8322803E-2,-5.846175E-2,6.0727536E-3,1.7702349E-1,-5.7732392E-2,1.59702E-1,1.807147E-1],"categories":[],"categories_nodes":[],"categories_segments":[],"categories_sizes":[],"default_left":[0,0,0,0,0,0,0,0,0,0,0,0,0,0,0,0,0,0,0,0,0,0,0,0,0,0,0,0,0,0,0,0,0,0,0,0,0,0,0,0,0,0,0,0,0],"id":13,"left_children":[1,3,5,7,9,-1,11,-1,13,15,17,19,-1,21,23,25,27,-1,29,31,-1,-1,33,35,37,-1,39,-1,41,-1,-1,43,-1,-1,-1,-1,-1,-1,-1,-1,-1,-1,-1,-1,-1],"loss_changes":[1.0593125E3,6.496875E2,7.948783E3,1.2867155E3,3.2046875E1,0E0,8.115493E2,0E0,2.9205557E3,9.390625E0,3.0811407E2,3.0592773E1,0E0,7.0868555E2,3.778424E1,1.875E-1,2.6410535E2,0E0,5.421991E1,6.236328E0,0E0,0E0,3.14656E2,1.2034607E1,4.703302E1,0E0,9.086328E1,0E0,2.2387793E2,0E0,0E0,9.1064453E-1,0E0,0E0,0E0,0E0,0E0,0E0,0E0,0E0,0E0,0E0,0E0,0E0,0E0],"parents":[2147483647,0,0,1,1,2,2,3,3,4,4,6,6,8,8,9,9,10,10,11,11,13,13,14,14,15,15,16,16,18,18,19,19,22,22,23,23,24,24,26,26,28,28,31,31],"right_children":[2,4,6,8,10,-1,12,-1,14,16,18,20,-1,22,24,26,28,-1,30,32,-1,-1,34,36,38,-1,40,-1,42,-1,-1,44,-1,-1,-1,-1,-1,-1,-1,-1,-1,-1,-1,-1,-1],"split_conditions":[5.55E2,2.4E1,8.08E3,2.37E2,4.7903E4,-5.8544803E-2,8.1E3,-5.853802E-2,2.51E2,1.94E2,1.6647612E3,1.0240018E7,-5.815334E-2,2.56E2,5.752809E5,8.08E3,8.08E3,-5.835926E-2,4.44E2,4.5E1,-4.9452867E-2,-5.878302E-2,8.833333E0,1.025E3,2.43E2,-5.848391E-2,1.28E2,-5.8628183E-2,8.1E3,-5.365638E-2,1.8903413E-1,5.329705E2,-3.2059543E-2,-5.823327E-2,1.7625658E-1,-5.7176095E-2,-4.1612454E-2,3.7870947E-2,-3.8322803E-2,-5.846175E-2,6.0727536E-3,1.7702349E-1,-5.7732392E-2,1.59702E-1,1.807147E-1],"split_indices":[29,34,0,66,4,0,0,0,66,29,41,23,0,67,14,0,0,0,0,12,0,0,52,66,67,0,10,0,0,0,0,27,0,0,0,0,0,0,0,0,0,0,0,0,0],"split_type":[0,0,0,0,0,0,0,0,0,0,0,0,0,0,0,0,0,0,0,0,0,0,0,0,0,0,0,0,0,0,0,0,0,0,0,0,0,0,0,0,0,0,0,0,0],"sum_hessian":[4.706882E5,4.5562097E5,1.5067203E4,1.1724418E4,4.4389656E5,1.3149088E4,1.918115E3,7.6831924E3,4.041226E3,4.4311338E5,7.831777E2,1.7610323E3,1.5708261E2,1.2876779E3,2.753548E3,4.3888597E5,4.22742E3,7.093047E2,7.387295E1,1.7555621E3,5.470163E0,1.6353967E2,1.1241381E3,2.3084087E3,4.451395E2,3.999305E5,3.8955445E4,4.0651018E3,1.6231801E2,1.0287126E1,6.358582E1,1.7544496E3,1.1125842E0,6.001839E1,1.0641198E3,1.5551029E3,7.5330585E2,1.05407196E2,3.397323E2,3.8736215E4,2.1923137E2,8.889965E1,7.341836E1,9.8266464E1,1.6561831E3],"tree_param":{"num_deleted":"0","num_feature":"78","num_nodes":"45","size_leaf_vector":"1"}},{"base_weights":[1.0138538E-1,-2.8057244E-1,1.803329E0,9.8065263E-1,-5.5213845E-1,1.81417E0,-5.76586E-1,1.4822279E0,-5.691915E-1,-5.7312894E-1,1.343286E0,-5.914384E-2,1.8191288E0,-5.8216995E-1,9.326216E-2,1.6680297E0,-5.883081E-2,1.7528743E0,-5.863236E-1,-5.770463E-1,-1.5454549E-1,1.8363482E0,-5.917422E-2,1.8204126E0,9.648833E-1,-5.849624E-1,1.44958645E-2,-5.2009726E-1,1.7271745E0,1.814693E-1,-4.590344E-2,-4.9777552E-1,-5.869783E-2,-5.7778597E-1,1.3941085E0,1.4390739E0,-3.8029656E-1,-4.4997487E-2,1.8388548E0,1.8204945E0,5.760232E-1,-3.8972348E-1,1.8530987E-1,-5.877605E-2,1.3217357E-2,-5.662022E-2,2.801259E-1,-6.100468E-2,1.7580712E-1,-5.4071594E-2,1.9110605E-1,-5.782801E-2,4.445829E-3,1.9023126E-1,-5.640612E-2,1.6779433E-1,-5.920899E-2,-4.258444E-2,2.1287243E-1,1.839736E-1,-3.1436272E-2,1.820526E-1,-3.533694E-2,-4.6469793E-2,1.5942262E-1,1.6480942E-1,-5.739465E-2],"categories":[],"categories_nodes":[],"categories_segments":[],"categories_sizes":[],"default_left":[0,0,0,0,0,0,0,0,0,0,0,0,0,0,0,0,0,0,0,0,0,0,0,0,0,0,0,0,0,0,0,0,0,0,0,0,0,0,0,0,0,0,0,0,0,0,0,0,0,0,0,0,0,0,0,0,0,0,0,0,0,0,0,0,0,0,0],"id":14,"left_children":[1,3,5,7,9,11,13,15,17,19,21,-1,23,25,-1,27,-1,29,31,33,35,37,-1,39,41,43,-1,45,47,-1,-1,49,-1,51,53,55,57,-1,59,61,63,65,-1,-1,-1,-1,-1,-1,-1,-1,-1,-1,-1,-1,-1,-1,-1,-1,-1,-1,-1,-1,-1,-1,-1,-1,-1],"loss_changes":[3.4239788E5,1.4733581E5,2.4918438E3,5.9246617E4,1.4083195E4,1.1474062E3,4.2385254E0,2.215239E4,7.4236523E2,5.739375E2,3.700255E3,0E0,1.0340625E2,9.731903E-1,0E0,6.8390625E3,0E0,1.952945E1,7.8027344E-1,5.065E2,1.1687799E3,1.8536133E1,0E0,8.6875E0,1.7645865E2,9.5266724E-1,0E0,2.1465247E2,3.71625E3,0E0,0E0,1.575869E1,0E0,1.0661719E2,1.3083778E2,1.9658679E2,3.260471E2,0E0,6.4335938E0,7.15625E0,8.97169E0,2.2971252E1,0E0,0E0,0E0,0E0,0E0,0E0,0E0,0E0,0E0,0E0,0E0,0E0,0E0,0E0,0E0,0E0,0E0,0E0,0E0,0E0,0E0,0E0,0E0,0E0,0E0],"parents":[2147483647,0,0,1,1,2,2,3,3,4,4,5,5,6,6,7,7,8,8,9,9,10,10,12,12,13,13,15,15,17,17,18,18,19,19,20,20,21,21,23,23,24,24,25,25,27,27,28,28,31,31,33,33,34,34,35,35,36,36,38,38,39,39,40,40,41,41],"right_children":[2,4,6,8,10,12,14,16,18,20,22,-1,24,26,-1,28,-1,30,32,34,36,38,-1,40,42,44,-1,46,48,-1,-1,50,-1,52,54,56,58,-1,60,62,64,66,-1,-1,-1,-1,-1,-1,-1,-1,-1,-1,-1,-1,-1,-1,-1,-1,-1,-1,-1,-1,-1,-1,-1,-1,-1],"split_conditions":[1.3106659E3,4.8800644E-2,2.43E2,6.3761924E3,1E0,2.29E2,2.3965076E3,8.1E1,3E0,9.2E2,8.1E1,-5.914384E-2,2.5853482E2,1.22E2,9.326216E-2,6E1,-5.883081E-2,8.1E1,1.299067E4,1.448E3,3.45E2,2.27E2,-5.917422E-2,8.1E1,5.099093E6,6.01799E6,1.44958645E-2,1E0,7E1,1.814693E-1,-4.590344E-2,1E0,-5.869783E-2,2.49E7,8.1E1,9E0,2.76E7,-4.4997487E-2,2.36E2,1.448E4,4.44E2,5.017279E6,1.8530987E-1,-5.877605E-2,1.3217357E-2,-5.662022E-2,2.801259E-1,-6.100468E-2,1.7580712E-1,-5.4071594E-2,1.9110605E-1,-5.782801E-2,4.445829E-3,1.9023126E-1,-5.640612E-2,1.6779433E-1,-5.920899E-2,-4.258444E-2,2.1287243E-1,1.839736E-1,-3.1436272E-2,1.820526E-1,-3.533694E-2,-4.6469793E-2,1.5942262E-1,1.6480942E-1,-5.739465E-2],"split_indices":[13,37,67,14,43,67,41,0,52,13,0,0,9,19,0,34,0,0,14,7,63,67,0,0,1,27,0,43,0,0,0,43,0,26,0,3,22,0,67,5,0,1,0,0,0,0,0,0,0,0,0,0,0,0,0,0,0,0,0,0,0,0,0,0,0,0,0],"split_type":[0,0,0,0,0,0,0,0,0,0,0,0,0,0,0,0,0,0,0,0,0,0,0,0,0,0,0,0,0,0,0,0,0,0,0,0,0,0,0,0,0,0,0,0,0,0,0,0,0,0,0,0,0,0,0,0,0,0,0,0,0,0,0,0,0,0,0],"sum_hessian":[5.2670694E5,4.3016762E5,9.6539305E4,7.621274E4,3.5395488E5,9.610178E4,4.375246E2,5.7578637E4,1.8634104E4,3.5007872E5,3.8761719E3,1.9744342E2,9.5904336E4,4.3652374E2,1.0008426E0,5.283741E4,4.741226E3,1.3573242E2,1.8498371E4,3.4683247E5,3.2462441E3,3.0890947E3,7.870774E2,9.575927E4,1.4505966E2,4.350485E2,1.4752544E0,1.3903984E3,5.144701E4,1.3221678E2,3.515636E0,1.4136131E2,1.835701E4,3.4670306E5,1.2939722E2,4.0213348E2,2.8441106E3,3.187583E0,3.085907E3,9.575251E4,6.7674117E0,5.7669624E1,8.739004E1,4.3353735E2,1.5111327E0,1.3721803E3,1.8218222E1,6.70979E2,5.077603E4,1.3964746E2,1.7138577E0,3.4642803E5,2.7501712E2,1.0275716E2,2.6640057E1,3.599737E2,4.215978E1,2.7942158E3,4.989489E1,3.0847905E3,1.116565E0,9.575129E4,1.2191854E0,3.615531E0,3.1518807E0,4.122427E0,5.35472E1],"tree_param":{"num_deleted":"0","num_feature":"78","num_nodes":"67","size_leaf_vector":"1"}},{"base_weights":[1.0114699E-1,1.7879065E0,-5.8493134E-2,1.807101E0,-5.863579E-2,-4.964207E-1,1.8122072E0,-5.9470367E-2,1.7454074E-1,1.8143159E0,-5.94816E-2,1.8161298E0,-5.9420764E-2,1.8169624E-1,-6.171463E-2],"categories":[],"categories_nodes":[],"categories_segments":[],"categories_sizes":[],"default_left":[0,0,0,0,0,0,0,0,0,0,0,0,0,0,0],"id":15,"left_children":[1,3,-1,5,-1,7,9,-1,-1,11,-1,13,-1,-1,-1],"loss_changes":[6.0948994E5,6.9409688E3,0E0,1.7776875E3,0E0,7.4826965E1,7.6615625E2,0E0,0E0,6.5903125E2,0E0,3.06E2,0E0,0E0,0E0],"parents":[2147483647,0,0,1,1,3,3,5,5,6,6,9,9,11,11],"right_children":[2,4,-1,6,-1,8,10,-1,-1,12,-1,14,-1,-1,-1],"split_conditions":[2.3E1,2E0,-5.8493134E-2,2.8E1,-5.863579E-2,2.47E2,3.04E2,-5.9470367E-2,1.7454074E-1,3.4E1,-5.94816E-2,2E0,-5.9420764E-2,1.8169624E-1,-6.171463E-2],"split_indices":[0,11,0,69,0,67,67,0,0,2,0,51,0,0,0],"split_type":[0,0,0,0,0,0,0,0,0,0,0,0,0,0,0],"sum_hessian":[5.266694E5,1.5227983E5,3.7438956E5,1.5105884E5,1.2209845E3,3.3389673E2,1.5072495E5,3.2057718E2,1.3319551E1,1.5059327E5,1.316798E2,1.5048019E5,1.1308334E2,1.5042897E5,5.1219585E1],"tree_param":{"num_deleted":"0","num_feature":"78","num_nodes":"15","size_leaf_vector":"1"}},{"base_weights":[1.0119149E-1,-5.087809E-1,1.477257E0,-5.616655E-1,4.5205495E-1,-5.8584005E-2,1.7439574E0,-5.692835E-1,1.7396291E-3,-5.8460493E-2,1.788714E0,1.8185828E0,-4.330758E-1,-1.8004845E-1,-5.7755387E-1,-5.8526784E-2,1.6783391E0,1.8189374E-1,-5.936529E-2,1.8187138E0,-5.20665E-2,1.6191821E0,-5.8240163E-1,-5.8261037E-1,1.8171771E-1,-5.8029926E-1,-1.8743183E-1,-3.2066607E-1,1.8303945E0,1.8187344E-1,-3.1957567E-2,1.7757038E0,-5.6016978E-2,-5.9282154E-2,2.1374635E-1,-5.8505286E-2,9.127564E-2,-5.8375925E-2,-5.6183632E-2,2.7821854E-1,-5.948853E-2,-5.9717204E-2,2.3901136E-1,2.472621E-1,1.8190508E-1,-5.0738852E-2,1.8229914E-1,1.7662981E-1,-5.6914855E-2],"categories":[],"categories_nodes":[],"categories_segments":[],"categories_sizes":[],"default_left":[0,0,0,0,0,0,0,0,0,0,0,0,0,0,0,0,0,0,0,0,0,0,0,0,0,0,0,0,0,0,0,0,0,0,0,0,0,0,0,0,0,0,0,0,0,0,0,0,0],"id":16,"left_children":[1,3,5,7,9,-1,11,13,15,-1,17,19,21,23,25,-1,27,-1,-1,29,-1,31,33,35,-1,37,39,41,43,-1,-1,45,-1,-1,47,-1,-1,-1,-1,-1,-1,-1,-1,-1,-1,-1,-1,-1,-1],"loss_changes":[4.4206422E5,1.8542656E4,8.900344E4,1.4845078E3,2.6380639E4,0E0,2.3271656E4,1.0984688E3,4.5432583E3,0E0,5.9983984E2,4.340625E1,1.4560181E3,5.7108223E3,3.5777344E2,0E0,3.644629E2,0E0,0E0,6.6875E0,0E0,1.1093988E2,3.685022E1,2.212378E1,0E0,2.0859375E1,2.8289104E3,6.5493706E1,3.6079102E0,0E0,0E0,3.3416504E1,0E0,0E0,7.1410614E1,0E0,0E0,0E0,0E0,0E0,0E0,0E0,0E0,0E0,0E0,0E0,0E0,0E0,0E0],"parents":[2147483647,0,0,1,1,2,2,3,3,4,4,6,6,7,7,8,8,10,10,11,11,12,12,13,13,14,14,16,16,19,19,21,21,22,22,23,23,25,25,26,26,27,27,28,28,31,31,34,34],"right_children":[2,4,6,8,10,-1,12,14,16,-1,18,20,22,24,26,-1,28,-1,-1,30,-1,32,34,36,-1,38,40,42,44,-1,-1,46,-1,-1,48,-1,-1,-1,-1,-1,-1,-1,-1,-1,-1,-1,-1,-1,-1],"split_conditions":[4.44E2,1.5384615E4,1E0,4E1,1E0,-5.8584005E-2,4.8E1,3.2E1,0E0,-5.8460493E-2,2E0,2.8E1,2.3103154E0,1E0,2.92E4,-5.8526784E-2,1.0181725E4,1.8189374E-1,-5.936529E-2,6.5535E4,-5.20665E-2,1.3463313E3,2.9336228E6,5.0603E4,1.8171771E-1,1.3215277E2,9.92E2,1.667969E6,1.3392857E4,1.8187344E-1,-3.1957567E-2,1.95E2,-5.6016978E-2,-5.9282154E-2,1.75E2,-5.8505286E-2,9.127564E-2,-5.8375925E-2,-5.6183632E-2,2.7821854E-1,-5.948853E-2,-5.9717204E-2,2.3901136E-1,2.472621E-1,1.8190508E-1,-5.0738852E-2,1.8229914E-1,1.7662981E-1,-5.6914855E-2],"split_indices":[0,37,46,69,46,0,34,34,67,0,2,35,14,46,67,0,14,0,0,66,0,22,26,24,0,37,1,24,15,0,0,20,0,0,39,0,0,0,0,0,0,0,0,0,0,0,0,0,0],"split_type":[0,0,0,0,0,0,0,0,0,0,0,0,0,0,0,0,0,0,0,0,0,0,0,0,0,0,0,0,0,0,0,0,0,0,0,0,0,0,0,0,0,0,0,0,0,0,0,0,0],"sum_hessian":[5.2666506E5,3.6491072E5,1.6175436E5,3.4587416E5,1.9036557E4,1.8516475E4,1.4323789E5,3.4125984E5,4.6143066E3,1.0721752E4,8.314805E3,1.384908E5,4.7470854E3,7.1006343E3,3.3415922E5,3.4181887E3,1.196118E3,8.210876E3,1.03928665E2,1.3848327E5,7.5395246E0,3.213108E2,4.4257744E3,5.910099E3,1.1905348E3,3.3182362E5,2.3356116E3,8.447352E1,1.1116445E3,1.3848208E5,1.1812792E0,2.9995328E2,2.1357508E1,4.368851E3,5.6923656E1,5.9010693E3,9.029805E0,2.7942738E5,5.2396242E4,2.810952E2,2.0545164E3,7.73621E1,7.111413E0,1.5528363E1,1.0961162E3,5.8891582E0,2.9406412E2,1.866103E1,3.8262627E1],"tree_param":{"num_deleted":"0","num_feature":"78","num_nodes":"49","size_leaf_vector":"1"}},{"base_weights":[1.012675E-1,-4.8779696E-1,1.6640137E0,-5.319981E-1,4.4633994E-1,1.7660834E0,-5.866566E-2,-5.7162195E-1,-1.6019759E-1,-2.186951E-1,1.4009403E0,-5.880422E-2,1.7998698E0,-4.428526E-1,-5.8141404E-1,9.1746306E-1,-5.3670186E-1,-4.7009623E-1,1.7425013E0,1.6695553E0,-5.843891E-2,1.8098804E0,-5.856475E-2,-5.85517E-2,2.859404E-1,-5.8414745E-1,-3.7839103E-1,-5.868457E-2,1.6851468E0,-5.846281E-2,-1.9445181E-1,-5.339465E-1,2.9200926E-2,1.8156261E0,-5.6927342E-2,-5.893745E-2,1.776493E0,1.8128318E0,-6.413569E-2,1.7613702E-1,-5.865971E-2,-5.8484912E-2,-5.5516988E-2,-5.241838E-2,4.7866948E-2,1.7659786E-1,-6.0836326E-2,9.9656425E-2,-5.865693E-2,-5.8681276E-2,-4.0672116E-2,9.670266E-2,-5.936159E-2,1.8199302E-1,-3.923854E-2,1.8008366E-1,-5.7794716E-2,-5.948163E-2,1.8151826E-1],"categories":[],"categories_nodes":[],"categories_segments":[],"categories_sizes":[],"default_left":[0,0,0,0,0,0,0,0,0,0,0,0,0,0,0,0,0,0,0,0,0,0,0,0,0,0,0,0,0,0,0,0,0,0,0,0,0,0,0,0,0,0,0,0,0,0,0,0,0,0,0,0,0,0,0,0,0,0,0],"id":17,"left_children":[1,3,5,7,9,11,-1,13,15,17,19,-1,21,23,25,27,29,31,33,35,-1,37,-1,-1,39,41,43,-1,45,-1,47,49,51,53,-1,-1,55,57,-1,-1,-1,-1,-1,-1,-1,-1,-1,-1,-1,-1,-1,-1,-1,-1,-1,-1,-1,-1,-1],"loss_changes":[4.848537E5,1.5794094E4,3.3123844E4,5.380547E3,1.0971861E4,1.0971594E4,0E0,4.1591406E2,1.4273067E4,5.023454E3,3.7854062E3,0E0,3.2482812E3,2.4257485E3,1.6998438E2,1.051924E4,4.2749463E2,2.8790247E2,1.9673706E2,1.5110527E3,0E0,9.808125E2,0E0,0E0,4.918534E3,5.8359375E0,5.0975378E2,0E0,1.1191094E3,0E0,1.4967476E3,5.361206E1,5.991579E2,1.1381348E1,0E0,0E0,3.4314062E2,7.665625E2,0E0,0E0,0E0,0E0,0E0,0E0,0E0,0E0,0E0,0E0,0E0,0E0,0E0,0E0,0E0,0E0,0E0,0E0,0E0,0E0,0E0],"parents":[2147483647,0,0,1,1,2,2,3,3,4,4,5,5,7,7,8,8,9,9,10,10,12,12,13,13,14,14,15,15,16,16,17,17,18,18,19,19,21,21,24,24,25,25,26,26,28,28,30,30,31,31,32,32,33,33,36,36,37,37],"right_children":[2,4,6,8,10,12,-1,14,16,18,20,-1,22,24,26,28,30,32,34,36,-1,38,-1,-1,40,42,44,-1,46,-1,48,50,52,54,-1,-1,56,58,-1,-1,-1,-1,-1,-1,-1,-1,-1,-1,-1,-1,-1,-1,-1,-1,-1,-1,-1,-1,-1],"split_conditions":[1.159E3,1.915E2,8.1E1,1E0,7.54E2,2.8E1,-5.866566E-2,1E0,2.43E2,2.664E3,5.008872E6,-5.880422E-2,1.3979E4,1.025E3,1.7650941E2,2.35E2,2.6E2,1.1632E4,6.04E2,1.36E2,-5.843891E-2,2.2920805E2,-5.856475E-2,-5.85517E-2,1.444E3,1.547359E2,7.54E2,-5.868457E-2,8.1E1,-5.846281E-2,8.1E1,2.36E2,1.2994212E6,5.3177625E5,-5.6927342E-2,-5.893745E-2,6.04E2,2.3E1,-6.413569E-2,1.7613702E-1,-5.865971E-2,-5.8484912E-2,-5.5516988E-2,-5.241838E-2,4.7866948E-2,1.7659786E-1,-6.0836326E-2,9.9656425E-2,-5.865693E-2,-5.8681276E-2,-4.0672116E-2,9.670266E-2,-5.936159E-2,1.8199302E-1,-3.923854E-2,1.8008366E-1,-5.7794716E-2,-5.948163E-2,1.8151826E-1],"split_indices":[67,9,0,48,29,69,0,39,67,34,18,0,24,66,9,67,66,5,6,35,0,9,0,0,66,9,29,0,0,0,0,67,17,17,0,0,6,0,0,0,0,0,0,0,0,0,0,0,0,0,0,0,0,0,0,0,0,0,0],"split_type":[0,0,0,0,0,0,0,0,0,0,0,0,0,0,0,0,0,0,0,0,0,0,0,0,0,0,0,0,0,0,0,0,0,0,0,0,0,0,0,0,0,0,0,0,0,0,0,0,0,0,0,0,0,0,0,0,0,0,0],"sum_hessian":[5.2669344E5,3.8251006E5,1.4418336E5,3.6522872E5,1.7281322E4,1.379284E5,6.2549463E3,3.300534E5,3.5175324E4,1.018593E4,7.095393E3,1.9513033E3,1.3597711E5,2.3327996E4,3.067254E5,9.107026E3,2.6068297E4,9.029252E3,1.1566781E3,6.249936E3,8.45457E2,1.3540911E5,5.679927E2,1.9509186E4,3.818811E3,3.0264888E5,4.076549E3,3.0772534E3,6.029773E3,2.2865646E4,3.2026504E3,8.0054434E3,1.02380804E3,1.1214205E3,3.5257587E1,2.8229437E2,5.9676416E3,1.3524653E5,1.6258179E2,1.4187451E3,2.400066E3,2.9547466E5,7.1742183E3,3.4842405E3,5.923086E2,5.8247183E3,2.0505466E2,7.9286475E2,2.4097856E3,5.6528784E3,2.3525654E3,4.0835788E2,6.154502E2,1.1194142E3,2.0063174E0,5.906803E3,6.083822E1,1.3168015E2,1.3511486E5],"tree_param":{"num_deleted":"0","num_feature":"78","num_nodes":"59","size_leaf_vector":"1"}},{"base_weights":[9.825916E-2,-2.1083859E-1,1.3159697E0,-4.5421752E-1,3.0077094E-1,-3.431526E-1,1.5339794E0,-4.8879245E-1,1.3469372E0,1.7447357E0,-4.5304146E-1,-5.758103E-1,1.6194905E0,1.5480332E0,1.308413E0,-5.229394E-1,8.284613E-1,1.5407462E0,-5.59931E-1,1.8971474E0,1.503866E0,-5.6780267E-1,2.0775757E0,-5.789667E-1,1.5785426E-1,1.7430162E0,1.5302423E-1,1.5495174E0,-1.451947E-1,9.239027E-1,1.5400627E0,-5.3424066E-1,1.6647488E0,1.5010458E0,-3.707608E-1,1.5449755E0,1.102487E-1,1.4066364E-1,-5.7647523E-2,2.2706306E0,1.5435295E0,-4.001933E-1,1.5911456E0,1.5473635E-1,-5.745502E-1,2.7421594E0,1.6829835E0,-6.528559E-2,-5.793752E-2,1.7956834E-1,1.5258782E-1,1.5370215E0,1.6680527E0,-5.7408582E-2,1.5726933E-1,1.5797133E0,-1.7813297E-1,1.5886099E0,1.4590443E0,-5.4202255E-2,1.9271961E-1,-5.675857E-2,1.7996632E-1,1.6512165E-2,1.7154956E-1,-4.6743285E-2,2.0950265E-1,1.5454929E-1,-2.7529193E-2,1.5266372E-1,-5.28748E-2,2.612249E-1,1.535715E-1,1.6990714E-1,1.540194E-1,1.9283915E-1,-5.738802E-2,2.6312178E-1,1.5507066E-1,-5.7730313E-2,2.1807776E-1,2.9077935E-1,1.5803373E-1,1.8848057E-1,1.5326522E-1,-3.3395287E-2,8.494843E-2,1.5384285E-1,1.03471436E-1,1.7913006E-1,1.5435165E-1,1.7496881E-1,1.5328266E-1,-3.9865438E-2,1.7572728E-1,1.629809E-1,1.5412354E-1,3.621842E-2,1.5700561E-1],"categories":[],"categories_nodes":[],"categories_segments":[],"categories_sizes":[],"default_left":[0,0,0,0,0,0,0,0,0,0,0,0,0,0,0,0,0,0,0,0,0,0,0,0,0,0,0,0,0,0,0,0,0,0,0,0,0,0,0,0,0,0,0,0,0,0,0,0,0,0,0,0,0,0,0,0,0,0,0,0,0,0,0,0,0,0,0,0,0,0,0,0,0,0,0,0,0,0,0,0,0,0,0,0,0,0,0,0,0,0,0,0,0,0,0,0,0,0,0],"id":18,"left_children":[1,3,5,7,9,11,13,15,17,19,21,23,25,27,29,31,33,35,37,39,41,43,45,47,-1,49,-1,51,53,55,57,59,61,63,65,67,69,-1,-1,71,73,75,77,-1,79,81,83,85,-1,-1,-1,87,89,-1,-1,91,93,95,97,-1,-1,-1,-1,-1,-1,-1,-1,-1,-1,-1,-1,-1,-1,-1,-1,-1,-1,-1,-1,-1,-1,-1,-1,-1,-1,-1,-1,-1,-1,-1,-1,-1,-1,-1,-1,-1,-1,-1,-1],"loss_changes":[1.9625562E5,5.178033E4,3.8181562E4,1.7549688E4,1.4591802E5,5.5993125E3,2.9373438E2,1.2437133E4,1.962459E3,1.6851406E3,2.5580268E4,7.545264E1,1.1660156E1,2.2092188E2,4.865537E2,6.6641094E3,5.6359277E3,2.8979492E1,1.6767288E1,3.715211E3,2.9627031E3,1.2034277E3,9.9744336E2,2.2592773E0,0E0,3.4118652E0,0E0,1.2740625E2,5.8243958E1,1.4906656E3,1.1123047E1,5.1368438E3,4.1824536E2,1.282168E3,5.996073E2,4.948242E0,1.4637061E1,0E0,0E0,3.4334531E3,4.8867188E0,3.1738675E2,7.1273047E2,0E0,6.383242E2,2.690459E2,6.993359E1,2.6984682E0,0E0,0E0,0E0,5.4515625E1,1.2549219E2,0E0,0E0,7.6223145E0,3.2943982E2,1.6362305E0,1.5683594E2,0E0,0E0,0E0,0E0,0E0,0E0,0E0,0E0,0E0,0E0,0E0,0E0,0E0,0E0,0E0,0E0,0E0,0E0,0E0,0E0,0E0,0E0,0E0,0E0,0E0,0E0,0E0,0E0,0E0,0E0,0E0,0E0,0E0,0E0,0E0,0E0,0E0,0E0,0E0,0E0],"parents":[2147483647,0,0,1,1,2,2,3,3,4,4,5,5,6,6,7,7,8,8,9,9,10,10,11,11,12,12,13,13,14,14,15,15,16,16,17,17,18,18,19,19,20,20,21,21,22,22,23,23,25,25,27,27,28,28,29,29,30,30,31,31,32,32,33,33,34,34,35,35,36,36,39,39,40,40,41,41,42,42,44,44,45,45,46,46,47,47,51,51,52,52,55,55,56,56,57,57,58,58],"right_children":[2,4,6,8,10,12,14,16,18,20,22,24,26,28,30,32,34,36,38,40,42,44,46,48,-1,50,-1,52,54,56,58,60,62,64,66,68,70,-1,-1,72,74,76,78,-1,80,82,84,86,-1,-1,-1,88,90,-1,-1,92,94,96,98,-1,-1,-1,-1,-1,-1,-1,-1,-1,-1,-1,-1,-1,-1,-1,-1,-1,-1,-1,-1,-1,-1,-1,-1,-1,-1,-1,-1,-1,-1,-1,-1,-1,-1,-1,-1,-1,-1,-1,-1],"split_conditions":[6E0,4.43E2,7.75E0,1.1313708E1,6E0,8.1E1,2.56E2,1.3979E4,2.49E7,8.08E3,3.4285715E0,1.3979E4,3.5568E4,3.56E2,2.52E2,1.034E3,4.99686E5,1.547982E3,1.36E2,5.000014E6,8.1E3,1E0,2.2677867E0,5.87E2,1.5785426E-1,3.0625E4,1.5302423E-1,1.5037594E4,8.1E1,2.37E2,1.025E3,3.0975247E2,2.29E2,5.0824E4,1.2128588E-1,9.98663E5,1.66018E6,1.4066364E-1,-5.7647523E-2,3.0016E4,3.0625E4,6.383405E0,3.2779E4,1.5473635E-1,9.79E2,3.2779E4,3.5568E4,3E0,-5.793752E-2,1.7956834E-1,1.5258782E-1,1.87E2,8.08E3,-5.7408582E-2,1.5726933E-1,3.5568E4,7E0,3.5568E4,1.444E3,-5.4202255E-2,1.9271961E-1,-5.675857E-2,1.7996632E-1,1.6512165E-2,1.7154956E-1,-4.6743285E-2,2.0950265E-1,1.5454929E-1,-2.7529193E-2,1.5266372E-1,-5.28748E-2,2.612249E-1,1.535715E-1,1.6990714E-1,1.540194E-1,1.9283915E-1,-5.738802E-2,2.6312178E-1,1.5507066E-1,-5.7730313E-2,2.1807776E-1,2.9077935E-1,1.5803373E-1,1.8848057E-1,1.5326522E-1,-3.3395287E-2,8.494843E-2,1.5384285E-1,1.03471436E-1,1.7913006E-1,1.5435165E-1,1.7496881E-1,1.5328266E-1,-3.9865438E-2,1.7572728E-1,1.629809E-1,1.5412354E-1,3.621842E-2,1.5700561E-1],"split_indices":[38,0,52,71,11,0,67,24,26,0,40,24,0,38,66,19,24,13,34,77,0,46,41,20,0,72,0,36,0,66,66,9,66,20,37,19,70,0,0,66,72,37,0,0,19,0,0,21,0,0,0,7,0,0,0,0,5,0,66,0,0,0,0,0,0,0,0,0,0,0,0,0,0,0,0,0,0,0,0,0,0,0,0,0,0,0,0,0,0,0,0,0,0,0,0,0,0,0,0],"split_type":[0,0,0,0,0,0,0,0,0,0,0,0,0,0,0,0,0,0,0,0,0,0,0,0,0,0,0,0,0,0,0,0,0,0,0,0,0,0,0,0,0,0,0,0,0,0,0,0,0,0,0,0,0,0,0,0,0,0,0,0,0,0,0,0,0,0,0,0,0,0,0,0,0,0,0,0,0,0,0,0,0,0,0,0,0,0,0,0,0,0,0,0,0,0,0,0,0,0,0],"sum_hessian":[5.2141166E5,4.158541E5,1.0555756E5,2.8179897E5,1.3405514E5,1.225937E4,9.3298195E4,2.7649216E5,5.3068057E3,4.5978926E4,8.807621E4,1.0960755E4,1.2986147E3,8.782072E4,5.477473E3,2.695064E5,6.9857627E3,4.8173726E3,4.894332E2,2.8156107E4,1.7822816E4,8.425605E4,3.82016E3,1.094545E4,1.5305011E1,5.369323E2,7.616825E2,8.77439E4,7.682589E1,2.061169E3,3.4163042E3,2.6812206E5,1.3843257E3,4.475451E3,2.5103115E3,4.8030923E3,1.4280469E1,3.3821528E0,4.8605103E2,1.3690787E4,1.4465321E4,7.8101086E2,1.7041805E4,2.6720416E2,8.398884E4,1.4209703E3,2.3991897E3,8.825419E0,1.0936625E4,4.2627026E2,1.1066206E2,7.938876E4,8.355137E3,6.2010136E1,1.4815749E1,1.2919242E3,7.692448E2,2.1246033E3,1.2917008E3,2.6727784E5,8.442235E2,7.871278E1,1.3056129E3,6.192949E2,3.8561562E3,2.4163867E3,9.392486E1,4.8018784E3,1.2134292E0,4.00778E0,1.0272689E1,9.344523E3,4.3462627E3,2.9301498E2,1.4172307E4,5.3510036E1,7.2750085E2,6.3540546E2,1.64064E4,8.3905805E4,8.304007E1,1.2423525E3,1.7861777E2,1.01926794E3,1.3799216E3,7.312636E0,1.5127836E0,7.916497E4,2.2378908E2,4.192562E3,4.162575E3,2.7147006E2,1.0204541E3,6.9127454E2,7.797026E1,1.1184995E3,1.00610394E3,1.19107925E2,1.1725929E3],"tree_param":{"num_deleted":"0","num_feature":"78","num_nodes":"99","size_leaf_vector":"1"}},{"base_weights":[-5.6176084E-1,-5.706341E-1,-2.9895076E-1,-3.3535737E-1,-5.769657E-1,-5.790763E-2,1.371484E0,-5.7869364E-2,1.0387085E-1,-5.7733506E-1,-3.703132E-1,1.52065E0,-5.746485E-2,1.17185E0,-4.5870712E-1,-5.777987E-1,-5.2959126E-1,-5.7671394E-2,1.3245807E0,1.5262786E0,-4.8490096E-2,-5.8157545E-2,1.3941352E0,-5.1184815E-1,-1.889924E-1,-5.78161E-2,-5.740643E-1,-5.8056034E-2,6.4467335E-1,-5.3120025E-2,1.5888782E-1,1.5274817E0,-3.1106064E-2,-5.756871E-2,1.4905065E-1,-5.646515E-2,-4.0333297E-2,3.614234E-2,-3.6992595E-2,-5.7787992E-2,6.2463707E-3,1.5011221E-1,-5.702561E-2,1.5513583E-1,1.4639354E-1],"categories":[],"categories_nodes":[],"categories_segments":[],"categories_sizes":[],"default_left":[0,0,0,0,0,0,0,0,0,0,0,0,0,0,0,0,0,0,0,0,0,0,0,0,0,0,0,0,0,0,0,0,0,0,0,0,0,0,0,0,0,0,0,0,0],"id":19,"left_children":[1,3,5,7,9,-1,11,-1,13,15,17,19,-1,21,23,25,27,-1,29,31,-1,-1,33,35,37,-1,39,-1,41,-1,-1,43,-1,-1,-1,-1,-1,-1,-1,-1,-1,-1,-1,-1,-1],"loss_changes":[1.0351562E3,6.395781E2,6.7869087E3,1.2032117E3,3.1703125E1,0E0,6.0556885E2,0E0,2.4122393E3,8.9375E0,2.6273822E2,2.2583496E1,0E0,5.4070776E2,3.759607E1,2.34375E-1,2.4140735E2,0E0,4.086647E1,4.741699E0,0E0,0E0,2.342876E2,1.2357361E1,4.3399303E1,0E0,8.917969E1,0E0,1.7566782E2,0E0,0E0,6.557617E-1,0E0,0E0,0E0,0E0,0E0,0E0,0E0,0E0,0E0,0E0,0E0,0E0,0E0],"parents":[2147483647,0,0,1,1,2,2,3,3,4,4,6,6,8,8,9,9,10,10,11,11,13,13,14,14,15,15,16,16,18,18,19,19,22,22,23,23,24,24,26,26,28,28,31,31],"right_children":[2,4,6,8,10,-1,12,-1,14,16,18,20,-1,22,24,26,28,-1,30,32,-1,-1,34,36,38,-1,40,-1,42,-1,-1,44,-1,-1,-1,-1,-1,-1,-1,-1,-1,-1,-1,-1,-1],"split_conditions":[5.55E2,2.4E1,8.08E3,2.37E2,4.7903E4,-5.790763E-2,8.1E3,-5.7869364E-2,2.51E2,1.94E2,1.6647612E3,1.0240018E7,-5.746485E-2,2.56E2,5.752809E5,8.08E3,8.08E3,-5.7671394E-2,4.44E2,4E0,-4.8490096E-2,-5.8157545E-2,8.833333E0,1.025E3,2.43E2,-5.78161E-2,1.28E2,-5.8056034E-2,8.1E3,-5.3120025E-2,1.5888782E-1,4.99686E5,-3.1106064E-2,-5.756871E-2,1.4905065E-1,-5.646515E-2,-4.0333297E-2,3.614234E-2,-3.6992595E-2,-5.7787992E-2,6.2463707E-3,1.5011221E-1,-5.702561E-2,1.5513583E-1,1.4639354E-1],"split_indices":[29,34,0,66,4,0,0,0,66,29,41,23,0,67,14,0,0,0,0,68,0,0,52,66,67,0,10,0,0,0,0,24,0,0,0,0,0,0,0,0,0,0,0,0,0],"split_type":[0,0,0,0,0,0,0,0,0,0,0,0,0,0,0,0,0,0,0,0,0,0,0,0,0,0,0,0,0,0,0,0,0,0,0,0,0,0,0,0,0,0,0,0,0],"sum_hessian":[4.4396947E5,4.294681E5,1.4501368E4,1.1256013E4,4.1821206E5,1.2419345E4,2.0820237E3,7.243006E3,4.0130068E3,4.1746422E5,7.4786755E2,1.9340057E3,1.4801788E2,1.3842018E3,2.6288052E3,4.13438E5,4.02621E3,6.672687E2,8.059888E1,1.9288314E3,5.1742964E0,1.555533E2,1.2286484E3,2.195362E3,4.33443E2,3.7673522E5,3.670278E4,3.8592065E3,1.6700348E2,9.921886E0,7.067699E1,1.9277377E3,1.0936654E0,5.7074608E1,1.1715739E3,1.473941E3,7.214211E2,1.0698566E2,3.2645734E2,3.6484176E4,2.1860712E2,9.7814705E1,6.9188774E1,1.384224E3,5.435138E2],"tree_param":{"num_deleted":"0","num_feature":"78","num_nodes":"45","size_leaf_vector":"1"}},{"base_weights":[9.542739E-2,-2.7149E-1,1.5276711E0,8.69034E-1,-5.443451E-1,1.5361089E0,-5.727298E-1,1.2750008E0,-5.6257534E-1,-5.6590015E-1,1.1699723E0,-5.8903754E-2,1.5400062E0,9.158644E-2,-5.784351E-1,1.4200764E0,-5.8279444E-2,1.4880104E0,-5.8010215E-1,-5.6995296E-1,-1.5319206E-1,1.5638932E0,-5.8776744E-2,1.5409709E0,8.633929E-1,-5.8130217E-1,1.4605931E-2,-5.120274E-1,1.4655513E0,1.536188E-1,-4.5319896E-2,-4.8714054E-1,-5.807913E-1,-5.707147E-1,1.2077311E0,9.9730736E-1,-4.245321E-1,-4.4177845E-2,1.565834E0,1.5402046E0,1.684535E-1,-3.7814683E-1,1.5675002E-1,-5.8417052E-2,1.4513937E-2,-5.596874E-2,2.2653297E-1,-5.9927445E-2,1.4888553E-1,-5.319158E-2,1.7214645E-1,-5.9735607E-2,-5.792929E-2,-1.9776898E-2,-5.7162967E-2,1.5973063E-1,-5.5645395E-2,1.4151768E-1,-5.9877276E-2,9.96168E-3,-5.406292E-2,1.5355168E-1,1.6816945E-1,1.5402615E-1,5.667103E-2,1.4308193E-1,-5.6665707E-2],"categories":[],"categories_nodes":[],"categories_segments":[],"categories_sizes":[],"default_left":[0,0,0,0,0,0,0,0,0,0,0,0,0,0,0,0,0,0,0,0,0,0,0,0,0,0,0,0,0,0,0,0,0,0,0,0,0,0,0,0,0,0,0,0,0,0,0,0,0,0,0,0,0,0,0,0,0,0,0,0,0,0,0,0,0,0,0],"id":20,"left_children":[1,3,5,7,9,11,13,15,17,19,21,-1,23,-1,25,27,-1,29,31,33,35,37,-1,39,41,43,-1,45,47,-1,-1,49,51,53,55,57,59,-1,61,63,-1,65,-1,-1,-1,-1,-1,-1,-1,-1,-1,-1,-1,-1,-1,-1,-1,-1,-1,-1,-1,-1,-1,-1,-1,-1,-1],"loss_changes":[2.7346966E5,1.28916664E5,1.8817344E3,4.648023E4,1.235325E4,8.76375E2,4.1422577E0,1.67935E4,6.358862E2,5.5210156E2,2.875315E3,0E0,6.7546875E1,0E0,9.663391E-1,5.078578E3,0E0,1.4726532E1,8.3935547E-1,4.433672E2,1.0030778E3,1.3893555E1,0E0,9E0,1.3390645E2,9.6591187E-1,0E0,1.7727911E2,2.7178828E3,0E0,0E0,1.42788315E1,8.544922E-2,1.1139844E2,9.734419E1,4.098454E2,1.5824432E2,0E0,9.3203125E0,4.90625E0,0E0,1.9905338E1,0E0,0E0,0E0,0E0,0E0,0E0,0E0,0E0,0E0,0E0,0E0,0E0,0E0,0E0,0E0,0E0,0E0,0E0,0E0,0E0,0E0,0E0,0E0,0E0,0E0],"parents":[2147483647,0,0,1,1,2,2,3,3,4,4,5,5,6,6,7,7,8,8,9,9,10,10,12,12,14,14,15,15,17,17,18,18,19,19,20,20,21,21,23,23,24,24,25,25,27,27,28,28,31,31,32,32,33,33,34,34,35,35,36,36,38,38,39,39,41,41],"right_children":[2,4,6,8,10,12,14,16,18,20,22,-1,24,-1,26,28,-1,30,32,34,36,38,-1,40,42,44,-1,46,48,-1,-1,50,52,54,56,58,60,-1,62,64,-1,66,-1,-1,-1,-1,-1,-1,-1,-1,-1,-1,-1,-1,-1,-1,-1,-1,-1,-1,-1,-1,-1,-1,-1,-1,-1],"split_conditions":[1.3106659E3,4.8800644E-2,2.43E2,6.3761924E3,1E0,2.29E2,3.64E2,8.1E1,3E0,9.2E2,8.1E1,-5.8903754E-2,2.5853482E2,9.158644E-2,1.22E2,6E1,-5.8279444E-2,8.1E1,1.299067E4,1.448E3,3.76E2,2.27E2,-5.8776744E-2,4.007E3,5.099093E6,6.01799E6,1.4605931E-2,1E0,7E1,1.536188E-1,-4.5319896E-2,1E0,8E0,3E0,8.1E1,8.1E1,4.3018674E2,-4.4177845E-2,4.007E3,8.1E1,1.684535E-1,5.017279E6,1.5675002E-1,-5.8417052E-2,1.4513937E-2,-5.596874E-2,2.2653297E-1,-5.9927445E-2,1.4888553E-1,-5.319158E-2,1.7214645E-1,-5.9735607E-2,-5.792929E-2,-1.9776898E-2,-5.7162967E-2,1.5973063E-1,-5.5645395E-2,1.4151768E-1,-5.9877276E-2,9.96168E-3,-5.406292E-2,1.5355168E-1,1.6816945E-1,1.5402615E-1,5.667103E-2,1.4308193E-1,-5.6665707E-2],"split_indices":[13,37,67,14,43,67,66,0,52,13,0,0,9,0,19,34,0,0,14,7,63,67,0,24,1,27,0,43,0,0,0,43,4,16,0,0,14,0,24,0,0,1,0,0,0,0,0,0,0,0,0,0,0,0,0,0,0,0,0,0,0,0,0,0,0,0,0],"split_type":[0,0,0,0,0,0,0,0,0,0,0,0,0,0,0,0,0,0,0,0,0,0,0,0,0,0,0,0,0,0,0,0,0,0,0,0,0,0,0,0,0,0,0,0,0,0,0,0,0,0,0,0,0,0,0,0,0,0,0,0,0,0,0,0,0,0,0],"sum_hessian":[5.203822E5,4.142571E5,1.0612508E5,7.997257E4,3.3428453E5,1.0570073E5,4.243538E2,6.23047E4,1.766787E4,3.3013425E5,4.150289E3,1.9321466E2,1.0550751E5,1.0111135E0,4.2334268E2,5.7791953E4,4.512747E3,1.490204E2,1.751885E4,3.2692344E5,3.2108184E3,3.3905542E3,7.597349E2,1.0535601E5,1.5150194E2,4.2187085E2,1.4718245E0,1.3287034E3,5.6463246E4,1.4561511E2,3.4052875E0,1.3413039E2,1.7384719E4,3.267841E5,1.393431E2,6.1223334E2,2.598585E3,3.0586991E0,3.3874956E3,1.0480836E5,5.476461E2,5.4994343E1,9.650759E1,4.2040674E2,1.4641274E0,1.3070723E3,2.1631132E1,6.2986804E2,5.583338E4,1.3220926E2,1.9211287E0,1.4091257E3,1.5975593E4,8.002813E2,3.259838E5,1.14216E2,2.5127089E1,4.8529236E2,1.26940994E2,4.7123254E2,2.1273523E3,2.6962278E3,6.912678E2,1.0480166E5,6.705008E0,4.5681076E0,5.0426235E1],"tree_param":{"num_deleted":"0","num_feature":"78","num_nodes":"67","size_leaf_vector":"1"}},{"base_weights":[9.5081106E-2,1.515625E0,-5.7831306E-2,1.5301311E0,-5.7941455E-2,-4.964579E-1,1.5341777E0,-5.9315175E-2,1.4918534E-1,1.535868E0,-5.9439342E-2,1.5373229E0,-5.9385188E-2,1.5379883E-1,-6.6648945E-2],"categories":[],"categories_nodes":[],"categories_segments":[],"categories_sizes":[],"default_left":[0,0,0,0,0,0,0,0,0,0,0,0,0,0,0],"id":21,"left_children":[1,3,-1,5,-1,7,9,-1,-1,11,-1,13,-1,-1,-1],"loss_changes":[4.9759347E5,5.0848125E3,0E0,1.3631562E3,0E0,6.4679344E1,5.975E2,0E0,0E0,5.1421875E2,0E0,2.4375E2,0E0,0E0,0E0],"parents":[2147483647,0,0,1,1,3,3,5,5,6,6,9,9,11,11],"right_children":[2,4,-1,6,-1,8,10,-1,-1,12,-1,14,-1,-1,-1],"split_conditions":[2.3E1,2E0,-5.7831306E-2,2.8E1,-5.7941455E-2,2.47E2,3.04E2,-5.9315175E-2,1.4918534E-1,3.4E1,-5.9439342E-2,3.061E3,-5.9385188E-2,1.5379883E-1,-6.6648945E-2],"split_indices":[0,11,0,69,0,67,67,0,0,2,0,29,0,0,0],"split_type":[0,0,0,0,0,0,0,0,0,0,0,0,0,0,0],"sum_hessian":[5.2017447E5,1.6728366E5,3.528908E5,1.6613361E5,1.1500442E3,3.3081784E2,1.658028E5,3.1614505E2,1.4672814E1,1.656715E5,1.3129208E2,1.6555867E5,1.1281756E2,1.6550902E5,4.966635E1],"tree_param":{"num_deleted":"0","num_feature":"78","num_nodes":"15","size_leaf_vector":"1"}},{"base_weights":[9.512352E-2,-5.002068E-1,1.2744343E0,-5.542172E-1,4.1552627E-1,-5.792215E-2,1.480637E0,-5.6203383E-1,1.1826674E-3,-5.7805E-2,1.5152919E0,1.5391136E0,-4.3168783E-1,-1.7290987E-1,-5.705281E-1,-5.785985E-2,1.431518E0,1.5395458E-1,-5.932621E-2,1.5392135E0,-5.1216673E-2,1.388272E0,-5.7965827E-1,-5.757224E-1,1.5381412E-1,-5.7337564E-1,-1.851401E-1,-3.081207E-1,1.5478182E0,1.5392295E-1,-3.111726E-2,1.5090538E0,-5.531909E-2,-5.901071E-1,2.0378023E-1,-5.7827797E-2,8.2659505E-2,-5.7703026E-2,-5.5389423E-2,2.1321042E-1,-5.894467E-2,-5.888324E-2,1.9410674E-1,1.9675884E-1,1.5397683E-1,1.5455317E-1,-5.0597012E-2,-5.7831097E-2,-5.973966E-2,1.5052325E-1,-5.614635E-2],"categories":[],"categories_nodes":[],"categories_segments":[],"categories_sizes":[],"default_left":[0,0,0,0,0,0,0,0,0,0,0,0,0,0,0,0,0,0,0,0,0,0,0,0,0,0,0,0,0,0,0,0,0,0,0,0,0,0,0,0,0,0,0,0,0,0,0,0,0,0,0],"id":22,"left_children":[1,3,5,7,9,-1,11,13,15,-1,17,19,21,23,25,-1,27,-1,-1,29,-1,31,33,35,-1,37,39,41,43,-1,-1,45,-1,47,49,-1,-1,-1,-1,-1,-1,-1,-1,-1,-1,-1,-1,-1,-1,-1,-1],"loss_changes":[3.652154E5,1.7097492E4,6.670203E4,1.4171641E3,2.1039393E4,0E0,1.7561562E4,1.0638828E3,3.7586443E3,0E0,4.682793E2,3.2E1,1.25583E3,4.7415522E3,3.4560156E2,0E0,2.649685E2,0E0,0E0,4.96875E0,0E0,8.307355E1,3.5406982E1,2.0432373E1,0E0,2.1945312E1,2.1673782E3,5.3391518E1,1.1115723E0,0E0,0E0,2.5070251E1,0E0,2.0385742E-2,5.8088673E1,0E0,0E0,0E0,0E0,0E0,0E0,0E0,0E0,0E0,0E0,0E0,0E0,0E0,0E0,0E0,0E0],"parents":[2147483647,0,0,1,1,2,2,3,3,4,4,6,6,7,7,8,8,10,10,11,11,12,12,13,13,14,14,16,16,19,19,21,21,22,22,23,23,25,25,26,26,27,27,28,28,31,31,33,33,34,34],"right_children":[2,4,6,8,10,-1,12,14,16,-1,18,20,22,24,26,-1,28,-1,-1,30,-1,32,34,36,-1,38,40,42,44,-1,-1,46,-1,48,50,-1,-1,-1,-1,-1,-1,-1,-1,-1,-1,-1,-1,-1,-1,-1,-1],"split_conditions":[4.44E2,1.5384615E4,1E0,4E1,1E0,-5.792215E-2,4.8E1,3.2E1,0E0,-5.7805E-2,2E0,2.8E1,2.3103154E0,1E0,2.92E4,-5.785985E-2,1.0181725E4,1.5395458E-1,-5.932621E-2,6.5535E4,-5.1216673E-2,1.3463313E3,2.9336228E6,5.0603E4,1.5381412E-1,1.3215277E2,9.92E2,1.667969E6,1.3392857E4,1.5392295E-1,-3.111726E-2,4.4E1,-5.531909E-2,4.0650408E3,1.75E2,-5.7827797E-2,8.2659505E-2,-5.7703026E-2,-5.5389423E-2,2.1321042E-1,-5.894467E-2,-5.888324E-2,1.9410674E-1,1.9675884E-1,1.5397683E-1,1.5455317E-1,-5.0597012E-2,-5.7831097E-2,-5.973966E-2,1.5052325E-1,-5.614635E-2],"split_indices":[0,37,46,69,46,0,34,34,67,0,2,35,14,46,67,0,14,0,0,66,0,22,26,24,0,37,1,24,15,0,0,35,0,15,39,0,0,0,0,0,0,0,0,0,0,0,0,0,0,0,0],"split_type":[0,0,0,0,0,0,0,0,0,0,0,0,0,0,0,0,0,0,0,0,0,0,0,0,0,0,0,0,0,0,0,0,0,0,0,0,0,0,0,0,0,0,0,0,0,0,0,0,0,0,0],"sum_hessian":[5.2018906E5,3.456841E5,1.7450494E5,3.2643144E5,1.925268E4,1.7468676E4,1.5703627E5,3.2190103E5,4.5304116E3,1.0114906E4,9.137773E3,1.5237695E5,4.659319E3,6.877179E3,3.1502384E5,3.2241213E3,1.3062904E3,9.034127E3,1.0364631E2,1.5236978E5,7.1696005E0,3.4970813E2,4.3096104E3,5.5672183E3,1.3099608E3,3.1271278E5,2.3110657E3,8.1753815E1,1.2245366E3,1.5236864E5,1.1356101E0,3.2943607E2,2.027208E1,4.253133E3,5.6477577E1,5.5576777E3,9.540422E0,2.632925E5,4.9420266E4,3.426911E2,1.9683746E3,7.33389E1,8.414916E0,1.8460981E1,1.2060756E3,3.238072E2,5.628876E0,1.6551158E3,2.598017E3,2.0554123E1,3.5923454E1],"tree_param":{"num_deleted":"0","num_feature":"78","num_nodes":"51","size_leaf_vector":"1"}},{"base_weights":[9.527828E-2,-4.7879398E-1,1.419955E0,-5.237825E-1,4.0544242E-1,1.4985331E0,-5.8098495E-2,-5.6443477E-1,-1.5317231E-1,-2.1382858E-1,1.2128252E0,-5.8279913E-2,1.5245211E0,-4.329529E-1,-5.7455766E-1,7.7895355E-1,-5.437845E-1,-4.6149448E-1,1.4817313E0,1.4219923E0,-5.7781875E-2,1.5321908E0,-5.802049E-2,-5.793072E-2,2.766327E-1,-5.7741725E-1,-3.6646616E-1,-5.802935E-2,1.3290215E0,-5.777074E-2,-2.7721137E-1,-5.265689E-1,2.6015284E-2,1.5374104E0,-5.6232195E-2,-5.8587003E-2,1.505871E0,1.5347893E0,-5.9646457E-2,1.5454316E-1,-5.8031697E-2,-5.781562E-2,-5.4698784E-2,-5.1487543E-2,4.318069E-2,1.4830512E-1,-2.9632926E-2,9.9652074E-2,-5.800097E-2,-5.8131646E-2,-3.971227E-2,-5.8380898E-2,8.908171E-2,1.5407063E-1,-3.8274724E-2,-6.411452E-2,1.5240155E-1,-5.9452426E-2,1.5366596E-1],"categories":[],"categories_nodes":[],"categories_segments":[],"categories_sizes":[],"default_left":[0,0,0,0,0,0,0,0,0,0,0,0,0,0,0,0,0,0,0,0,0,0,0,0,0,0,0,0,0,0,0,0,0,0,0,0,0,0,0,0,0,0,0,0,0,0,0,0,0,0,0,0,0,0,0,0,0,0,0],"id":23,"left_children":[1,3,5,7,9,11,-1,13,15,17,19,-1,21,23,25,27,29,31,33,35,-1,37,-1,-1,39,41,43,-1,45,-1,47,49,51,53,-1,-1,55,57,-1,-1,-1,-1,-1,-1,-1,-1,-1,-1,-1,-1,-1,-1,-1,-1,-1,-1,-1,-1,-1],"loss_changes":[3.9565544E5,1.4439734E4,2.4733812E4,5.203875E3,8.787203E3,8.1879062E3,0E0,4.1404688E2,1.2432263E4,4.1775923E3,2.8580898E3,0E0,2.4141562E3,2.311397E3,1.7176562E2,7.5398687E3,2.1742822E2,2.7537146E2,1.4517065E2,1.1513447E3,0E0,8.248125E2,0E0,0E0,4.1391943E3,6.09375E0,4.646808E2,0E0,1.7976348E3,0E0,1.0489613E3,5.403711E1,5.400822E2,8.402832E0,0E0,0E0,2.564287E2,5.93375E2,0E0,0E0,0E0,0E0,0E0,0E0,0E0,0E0,0E0,0E0,0E0,0E0,0E0,0E0,0E0,0E0,0E0,0E0,0E0,0E0,0E0],"parents":[2147483647,0,0,1,1,2,2,3,3,4,4,5,5,7,7,8,8,9,9,10,10,12,12,13,13,14,14,15,15,16,16,17,17,18,18,19,19,21,21,24,24,25,25,26,26,28,28,30,30,31,31,32,32,33,33,36,36,37,37],"right_children":[2,4,6,8,10,12,-1,14,16,18,20,-1,22,24,26,28,30,32,34,36,-1,38,-1,-1,40,42,44,-1,46,-1,48,50,52,54,-1,-1,56,58,-1,-1,-1,-1,-1,-1,-1,-1,-1,-1,-1,-1,-1,-1,-1,-1,-1,-1,-1,-1,-1],"split_conditions":[1.159E3,1.915E2,8.1E1,1E0,7.54E2,2.8E1,-5.8098495E-2,1E0,2.47E2,2.664E3,5.008872E6,-5.8279913E-2,1.3979E4,1.025E3,1.7650941E2,2.35E2,2.6E2,1.1632E4,6.04E2,1.36E2,-5.7781875E-2,5.000017E6,-5.802049E-2,-5.793072E-2,1.444E3,1.547359E2,7.54E2,-5.802935E-2,1.18E2,-5.777074E-2,8.1E1,2.36E2,6E1,5.3177625E5,-5.6232195E-2,-5.8587003E-2,2.3E2,2.3E1,-5.9646457E-2,1.5454316E-1,-5.8031697E-2,-5.781562E-2,-5.4698784E-2,-5.1487543E-2,4.318069E-2,1.4830512E-1,-2.9632926E-2,9.9652074E-2,-5.800097E-2,-5.8131646E-2,-3.971227E-2,-5.8380898E-2,8.908171E-2,1.5407063E-1,-3.8274724E-2,-6.411452E-2,1.5240155E-1,-5.9452426E-2,1.5366596E-1],"split_indices":[67,9,0,48,29,69,0,39,67,34,18,0,24,66,9,67,66,5,6,35,0,74,0,0,66,9,29,0,18,0,0,67,29,17,0,0,67,0,0,0,0,0,0,0,0,0,0,0,0,0,0,0,0,0,0,0,0,0,0],"split_type":[0,0,0,0,0,0,0,0,0,0,0,0,0,0,0,0,0,0,0,0,0,0,0,0,0,0,0,0,0,0,0,0,0,0,0,0,0,0,0,0,0,0,0,0,0,0,0,0,0,0,0,0,0,0,0,0,0,0,0],"sum_hessian":[5.202823E5,3.6297938E5,1.5730294E5,3.454061E5,1.7573285E4,1.5135922E5,5.943718E3,3.1126303E5,3.4143055E4,9.945623E3,7.627661E3,1.8663282E3,1.4949289E5,2.2254336E4,2.8900872E5,1.0082347E4,2.4060707E4,8.67868E3,1.2669437E3,6.830042E3,7.97619E2,1.4895038E5,5.425068E2,1.8449295E4,3.805042E3,2.8508928E5,3.919436E3,2.9046777E3,7.1776685E3,2.1343463E4,2.7172444E3,7.656574E3,1.02210486E3,1.2335891E3,3.3354595E1,2.7364453E2,6.5563975E3,1.4876906E5,1.813273E2,1.5335967E3,2.2714453E3,2.783129E5,6.7763564E3,3.3052942E3,6.141417E2,6.5564233E3,6.2124536E2,5.21451E2,2.1957932E3,5.378371E3,2.2782034E3,5.99609E2,4.2249582E2,1.2316726E3,1.9165107E0,5.4655884E1,6.5017417E3,1.3028033E2,1.4863878E5],"tree_param":{"num_deleted":"0","num_feature":"78","num_nodes":"59","size_leaf_vector":"1"}},{"base_weights":[9.355694E-2,-2.0221289E-1,1.159801E0,-4.4415894E-1,2.8141153E-1,-3.345151E-1,1.3356822E0,-4.7904697E-1,1.1872835E0,1.4866768E0,-4.4320038E-1,-5.6941605E-1,1.399122E0,1.3470405E0,1.1514277E0,-5.1385015E-1,7.4613935E-1,1.3435357E0,-5.52982E-1,1.593465E0,1.3112332E0,-5.607193E-1,1.7114006E0,-5.7266426E-1,1.3847686E-1,1.4868033E0,1.334067E-1,1.3482223E0,-1.3902478E-1,8.3164585E-1,1.337447E0,-5.254483E-1,1.4332215E0,1.3000164E0,-3.5852653E-1,1.3468943E0,1.1034117E-1,1.2881222E-1,-5.702153E-2,1.8359615E0,1.3451773E0,-3.898771E-1,1.3807486E0,1.3477491E-1,-5.6763065E-1,2.108167E0,1.4470972E0,1.23122E-1,-5.7296026E-1,1.5231137E-1,1.3311374E-1,1.3364265E0,1.4144135E0,-5.6706876E-2,1.3670473E-1,1.370891E0,-1.6829272E-1,1.2390628E0,1.3690631E0,-5.334403E-2,1.6203794E-1,-5.5324323E-2,1.5380083E-1,1.6162116E-2,1.4683066E-1,-4.5538988E-2,1.7263426E-1,1.3473275E-1,-2.717481E-2,1.3373147E-1,-5.2013244E-2,2.0419939E-1,1.33925E-1,1.4336322E-1,1.3421866E-1,1.6255747E-1,-5.667736E-2,2.056866E-1,1.3513224E-1,-5.704827E-2,1.783428E-1,2.1991034E-1,1.3718866E-1,1.5894924E-1,1.3370405E-1,-5.178089E-3,-5.7309043E-2,1.3381778E-1,-5.0990093E-2,1.48095E-1,1.3405918E-1,1.4926915E-1,1.336361E-1,-3.8520012E-2,1.4991777E-1,1.3798909E-1,5.5316757E-2,1.3897832E-1,1.3227946E-1],"categories":[],"categories_nodes":[],"categories_segments":[],"categories_sizes":[],"default_left":[0,0,0,0,0,0,0,0,0,0,0,0,0,0,0,0,0,0,0,0,0,0,0,0,0,0,0,0,0,0,0,0,0,0,0,0,0,0,0,0,0,0,0,0,0,0,0,0,0,0,0,0,0,0,0,0,0,0,0,0,0,0,0,0,0,0,0,0,0,0,0,0,0,0,0,0,0,0,0,0,0,0,0,0,0,0,0,0,0,0,0,0,0,0,0,0,0,0,0],"id":24,"left_children":[1,3,5,7,9,11,13,15,17,19,21,23,25,27,29,31,33,35,37,39,41,43,45,47,-1,49,-1,51,53,55,57,59,61,63,65,67,69,-1,-1,71,73,75,77,-1,79,81,83,-1,85,-1,-1,87,89,-1,-1,91,93,95,97,-1,-1,-1,-1,-1,-1,-1,-1,-1,-1,-1,-1,-1,-1,-1,-1,-1,-1,-1,-1,-1,-1,-1,-1,-1,-1,-1,-1,-1,-1,-1,-1,-1,-1,-1,-1,-1,-1,-1,-1],"loss_changes":[1.6159123E5,4.6936492E4,2.9244766E4,1.5218656E4,1.1681919E5,4.772835E3,2.0678125E2,1.1162469E4,1.5230107E3,9.3885156E2,2.115314E4,6.630371E1,5.9938965E0,1.6484375E2,3.4315967E2,5.7489297E3,4.4247695E3,2.1129883E1,1.5391083E1,1.8769766E3,2.2483613E3,1.0456543E3,4.500752E2,6.2070312E0,0E0,1.2902832E0,0E0,7.1265625E1,4.939188E1,1.1493542E3,9.680176E0,4.3402812E3,3.1465015E2,9.2249414E2,4.8861386E2,3.959961E0,1.2331918E1,0E0,0E0,1.6131055E3,2.15625E0,2.6726825E2,3.605664E2,0E0,5.302793E2,1.1250635E2,3.8567383E1,0E0,6.694336E-1,0E0,0E0,2.5785938E2,6.753516E1,0E0,0E0,3.8283691E0,2.7094424E2,8.617114E1,8.0615234E-1,0E0,0E0,0E0,0E0,0E0,0E0,0E0,0E0,0E0,0E0,0E0,0E0,0E0,0E0,0E0,0E0,0E0,0E0,0E0,0E0,0E0,0E0,0E0,0E0,0E0,0E0,0E0,0E0,0E0,0E0,0E0,0E0,0E0,0E0,0E0,0E0,0E0,0E0,0E0,0E0],"parents":[2147483647,0,0,1,1,2,2,3,3,4,4,5,5,6,6,7,7,8,8,9,9,10,10,11,11,12,12,13,13,14,14,15,15,16,16,17,17,18,18,19,19,20,20,21,21,22,22,23,23,25,25,27,27,28,28,29,29,30,30,31,31,32,32,33,33,34,34,35,35,36,36,39,39,40,40,41,41,42,42,44,44,45,45,46,46,48,48,51,51,52,52,55,55,56,56,57,57,58,58],"right_children":[2,4,6,8,10,12,14,16,18,20,22,24,26,28,30,32,34,36,38,40,42,44,46,48,-1,50,-1,52,54,56,58,60,62,64,66,68,70,-1,-1,72,74,76,78,-1,80,82,84,-1,86,-1,-1,88,90,-1,-1,92,94,96,98,-1,-1,-1,-1,-1,-1,-1,-1,-1,-1,-1,-1,-1,-1,-1,-1,-1,-1,-1,-1,-1,-1,-1,-1,-1,-1,-1,-1,-1,-1,-1,-1,-1,-1,-1,-1,-1,-1,-1,-1],"split_conditions":[6E0,4.43E2,7.75E0,1.1313708E1,6E0,8.1E1,2.56E2,1.3979E4,2.49E7,8.08E3,3.4285715E0,1.3979E4,3.5568E4,3.56E2,2.52E2,1.034E3,4.99686E5,1.547982E3,1.36E2,5.000014E6,8.1E3,1E0,2.2677867E0,7E1,1.3847686E-1,3.0625E4,1.334067E-1,1.25E2,8.1E1,2.37E2,2.57E2,3.0975247E2,2.29E2,5.0824E4,1.2128588E-1,9.98663E5,1.66018E6,1.2881222E-1,-5.702153E-2,3.0016E4,3.4225E2,6.383405E0,3.2779E4,1.3477491E-1,9.79E2,3.2779E4,3.5568E4,1.23122E-1,5.7735026E-1,1.5231137E-1,1.3311374E-1,1E0,3.5568E4,-5.6706876E-2,1.3670473E-1,3.5568E4,7E0,1.025E3,3.825E1,-5.334403E-2,1.6203794E-1,-5.5324323E-2,1.5380083E-1,1.6162116E-2,1.4683066E-1,-4.5538988E-2,1.7263426E-1,1.3473275E-1,-2.717481E-2,1.3373147E-1,-5.2013244E-2,2.0419939E-1,1.33925E-1,1.4336322E-1,1.3421866E-1,1.6255747E-1,-5.667736E-2,2.056866E-1,1.3513224E-1,-5.704827E-2,1.783428E-1,2.1991034E-1,1.3718866E-1,1.5894924E-1,1.3370405E-1,-5.178089E-3,-5.7309043E-2,1.3381778E-1,-5.0990093E-2,1.48095E-1,1.3405918E-1,1.4926915E-1,1.336361E-1,-3.8520012E-2,1.4991777E-1,1.3798909E-1,5.5316757E-2,1.3897832E-1,1.3227946E-1],"split_indices":[38,0,52,71,11,0,67,24,26,0,40,24,0,38,66,19,24,13,34,77,0,46,41,0,0,72,0,0,0,66,67,9,66,20,37,19,70,0,0,66,42,37,0,0,19,0,0,0,22,0,0,43,0,0,0,0,5,66,12,0,0,0,0,0,0,0,0,0,0,0,0,0,0,0,0,0,0,0,0,0,0,0,0,0,0,0,0,0,0,0,0,0,0,0,0,0,0,0,0],"split_type":[0,0,0,0,0,0,0,0,0,0,0,0,0,0,0,0,0,0,0,0,0,0,0,0,0,0,0,0,0,0,0,0,0,0,0,0,0,0,0,0,0,0,0,0,0,0,0,0,0,0,0,0,0,0,0,0,0,0,0,0,0,0,0,0,0,0,0,0,0,0,0,0,0,0,0,0,0,0,0,0,0,0,0,0,0,0,0,0,0,0,0,0,0,0,0,0,0,0,0],"sum_hessian":[5.1239616E5,4.0112675E5,1.112694E5,2.6736856E5,1.3375819E5,1.1717201E4,9.9552195E4,2.6177134E5,5.5972144E3,5.0221855E4,8.353633E4,1.0319606E4,1.3975944E3,9.376571E4,5.786487E3,2.5454131E5,7.2300376E3,5.136275E3,4.6093976E2,3.121438E4,1.9007475E4,7.921635E4,4.319976E3,1.03031875E4,1.64187E1,5.859689E2,8.116255E2,9.36913E4,7.441384E1,2.1301167E3,3.65637E3,2.5303478E5,1.5065243E3,4.81542E3,2.4146177E3,5.1222324E3,1.4042297E1,3.5906453E0,4.5734912E2,1.5788115E4,1.5426266E4,7.4606104E2,1.8261414E4,2.8514078E2,7.893121E4,1.7243878E3,2.5955881E3,1.0080714E0,1.030218E4,4.6801578E2,1.17953094E2,7.9538164E4,1.415313E4,5.8430626E1,1.5983215E1,1.3836002E3,7.465166E2,8.990031E2,2.757367E3,2.5209662E5,9.381633E2,7.52733E1,1.431251E3,6.20438E2,4.194982E3,2.3081619E3,1.0645598E2,5.1210293E3,1.2029847E0,4.385835E0,9.656463E0,1.1157112E4,4.6310024E3,4.8886194E2,1.4937404E4,5.953749E1,6.8652356E2,7.5876306E2,1.750265E4,7.8836336E4,9.487771E1,1.5330565E3,1.9133133E2,1.1256888E3,1.4698992E3,2.6727107E0,1.0299507E4,7.946307E4,7.5095184E1,7.4338535E3,6.7192764E3,2.9628098E2,1.0873192E3,6.6126685E2,8.5249725E1,7.45023E2,1.539801E2,1.8844398E3,8.729272E2],"tree_param":{"num_deleted":"0","num_feature":"78","num_nodes":"99","size_leaf_vector":"1"}},{"base_weights":[-5.550305E-1,-5.64116E-1,-2.913185E-1,-3.258884E-1,-5.706377E-1,-5.7307072E-2,1.2001201E0,-5.723196E-2,9.816705E-2,-5.7101715E-1,-3.6102867E-1,1.3190635E0,-5.6807466E-2,1.0378814E0,-4.4723517E-1,-5.714942E-1,-5.221214E-1,-5.7035476E-2,1.1644486E0,1.3235266E0,-4.751123E-2,-5.7555627E-2,1.2207025E0,-5.0228304E-1,-1.7479472E-1,-5.718832E-2,-5.674838E-1,-5.7421304E-2,5.9168637E-1,-5.2238334E-2,1.3762906E-1,1.3245169E0,-3.121062E-2,-5.6865115E-2,1.298205E-1,-5.5755805E-2,-3.9011296E-2,-5.959335E-2,5.5418955E-3,-5.7150275E-2,6.391438E-3,1.3084592E-1,-5.633552E-2,1.1707872E-1,1.3330248E-1],"categories":[],"categories_nodes":[],"categories_segments":[],"categories_sizes":[],"default_left":[0,0,0,0,0,0,0,0,0,0,0,0,0,0,0,0,0,0,0,0,0,0,0,0,0,0,0,0,0,0,0,0,0,0,0,0,0,0,0,0,0,0,0,0,0],"id":25,"left_children":[1,3,5,7,9,-1,11,-1,13,15,17,19,-1,21,23,25,27,-1,29,31,-1,-1,33,35,37,-1,39,-1,41,-1,-1,43,-1,-1,-1,-1,-1,-1,-1,-1,-1,-1,-1,-1,-1],"loss_changes":[1.0004844E3,6.270703E2,5.846568E3,1.1245128E3,3.1046875E1,0E0,4.6571704E2,0E0,2.0278507E3,8.8515625E0,2.2829727E2,1.7218994E1,0E0,4.2929944E2,3.7460724E1,2.734375E-1,2.209143E2,0E0,3.157357E1,3.7614746E0,0E0,0E0,1.8177649E2,1.2693237E1,4.098372E1,0E0,8.753125E1,0E0,1.4177013E2,0E0,0E0,1.1411133E0,0E0,0E0,0E0,0E0,0E0,0E0,0E0,0E0,0E0,0E0,0E0,0E0,0E0],"parents":[2147483647,0,0,1,1,2,2,3,3,4,4,6,6,8,8,9,9,10,10,11,11,13,13,14,14,15,15,16,16,18,18,19,19,22,22,23,23,24,24,26,26,28,28,31,31],"right_children":[2,4,6,8,10,-1,12,-1,14,16,18,20,-1,22,24,26,28,-1,30,32,-1,-1,34,36,38,-1,40,-1,42,-1,-1,44,-1,-1,-1,-1,-1,-1,-1,-1,-1,-1,-1,-1,-1],"split_conditions":[5.55E2,2.4E1,8.08E3,2.37E2,4.7903E4,-5.7307072E-2,8.1E3,-5.723196E-2,2.51E2,1.94E2,1.6647612E3,1.0240018E7,-5.6807466E-2,2.56E2,5.752809E5,8.08E3,8.08E3,-5.7035476E-2,4.44E2,4.5E1,-4.751123E-2,-5.7555627E-2,8.833333E0,1.025E3,2.811E3,-5.718832E-2,1.28E2,-5.7421304E-2,8.1E3,-5.2238334E-2,1.3762906E-1,5.329705E2,-3.121062E-2,-5.6865115E-2,1.298205E-1,-5.5755805E-2,-3.9011296E-2,-5.959335E-2,5.5418955E-3,-5.7150275E-2,6.391438E-3,1.3084592E-1,-5.633552E-2,1.1707872E-1,1.3330248E-1],"split_indices":[29,34,0,66,4,0,0,0,66,29,41,23,0,67,14,0,0,0,0,12,0,0,52,66,0,0,10,0,0,0,0,27,0,0,0,0,0,0,0,0,0,0,0,0,0],"split_type":[0,0,0,0,0,0,0,0,0,0,0,0,0,0,0,0,0,0,0,0,0,0,0,0,0,0,0,0,0,0,0,0,0,0,0,0,0,0,0,0,0,0,0,0,0],"sum_hessian":[4.1764134E5,4.0373075E5,1.3910606E4,1.0759304E4,3.9297144E5,1.170079E4,2.209816E3,6.8045996E3,3.9547039E3,3.9225956E5,7.1186346E2,2.0707727E3,1.390433E2,1.4520151E3,2.5026887E3,3.8845888E5,3.8006968E3,6.265186E2,8.534482E1,2.0658958E3,4.8767357E0,1.4756583E2,1.3044493E3,2.0813071E3,4.213815E2,3.5397984E5,3.447904E4,3.6313472E3,1.693498E2,9.358676E0,7.598614E1,2.064836E3,1.0599483E0,5.3890953E1,1.2505585E3,1.3915906E3,6.8971655E2,1.4837138E2,2.7301013E2,3.426106E4,2.1798282E2,1.0441881E2,6.4930984E1,1.1555042E2,1.9492855E3],"tree_param":{"num_deleted":"0","num_feature":"78","num_nodes":"45","size_leaf_vector":"1"}},{"base_weights":[9.0391055E-2,-2.631435E-1,1.3322234E0,7.839627E-1,-5.369611E-1,1.3391415E0,-5.685232E-1,1.123489E0,-5.557255E-1,-5.5900675E-1,1.0398052E0,-5.8436062E-2,1.3423216E0,8.8586025E-2,-5.743965E-1,1.2408551E0,-5.7614066E-2,1.2995383E0,-5.7365406E-1,-5.632104E-1,-1.486675E-1,1.3603593E0,-5.8087643E-2,1.3430711E0,7.9383945E-1,-5.773531E-1,1.4777211E-2,-5.049616E-1,1.2777623E0,1.3384925E-1,-4.437036E-2,-4.76548E-1,-5.7437897E-1,-5.6399184E-1,1.0659382E0,8.772813E-1,-4.1399452E-1,-4.3656997E-2,1.3619545E0,1.3424727E0,1.4534949E0,-3.6699206E-1,1.3834779E-1,-5.8030356E-2,1.417428E-2,-5.540026E-2,1.9158222E-1,-5.90729E-2,1.296363E-1,-5.2321296E-2,1.5631422E-1,-5.907243E-2,-5.728788E-2,-1.847441E-2,-5.6495603E-2,1.3836229E-1,-5.507573E-2,1.2121911E-1,-5.9046168E-2,9.968295E-3,-5.3294636E-2,1.3391352E-1,1.4476652E-1,1.3425165E-1,5.4496128E-2,2.648878E-2,1.4551252E-1,1.2799259E-1,-5.598835E-2],"categories":[],"categories_nodes":[],"categories_segments":[],"categories_sizes":[],"default_left":[0,0,0,0,0,0,0,0,0,0,0,0,0,0,0,0,0,0,0,0,0,0,0,0,0,0,0,0,0,0,0,0,0,0,0,0,0,0,0,0,0,0,0,0,0,0,0,0,0,0,0,0,0,0,0,0,0,0,0,0,0,0,0,0,0,0,0,0,0],"id":26,"left_children":[1,3,5,7,9,11,13,15,17,19,21,-1,23,-1,25,27,-1,29,31,33,35,37,-1,39,41,43,-1,45,47,-1,-1,49,51,53,55,57,59,-1,61,63,65,67,-1,-1,-1,-1,-1,-1,-1,-1,-1,-1,-1,-1,-1,-1,-1,-1,-1,-1,-1,-1,-1,-1,-1,-1,-1,-1,-1],"loss_changes":[2.2402428E5,1.1388239E5,1.4876562E3,3.745182E4,1.0945375E4,6.899531E2,4.017563E0,1.3104164E4,5.545078E2,5.3553906E2,2.2564658E3,0E0,4.5171875E1,0E0,9.601593E-1,3.9597734E3,0E0,1.143515E1,8.8671875E-1,3.918828E2,8.5788226E2,1.0986328E1,0E0,5.46875E0,1.0724106E2,9.484253E-1,0E0,1.5216595E2,2.092125E3,0E0,0E0,1.3006371E1,6.298828E-2,1.1222656E2,7.6619415E1,3.1905637E2,1.5302893E2,0E0,5.145996E0,3.171875E0,7.644043E-1,1.7654024E1,0E0,0E0,0E0,0E0,0E0,0E0,0E0,0E0,0E0,0E0,0E0,0E0,0E0,0E0,0E0,0E0,0E0,0E0,0E0,0E0,0E0,0E0,0E0,0E0,0E0,0E0,0E0],"parents":[2147483647,0,0,1,1,2,2,3,3,4,4,5,5,6,6,7,7,8,8,9,9,10,10,12,12,14,14,15,15,17,17,18,18,19,19,20,20,21,21,23,23,24,24,25,25,27,27,28,28,31,31,32,32,33,33,34,34,35,35,36,36,38,38,39,39,40,40,41,41],"right_children":[2,4,6,8,10,12,14,16,18,20,22,-1,24,-1,26,28,-1,30,32,34,36,38,-1,40,42,44,-1,46,48,-1,-1,50,52,54,56,58,60,-1,62,64,66,68,-1,-1,-1,-1,-1,-1,-1,-1,-1,-1,-1,-1,-1,-1,-1,-1,-1,-1,-1,-1,-1,-1,-1,-1,-1,-1,-1],"split_conditions":[1.3106659E3,4.8800644E-2,2.43E2,6.3761924E3,1E0,2.29E2,3.64E2,8.1E1,3E0,9.2E2,8.1E1,-5.8436062E-2,2.5853482E2,8.8586025E-2,1.22E2,6E1,-5.7614066E-2,8.1E1,1.299067E4,1.448E3,3.76E2,2.27E2,-5.8087643E-2,4.007E3,5.099093E6,6.01799E6,1.4777211E-2,1E0,7E1,1.3384925E-1,-4.437036E-2,1E0,8E0,3E0,8.1E1,8.1E1,4.3018674E2,-4.3656997E-2,4.007E3,8.1E1,8.484E3,5.017279E6,1.3834779E-1,-5.8030356E-2,1.417428E-2,-5.540026E-2,1.9158222E-1,-5.90729E-2,1.296363E-1,-5.2321296E-2,1.5631422E-1,-5.907243E-2,-5.728788E-2,-1.847441E-2,-5.6495603E-2,1.3836229E-1,-5.507573E-2,1.2121911E-1,-5.9046168E-2,9.968295E-3,-5.3294636E-2,1.3391352E-1,1.4476652E-1,1.3425165E-1,5.4496128E-2,2.648878E-2,1.4551252E-1,1.2799259E-1,-5.598835E-2],"split_indices":[13,37,67,14,43,67,66,0,52,13,0,0,9,0,19,34,0,0,14,7,63,67,0,24,1,27,0,43,0,0,0,43,4,16,0,0,14,0,24,0,5,1,0,0,0,0,0,0,0,0,0,0,0,0,0,0,0,0,0,0,0,0,0,0,0,0,0,0,0],"split_type":[0,0,0,0,0,0,0,0,0,0,0,0,0,0,0,0,0,0,0,0,0,0,0,0,0,0,0,0,0,0,0,0,0,0,0,0,0,0,0,0,0,0,0,0,0,0,0,0,0,0,0,0,0,0,0,0,0,0,0,0,0,0,0,0,0,0,0,0,0],"sum_hessian":[5.1026847E5,3.971932E5,1.1307528E5,8.233478E4,3.148584E5,1.12665516E5,4.097676E2,6.568735E4,1.664743E4,3.1051753E5,4.3408765E3,1.8566031E2,1.1247985E5,1.0454783E0,4.0872214E2,6.144463E4,4.2427246E3,1.586503E2,1.648878E4,3.0736834E5,3.149189E3,3.624206E3,7.1667017E2,1.1232492E5,1.5493555E2,4.072553E2,1.4668356E0,1.2718059E3,6.017282E4,1.5540974E2,3.2405653E0,1.27054695E2,1.6361725E4,3.0722166E5,1.4669759E2,6.466109E2,2.5025781E3,2.9724915E0,3.6212336E3,1.1173262E5,5.9230286E2,5.2316578E1,1.0261898E2,4.057834E2,1.471909E0,1.2473086E3,2.4497229E1,5.928095E2,5.958001E4,1.2493975E2,2.1149454E0,1.3424297E3,1.5019295E4,7.7956665E2,3.064421E5,1.22725815E2,2.3971766E1,5.266206E2,1.1999026E2,4.7058447E2,2.0319937E3,2.8729697E3,7.4826404E2,1.117258E5,6.8221335E0,1.0352086E0,5.9126764E2,4.894194E0,4.7422382E1],"tree_param":{"num_deleted":"0","num_feature":"78","num_nodes":"69","size_leaf_vector":"1"}},{"base_weights":[8.994442E-2,1.3220811E0,-5.7202943E-2,1.3336647E0,-5.7310652E-2,-4.9721727E-1,1.3370612E0,-5.9186634E-2,1.306967E-1,1.3384967E0,-5.9409082E-2,1.3397329E0,-5.9360117E-2,1.3403775E-1,-6.4572856E-2],"categories":[],"categories_nodes":[],"categories_segments":[],"categories_sizes":[],"default_left":[0,0,0,0,0,0,0,0,0,0,0,0,0,0,0],"id":27,"left_children":[1,3,-1,5,-1,7,9,-1,-1,11,-1,13,-1,-1,-1],"loss_changes":[4.1583422E5,3.9122812E3,0E0,1.1019688E3,0E0,5.689627E1,4.90875E2,0E0,0E0,4.2265625E2,0E0,2.2675E2,0E0,0E0,0E0],"parents":[2147483647,0,0,1,1,3,3,5,5,6,6,9,9,11,11],"right_children":[2,4,-1,6,-1,8,10,-1,-1,12,-1,14,-1,-1,-1],"split_conditions":[2.3E1,2E0,-5.7202943E-2,2.8E1,-5.7310652E-2,2.47E2,3.04E2,-5.9186634E-2,1.306967E-1,3.4E1,-5.9409082E-2,2E0,-5.9360117E-2,1.3403775E-1,-6.4572856E-2],"split_indices":[0,11,0,69,0,67,67,0,0,2,0,51,0,0,0],"split_type":[0,0,0,0,0,0,0,0,0,0,0,0,0,0,0],"sum_hessian":[5.098223E5,1.7817775E5,3.3164456E5,1.7709562E5,1.0821206E3,3.27656E2,1.7676797E5,3.1196216E2,1.5693856E1,1.7663697E5,1.3100229E2,1.7652434E5,1.1263137E2,1.7646738E5,5.696976E1],"tree_param":{"num_deleted":"0","num_feature":"78","num_nodes":"15","size_leaf_vector":"1"}},{"base_weights":[8.995205E-2,-4.922046E-1,1.1268486E0,-5.4718673E-1,3.8500726E-1,-5.728185E-2,1.2939752E0,-5.5517906E-1,6.256616E-4,-5.719694E-2,1.32115E0,1.3408955E0,-4.2228433E-1,-1.667022E-1,-5.638707E-1,-5.723641E-2,1.2554011E0,1.3417616E-1,-5.9293397E-2,1.3409759E0,-5.038417E-2,1.2320731E0,-5.723958E-1,-5.692911E-1,1.3404539E-1,-5.668263E-1,-1.7684782E-1,-2.9248643E-1,1.3479991E0,1.3409896E-1,-3.151322E-2,1.3291554E0,-5.442826E-2,-5.83159E-2,2.0806748E-1,-5.7195928E-2,7.3795214E-2,-5.706781E-2,-5.4633565E-2,1.7438985E-1,-5.8232646E-2,-5.7927143E-2,1.6313058E-1,1.6422598E-1,1.3419676E-1,-4.960898E-2,1.3594578E-1,1.3590775E-1,-5.5375934E-2],"categories":[],"categories_nodes":[],"categories_segments":[],"categories_sizes":[],"default_left":[0,0,0,0,0,0,0,0,0,0,0,0,0,0,0,0,0,0,0,0,0,0,0,0,0,0,0,0,0,0,0,0,0,0,0,0,0,0,0,0,0,0,0,0,0,0,0,0,0],"id":28,"left_children":[1,3,5,7,9,-1,11,13,15,-1,17,19,21,23,25,-1,27,-1,-1,29,-1,31,33,35,-1,37,39,41,43,-1,-1,45,-1,-1,47,-1,-1,-1,-1,-1,-1,-1,-1,-1,-1,-1,-1,-1,-1],"loss_changes":[3.0776397E5,1.5748844E4,5.207589E4,1.3453125E3,1.7254713E4,0E0,1.3441625E4,1.0224922E3,3.1781702E3,0E0,3.849043E2,2.475E1,1.1039486E3,4.0230024E3,3.3872656E2,0E0,1.9901831E2,0E0,