{"learner":{"attributes":{"scikit_learn":"{\"_estimator_type\": \"classifier\"}"},"feature_names":[],"feature_types":[],"gradient_booster":{"model":{"gbtree_model_param":{"num_parallel_tree":"1","num_trees":"600"},"iteration_indptr":[0,6,12,18,24,30,36,42,48,54,60,66,72,78,84,90,96,102,108,114,120,126,132,138,144,150,156,162,168,174,180,186,192,198,204,210,216,222,228,234,240,246,252,258,264,270,276,282,288,294,300,306,312,318,324,330,336,342,348,354,360,366,372,378,384,390,396,402,408,414,420,426,432,438,444,450,456,462,468,474,480,486,492,498,504,510,516,522,528,534,540,546,552,558,564,570,576,582,588,594,600],"tree_info":[0,1,2,3,4,5,0,1,2,3,4,5,0,1,2,3,4,5,0,1,2,3,4,5,0,1,2,3,4,5,0,1,2,3,4,5,0,1,2,3,4,5,0,1,2,3,4,5,0,1,2,3,4,5,0,1,2,3,4,5,0,1,2,3,4,5,0,1,2,3,4,5,0,1,2,3,4,5,0,1,2,3,4,5,0,1,2,3,4,5,0,1,2,3,4,5,0,1,2,3,4,5,0,1,2,3,4,5,0,1,2,3,4,5,0,1,2,3,4,5,0,1,2,3,4,5,0,1,2,3,4,5,0,1,2,3,4,5,0,1,2,3,4,5,0,1,2,3,4,5,0,1,2,3,4,5,0,1,2,3,4,5,0,1,2,3,4,5,0,1,2,3,4,5,0,1,2,3,4,5,0,1,2,3,4,5,0,1,2,3,4,5,0,1,2,3,4,5,0,1,2,3,4,5,0,1,2,3,4,5,0,1,2,3,4,5,0,1,2,3,4,5,0,1,2,3,4,5,0,1,2,3,4,5,0,1,2,3,4,5,0,1,2,3,4,5,0,1,2,3,4,5,0,1,2,3,4,5,0,1,2,3,4,5,0,1,2,3,4,5,0,1,2,3,4,5,0,1,2,3,4,5,0,1,2,3,4,5,0,1,2,3,4,5,0,1,2,3,4,5,0,1,2,3,4,5,0,1,2,3,4,5,0,1,2,3,4,5,0,1,2,3,4,5,0,1,2,3,4,5,0,1,2,3,4,5,0,1,2,3,4,5,0,1,2,3,4,5,0,1,2,3,4,5,0,1,2,3,4,5,0,1,2,3,4,5,0,1,2,3,4,5,0,1,2,3,4,5,0,1,2,3,4,5,0,1,2,3,4,5,0,1,2,3,4,5,0,1,2,3,4,5,0,1,2,3,4,5,0,1,2,3,4,5,0,1,2,3,4,5,0,1,2,3,4,5,0,1,2,3,4,5,0,1,2,3,4,5,0,1,2,3,4,5,0,1,2,3,4,5,0,1,2,3,4,5,0,1,2,3,4,5,0,1,2,3,4,5,0,1,2,3,4,5,0,1,2,3,4,5,0,1,2,3,4,5,0,1,2,3,4,5,0,1,2,3,4,5,0,1,2,3,4,5,0,1,2,3,4,5,0,1,2,3,4,5,0,1,2,3,4,5,0,1,2,3,4,5,0,1,2,3,4,5,0,1,2,3,4,5,0,1,2,3,4,5,0,1,2,3,4,5,0,1,2,3,4,5,0,1,2,3,4,5,0,1,2,3,4,5,0,1,2,3,4,5,0,1,2,3,4,5,0,1,2,3,4,5,0,1,2,3,4,5,0,1,2,3,4,5],"trees":[{"base_weights":[-3.459557E-8,-2.4226949E-1,2.998562E0,-3.1643245E-1,1.9424367E0,2.9993017E0,1.1224012E0,-3.5860667E-1,2.1650221E0,-3.644911E-1,2.7272723E0,2.9999095E-1,2.5156403E0,2.7097985E-1,-5.057414E-1,-3.8782057E-1,2.9826548E0,2.99957E-1,-2.4842186E-1,-5.3672844E-1,2.9873437E-1,2.9509983E0,-4.1873258E-1,8.759466E-2,2.945747E-1,-5.376221E-2,-1.2780151E-2,-4.0356135E-1,2.6052675E0,2.999369E-1,8.554319E-1,-5.9791404E-1,2.9377632E0,2.4587672E0,-5.942723E-1,2.9864967E0,2.4638188E0,-5.850826E-1,2.933217E-1,-3.185858E-1,1.7100748E-1,-4.2092144E-2,1.7267749E-1,2.998186E-1,8.693023E-2,-5.2183695E-2,2.814348E-1,-2.026623E-2,-5.984832E-2,-4.6038777E-2,2.9872692E-1,2.7702668E-1,3.8950495E-2,-5.9514254E-2,1.5681264E-1,2.987692E-1,6.504245E-2,-4.9254175E-2,2.99289E-1,-5.9748758E-2,2.2705257E-1,3.806697E-2,-4.5468282E-2],"categories":[],"categories_nodes":[],"categories_segments":[],"categories_sizes":[],"default_left":[0,0,0,0,0,0,0,0,0,0,0,0,0,0,0,0,0,0,0,0,0,0,0,0,0,0,0,0,0,0,0,0,0,0,0,0,0,0,0,0,0,0,0,0,0,0,0,0,0,0,0,0,0,0,0,0,0,0,0,0,0,0,0],"id":0,"left_children":[1,3,5,7,9,11,13,15,17,19,21,-1,23,-1,25,27,29,-1,31,33,-1,35,37,39,-1,-1,-1,41,43,-1,45,47,49,51,53,55,57,59,-1,61,-1,-1,-1,-1,-1,-1,-1,-1,-1,-1,-1,-1,-1,-1,-1,-1,-1,-1,-1,-1,-1,-1,-1],"loss_changes":[4.565154E5,9.420703E4,6.184375E1,5.8852125E4,3.4564055E4,6.25E0,5.333454E1,5.3975094E4,1.8929406E4,2.7996885E3,1.0026758E4,0E0,6.77565E1,0E0,6.1038256E-2,2.5826656E4,1.6783984E2,0E0,2.6916936E3,7.962223E2,0E0,2.2263281E2,5.295222E2,7.682912E0,0E0,0E0,0E0,2.0167062E4,1.9535215E3,0E0,1.06052216E2,3.6865234E-1,4.157373E1,5.506201E1,9.447144E0,3.2648438E1,1.4230908E3,3.333188E1,0E0,1.0777072E0,0E0,0E0,0E0,0E0,0E0,0E0,0E0,0E0,0E0,0E0,0E0,0E0,0E0,0E0,0E0,0E0,0E0,0E0,0E0,0E0,0E0,0E0,0E0],"parents":[2147483647,0,0,1,1,2,2,3,3,4,4,5,5,6,6,7,7,8,8,9,9,10,10,12,12,14,14,15,15,16,16,18,18,19,19,21,21,22,22,23,23,27,27,28,28,30,30,31,31,32,32,33,33,34,34,35,35,36,36,37,37,39,39],"right_children":[2,4,6,8,10,12,14,16,18,20,22,-1,24,-1,26,28,30,-1,32,34,-1,36,38,40,-1,-1,-1,42,44,-1,46,48,50,52,54,56,58,60,-1,62,-1,-1,-1,-1,-1,-1,-1,-1,-1,-1,-1,-1,-1,-1,-1,-1,-1,-1,-1,-1,-1,-1,-1],"split_conditions":[2.3E1,1.701E4,1.23E7,5.4048E4,8.345621E-2,1.375E3,1.375E3,3.0016E4,1E0,8.1E1,1.5251705E3,2.9999095E-1,8.1E1,2.7097985E-1,9.2E1,2.92E4,4E1,2.99957E-1,2E0,1.36E2,2.9873437E-1,8.08E3,8.1E1,2E0,2.945747E-1,-5.376221E-2,-1.2780151E-2,8.154E3,2E0,2.999369E-1,4.4E1,1.3986014E4,1.108561E-1,1E0,3.0016E4,2.85E7,8.081E3,1.3E1,2.933217E-1,2E0,1.7100748E-1,-4.2092144E-2,1.7267749E-1,2.998186E-1,8.693023E-2,-5.2183695E-2,2.814348E-1,-2.026623E-2,-5.984832E-2,-4.6038777E-2,2.9872692E-1,2.7702668E-1,3.8950495E-2,-5.9514254E-2,1.5681264E-1,2.987692E-1,6.504245E-2,-4.9254175E-2,2.99289E-1,-5.9748758E-2,2.2705257E-1,3.806697E-2,-4.5468282E-2],"split_indices":[11,72,14,0,37,12,12,66,46,0,13,0,0,0,18,67,69,0,2,34,0,0,0,3,0,0,0,19,38,0,34,15,15,47,66,22,0,3,0,7,0,0,0,0,0,0,0,0,0,0,0,0,0,0,0,0,0,0,0,0,0,0,0],"split_type":[0,0,0,0,0,0,0,0,0,0,0,0,0,0,0,0,0,0,0,0,0,0,0,0,0,0,0,0,0,0,0,0,0,0,0,0,0,0,0,0,0,0,0,0,0,0,0,0,0,0,0,0,0,0,0,0,0,0,0,0,0,0,0],"sum_hessian":[6.2840894E5,5.814329E5,4.6976066E4,5.623441E5,1.908872E4,4.695696E4,1.9105976E1,5.5294725E5,9.396908E3,4.845755E3,1.4242965E4,4.6892832E4,6.412813E1,9.337654E0,9.768323E0,5.481554E5,4.7918403E3,6.98226E3,2.414648E3,4.6097197E3,2.3603516E2,1.3297392E4,9.45573E2,9.8314E0,5.429673E1,8.618789E0,1.1495343E0,5.4528856E5,2.8668328E3,4.7540767E3,3.7764038E1,2.1766985E3,2.3794942E2,8.609779E1,4.523622E3,1.2389502E4,9.0788965E2,9.016514E2,4.392156E1,8.505684E0,1.3257164E0,5.4088175E5,4.406836E3,2.3371216E3,5.297113E2,2.260476E1,1.5159278E1,3.643457E0,2.1730552E3,3.297618E0,2.346518E2,7.4538284E1,1.1559507E1,4.522527E3,1.095157E0,1.2382887E4,6.6155314E0,1.3782356E2,7.700661E2,8.985389E2,3.1125515E0,1.0929819E0,7.4127016E0],"tree_param":{"num_deleted":"0","num_feature":"78","num_nodes":"63","size_leaf_vector":"1"}},{"base_weights":[-3.6284277E-8,-5.0191563E-1,1.7574074E0,1.7069579E0,-5.9999872E-2,2.9907668E0,6.13907E-1,-5.999145E-2,2.8831751E0,2.9937663E0,-5.8948465E-2,2.4604044E0,-5.9998628E-2,2.9326735E0,-5.96905E-2,-5.6579765E-2,2.9946525E0,-5.9974648E-2,2.734941E0,-5.9407324E-2,2.9589586E0,2.9949553E0,-5.0975688E-2,2.977989E0,1.1331583E0,-5.892169E-2,2.973453E-1,2.7474377E-1,2.9978666E-1,-5.9394218E-2,2.993378E-1,-4.085907E-2,2.0110372E-1],"categories":[],"categories_nodes":[],"categories_segments":[],"categories_sizes":[],"default_left":[0,0,0,0,0,0,0,0,0,0,0,0,0,0,0,0,0,0,0,0,0,0,0,0,0,0,0,0,0,0,0,0,0],"id":1,"left_children":[1,3,5,7,-1,9,11,-1,13,15,-1,17,-1,19,-1,-1,21,-1,23,-1,25,27,-1,29,31,-1,-1,-1,-1,-1,-1,-1,-1],"loss_changes":[5.543025E5,1.0590272E5,1.968874E5,5.6392645E4,0E0,7.23E2,1.6237636E5,0E0,2.3727969E3,2.13375E2,0E0,2.414175E4,0E0,1.2598672E3,0E0,0E0,7.28125E1,0E0,1.02621875E4,0E0,6.945781E2,4.0125E1,0E0,1.2602188E3,4.70488E3,0E0,0E0,0E0,0E0,0E0,0E0,0E0,0E0],"parents":[2147483647,0,0,1,1,2,2,3,3,5,5,6,6,8,8,9,9,11,11,13,13,16,16,18,18,20,20,21,21,23,23,24,24],"right_children":[2,4,6,8,-1,10,12,-1,14,16,-1,18,-1,20,-1,-1,22,-1,24,-1,26,28,-1,30,32,-1,-1,-1,-1,-1,-1,-1,-1],"split_conditions":[8.08E3,2.4E1,8.081E3,1.761E3,-5.9999872E-2,4E1,2.4E1,-5.999145E-2,5.101E3,1.2960784E-1,-5.8948465E-2,2.37E2,-5.9998628E-2,2.37E2,-5.96905E-2,-5.6579765E-2,4.5E1,-5.9974648E-2,2.52E2,-5.9407324E-2,8.833333E0,4.724E3,-5.0975688E-2,8.833333E0,1.026E3,-5.892169E-2,2.973453E-1,2.7474377E-1,2.9978666E-1,-5.9394218E-2,2.993378E-1,-4.085907E-2,2.0110372E-1],"split_indices":[0,34,0,0,0,69,34,0,0,37,0,66,0,66,0,0,12,0,66,0,52,66,0,52,66,0,0,0,0,0,0,0,0],"split_type":[0,0,0,0,0,0,0,0,0,0,0,0,0,0,0,0,0,0,0,0,0,0,0,0,0,0,0,0,0,0,0,0,0],"sum_hessian":[6.2840894E5,4.888065E5,1.3960242E5,2.0781514E4,4.68025E5,6.7161555E4,7.244087E4,7.0179497E3,1.3763563E4,6.710549E4,5.6059505E1,2.873301E4,4.370786E4,1.35707E4,1.9286292E2,1.6542635E1,6.708895E4,2.3654204E3,2.636759E4,1.0023569E2,1.3470465E4,6.70833E4,5.6487045E0,2.2893033E4,3.474556E3,5.464257E1,1.3415822E4,7.9087695E2,6.629242E4,9.804537E1,2.2794988E4,1.2608173E3,2.2137385E3],"tree_param":{"num_deleted":"0","num_feature":"78","num_nodes":"33","size_leaf_vector":"1"}},{"base_weights":[1.675875E-8,-3.5431227E-1,2.96794E0,1.3411217E0,-5.7524276E-1,2.9896848E0,-5.863736E-1,2.3761353E0,-3.8630193E-1,-5.9102327E-1,2.0017605E0,-5.953003E-2,2.996524E0,-5.954626E-1,6.0408854E-1,2.7758555E0,-5.998748E-2,-5.7525945E-1,1.8973889E0,-5.938002E-1,3.192833E-1,2.9909565E0,-5.9928037E-2,2.9997754E0,1.4226915E0,-5.9851732E-2,2.7919982E-2,1.4112805E-1,-3.541987E-2,2.8962557E0,1.2120316E0,-5.8651775E-1,2.6943903E0,2.8586764E0,-5.988375E-2,-5.941778E-1,2.8896656E0,2.956354E0,-3.869807E-1,-4.636596E-2,2.9965405E0,2.9998973E-1,1.0405911E0,-4.1654497E-1,2.9604277E-1,-5.8099467E-2,2.9341623E-1,-5.3520262E-2,2.9493603E-1,-5.9047665E-2,2.5660098E-2,2.9579413E-1,-5.1053245E-2,2.9210046E-1,-5.756986E-2,-5.9461076E-2,9.058977E-3,2.5564788E-2,2.9427132E-1,2.9845425E-1,-4.2837333E-2,-4.622638E-2,2.6510593E-1,2.9984376E-1,-3.212928E-2,-4.152683E-2,2.121075E-1,2.2687855E-1,-5.901727E-2],"categories":[],"categories_nodes":[],"categories_segments":[],"categories_sizes":[],"default_left":[0,0,0,0,0,0,0,0,0,0,0,0,0,0,0,0,0,0,0,0,0,0,0,0,0,0,0,0,0,0,0,0,0,0,0,0,0,0,0,0,0,0,0,0,0,0,0,0,0,0,0,0,0,0,0,0,0,0,0,0,0,0,0,0,0,0,0,0,0],"id":2,"left_children":[1,3,5,7,9,11,13,15,17,19,21,-1,23,25,27,29,-1,31,33,35,37,39,-1,41,43,-1,-1,-1,-1,45,47,49,51,53,-1,55,57,59,61,-1,63,-1,65,67,-1,-1,-1,-1,-1,-1,-1,-1,-1,-1,-1,-1,-1,-1,-1,-1,-1,-1,-1,-1,-1,-1,-1,-1,-1],"loss_changes":[6.608229E5,2.1028306E5,5.1815625E3,1.1571621E5,2.0199125E4,1.6350625E3,4.778183E0,4.814589E4,1.0465539E4,1.2480469E3,7.7801475E3,0E0,3.359375E2,1.251236E0,3.277227E0,6.7144375E3,0E0,8.2605664E2,4.449136E3,6.491406E2,2.7984612E3,4.364258E1,0E0,1.275E1,3.942715E2,0E0,0E0,0E0,0E0,4.3684062E3,7.7493213E3,7.465674E1,6.657916E1,2.8815137E2,0E0,1.459375E2,6.725891E0,3.156128E1,2.723755E2,0E0,1.4728516E1,0E0,9.786089E0,3.1252102E1,0E0,0E0,0E0,0E0,0E0,0E0,0E0,0E0,0E0,0E0,0E0,0E0,0E0,0E0,0E0,0E0,0E0,0E0,0E0,0E0,0E0,0E0,0E0,0E0,0E0],"parents":[2147483647,0,0,1,1,2,2,3,3,4,4,5,5,6,6,7,7,8,8,9,9,10,10,12,12,13,13,14,14,15,15,17,17,18,18,19,19,20,20,21,21,23,23,24,24,29,29,30,30,31,31,32,32,33,33,35,35,36,36,37,37,38,38,40,40,42,42,43,43],"right_children":[2,4,6,8,10,12,14,16,18,20,22,-1,24,26,28,30,-1,32,34,36,38,40,-1,42,44,-1,-1,-1,-1,46,48,50,52,54,-1,56,58,60,62,-1,64,-1,66,68,-1,-1,-1,-1,-1,-1,-1,-1,-1,-1,-1,-1,-1,-1,-1,-1,-1,-1,-1,-1,-1,-1,-1,-1,-1],"split_conditions":[1.5251705E3,8.345621E-2,2.43E2,7.75E0,1E0,2.29E2,3.832E3,8.1E1,0E0,1.0938329E3,8.1E1,-5.953003E-2,2.5330838E2,1E2,3.51E2,5.31E2,-5.998748E-2,3.56E2,8.1E1,1.983E3,1.767767E1,1.54E2,-5.9928037E-2,8.1E1,5.097005E6,-5.9851732E-2,2.7919982E-2,1.4112805E-1,-3.541987E-2,6.4E1,6.901036E5,1.87E2,8.1E1,3.0016E4,-5.988375E-2,2.16E2,1.7467248E4,1.76E2,2E0,-4.636596E-2,2.36E2,2.9998973E-1,4.44E2,5.028865E6,2.9604277E-1,-5.8099467E-2,2.9341623E-1,-5.3520262E-2,2.9493603E-1,-5.9047665E-2,2.5660098E-2,2.9579413E-1,-5.1053245E-2,2.9210046E-1,-5.756986E-2,-5.9461076E-2,9.058977E-3,2.5564788E-2,2.9427132E-1,2.9845425E-1,-4.2837333E-2,-4.622638E-2,2.6510593E-1,2.9984376E-1,-3.212928E-2,-4.152683E-2,2.121075E-1,2.2687855E-1,-5.901727E-2],"split_indices":[13,37,67,52,43,67,4,0,67,13,0,0,9,19,67,66,0,7,0,7,9,67,0,0,1,0,0,0,0,34,17,7,0,66,0,7,15,35,51,0,67,0,0,1,0,0,0,0,0,0,0,0,0,0,0,0,0,0,0,0,0,0,0,0,0,0,0,0,0],"split_type":[0,0,0,0,0,0,0,0,0,0,0,0,0,0,0,0,0,0,0,0,0,0,0,0,0,0,0,0,0,0,0,0,0,0,0,0,0,0,0,0,0,0,0,0,0,0,0,0,0,0,0,0,0,0,0,0,0,0,0,0,0,0,0,0,0,0,0,0,0],"sum_hessian":[6.2840894E5,5.61391E5,6.70179E4,6.4720086E4,4.9667094E5,6.661055E4,4.07356E2,4.047091E4,2.4249174E4,4.936488E5,3.0221396E3,1.2666831E2,6.6483875E4,4.0476544E2,2.5905304E0,3.567881E4,4.7921E3,2.2396766E4,1.8524087E3,4.9214788E5,1.500941E3,2.1893594E3,8.327804E2,6.634591E4,1.3796822E2,4.036714E2,1.0940695E0,1.1495343E0,1.440996E0,3.312745E4,2.551361E3,2.232073E4,7.603566E1,1.3372814E3,5.1512726E2,4.9209534E5,5.2519688E1,3.1639386E2,1.1845471E3,3.4007506E0,2.1859585E3,6.634125E4,4.6612144E0,6.3157135E1,7.481108E1,3.570855E2,3.2770363E4,1.2723992E3,1.278962E3,2.221671E4,1.0401925E2,7.0329315E1,5.706344E0,1.3135914E3,2.3689974E1,4.9178456E5,3.107788E2,1.1517093E0,5.1367977E1,3.1389792E2,2.4959598E0,1.156731E3,2.781612E1,2.1848057E3,1.1527969E0,2.247954E0,2.4132607E0,3.102764E0,6.005437E1],"tree_param":{"num_deleted":"0","num_feature":"78","num_nodes":"69","size_leaf_vector":"1"}},{"base_weights":[-1.659191E-8,2.925814E0,-5.9993353E-2,2.9708245E0,-5.9955515E-2,-4.9787283E-1,2.981986E0,-5.9818204E-2,2.7133182E-1,2.9864943E0,-5.9549857E-2,2.990371E0,-5.9475947E-2,2.9918656E-1,-5.865745E-2],"categories":[],"categories_nodes":[],"categories_segments":[],"categories_sizes":[],"default_left":[0,0,0,0,0,0,0,0,0,0,0,0,0,0,0],"id":3,"left_children":[1,3,-1,5,-1,7,9,-1,-1,11,-1,13,-1,-1,-1],"loss_changes":[1.1030458E6,1.6969125E4,0E0,4.089125E3,0E0,1.1098083E2,1.69925E3,0E0,0E0,1.4610625E3,0E0,5.63E2,0E0,0E0,0E0],"parents":[2147483647,0,0,1,1,3,3,5,5,6,6,9,9,11,11],"right_children":[2,4,-1,6,-1,8,10,-1,-1,12,-1,14,-1,-1,-1],"split_conditions":[2.3E1,2E0,-5.9993353E-2,2.8E1,-5.9955515E-2,2.47E2,2.94E2,-5.9818204E-2,2.7133182E-1,3.4E1,-5.9549857E-2,2E0,-5.9475947E-2,2.9918656E-1,-5.865745E-2],"split_indices":[0,11,0,69,0,67,67,0,0,2,0,51,0,0,0],"split_type":[0,0,0,0,0,0,0,0,0,0,0,0,0,0,0],"sum_hessian":[6.2840894E5,1.0692803E5,5.214809E5,1.0558018E5,1.3478513E3,3.3850238E2,1.0524167E5,3.290378E2,9.46456E0,1.0510938E5,1.3229076E2,1.0499589E5,1.1349284E2,1.049522E5,4.3690998E1],"tree_param":{"num_deleted":"0","num_feature":"78","num_nodes":"15","size_leaf_vector":"1"}},{"base_weights":[-5.5334223E-8,-5.204207E-1,1.5415175E0,-5.5632424E-1,1.3895892E0,-5.9984863E-2,2.9450676E0,3.6768737E-1,-5.93325E-1,-5.998416E-2,2.933148E0,2.998484E-1,-5.995784E-2,-5.988107E-1,2.995677E-1,-5.958359E-1,-2.7601668E-1,2.9764342E0,-5.9001345E-2,-5.999537E-2,1.1296487E0,-5.988324E-1,-5.7395905E-1,-5.998035E-2,2.0219545E0,-5.793279E-2,2.9973397E0,-4.431107E-2,1.9302414E-1,-5.9910037E-2,-5.695482E-2,-5.9497725E-2,2.986364E-1,2.9884794E-1,-5.9486803E-2,2.9988974E-1,-4.0488023E-2],"categories":[],"categories_nodes":[],"categories_segments":[],"categories_sizes":[],"default_left":[0,0,0,0,0,0,0,0,0,0,0,0,0,0,0,0,0,0,0,0,0,0,0,0,0,0,0,0,0,0,0,0,0,0,0,0,0],"id":4,"left_children":[1,3,5,7,9,-1,11,13,15,-1,17,-1,-1,19,-1,21,23,25,-1,-1,27,29,31,-1,33,-1,35,-1,-1,-1,-1,-1,-1,-1,-1,-1,-1],"loss_changes":[5.0413478E5,3.2218148E4,4.7669766E5,1.5766094E4,2.6621104E4,0E0,1.8142562E4,4.5099152E4,3.5309375E2,0E0,7.461914E2,0E0,0E0,2.6326172E1,0E0,2.85E1,2.592637E3,3.6020312E2,0E0,0E0,1.2094709E1,2.6875E0,3.9692422E3,0E0,1.0902556E3,0E0,2.6621094E1,0E0,0E0,0E0,0E0,0E0,0E0,0E0,0E0,0E0,0E0],"parents":[2147483647,0,0,1,1,2,2,3,3,4,4,6,6,7,7,8,8,10,10,13,13,15,15,16,16,17,17,20,20,21,21,22,22,24,24,26,26],"right_children":[2,4,6,8,10,-1,12,14,16,-1,18,-1,-1,20,-1,22,24,26,-1,-1,28,30,32,-1,34,-1,36,-1,-1,-1,-1,-1,-1,-1,-1,-1,-1],"split_conditions":[1.30718955E4,4E1,1E0,3.2E1,0E0,-5.9984863E-2,2E0,1E0,2.92E4,-5.998416E-2,9.88E2,2.998484E-1,-5.995784E-2,3.8232E4,2.995677E-1,1.4349261E2,2E0,2E0,-5.9001345E-2,-5.999537E-2,8.49971E5,1.30317E6,2.896E4,-5.998035E-2,6E0,-5.793279E-2,4.4E1,-4.431107E-2,1.9302414E-1,-5.9910037E-2,-5.695482E-2,-5.9497725E-2,2.986364E-1,2.9884794E-1,-5.9486803E-2,2.9988974E-1,-4.0488023E-2],"split_indices":[37,69,46,34,67,0,2,46,67,0,19,0,0,24,0,37,38,11,0,0,73,29,67,0,5,0,69,0,0,0,0,0,0,0,0,0,0],"split_type":[0,0,0,0,0,0,0,0,0,0,0,0,0,0,0,0,0,0,0,0,0,0,0,0,0,0,0,0,0,0,0,0,0,0,0,0,0],"sum_hessian":[6.2840894E5,4.6980284E5,1.5860608E5,4.611353E5,8.667528E3,6.2797645E4,9.580844E4,1.7754236E4,4.433811E5,3.7870996E3,4.8804287E3,9.438623E4,1.4222054E3,1.2980981E4,4.773255E3,4.3989922E5,3.4818499E3,4.821348E3,5.9080837E1,1.2973056E4,7.926252E0,3.8688166E5,5.301758E4,3.0524895E3,4.2936035E2,2.8024588E1,4.7933237E3,2.8243523E0,5.1018996E0,3.8335438E5,3.5272903E3,5.2707258E4,3.1032193E2,3.1344662E2,1.1591372E2,4.7912485E3,2.0750344E0],"tree_param":{"num_deleted":"0","num_feature":"78","num_nodes":"37","size_leaf_vector":"1"}},{"base_weights":[-7.4013307E-9,-4.793224E-1,2.7684906E0,-5.07602E-1,2.8433757E0,2.9656463E0,-5.99883E-2,-7.636335E-2,-5.6409115E-1,2.9961908E0,-5.9689283E-2,-5.9863634E-2,2.9836016E0,-2.6744834E-1,2.4609287E0,-5.975921E-1,1.7212531E-1,2.9993063E-1,-4.7359344E-2,2.9941337E0,-5.9766043E-2,1.1680236E0,-4.7058114E-1,2.9489937E0,-5.989891E-2,-5.9951186E-1,-4.280075E-1,-5.111159E-1,1.8799707E0,2.9975147E0,-5.9274387E-2,2.2843826E-1,-5.9978154E-2,-5.344045E-2,2.7161423E-2,-5.8808096E-2,2.9967484E-1,-5.999986E-2,-5.6942135E-2,-5.517137E-2,5.9618652E-2,-5.6741536E-2,5.881494E-3,-5.9945453E-2,2.454696E-1,2.9988804E-1,1.7057668E-1],"categories":[],"categories_nodes":[],"categories_segments":[],"categories_sizes":[],"default_left":[0,0,0,0,0,0,0,0,0,0,0,0,0,0,0,0,0,0,0,0,0,0,0,0,0,0,0,0,0,0,0,0,0,0,0,0,0,0,0,0,0,0,0,0,0,0,0],"id":5,"left_children":[1,3,5,7,9,11,-1,13,15,17,-1,-1,19,21,23,25,27,-1,-1,29,-1,31,33,35,-1,37,39,41,43,45,-1,-1,-1,-1,-1,-1,-1,-1,-1,-1,-1,-1,-1,-1,-1,-1,-1],"loss_changes":[8.3390106E5,5.0335242E4,6.1591812E4,1.2938891E4,2.3784727E3,5.609E3,0E0,2.9827578E4,1.1583047E4,4.8214844E1,0E0,0E0,3.2899375E3,1.6682973E4,6.436508E3,1.4598438E2,2.3852768E4,0E0,0E0,1.055875E3,0E0,1.3998728E4,2.3742998E3,6.29459E2,0E0,6.171875E0,6.378178E2,4.6852515E2,8.324943E3,1.48E2,0E0,0E0,0E0,0E0,0E0,0E0,0E0,0E0,0E0,0E0,0E0,0E0,0E0,0E0,0E0,0E0,0E0],"parents":[2147483647,0,0,1,1,2,2,3,3,4,4,5,5,7,7,8,8,9,9,12,12,13,13,14,14,15,15,16,16,19,19,21,21,22,22,23,23,25,25,26,26,27,27,28,28,29,29],"right_children":[2,4,6,8,10,12,-1,14,16,18,-1,-1,20,22,24,26,28,-1,-1,30,-1,32,34,36,-1,38,40,42,44,46,-1,-1,-1,-1,-1,-1,-1,-1,-1,-1,-1,-1,-1,-1,-1,-1,-1],"split_conditions":[2.896E4,5.032E3,2.92E4,1E0,1.15E2,4.1E2,-5.99883E-2,1.048E3,1.915E2,8.1E1,-5.9689283E-2,-5.9863634E-2,2.3152E4,2.51E2,1.196E3,1.7469362E2,8.27E2,2.9993063E-1,-4.7359344E-2,2E0,-5.9766043E-2,8.1E1,1.439E3,1.439E3,-5.989891E-2,1.5568358E2,8.27E2,1.1632E4,1.36E2,6.414E3,-5.9274387E-2,2.2843826E-1,-5.9978154E-2,-5.344045E-2,2.7161423E-2,-5.8808096E-2,2.9967484E-1,-5.999986E-2,-5.6942135E-2,-5.517137E-2,5.9618652E-2,-5.6741536E-2,5.881494E-3,-5.9945453E-2,2.454696E-1,2.9988804E-1,1.7057668E-1],"split_indices":[67,34,67,39,3,24,0,67,9,0,0,0,24,66,67,9,29,0,0,3,0,0,66,66,0,9,29,5,35,24,0,0,0,0,0,0,0,0,0,0,0,0,0,0,0,0,0],"split_type":[0,0,0,0,0,0,0,0,0,0,0,0,0,0,0,0,0,0,0,0,0,0,0,0,0,0,0,0,0,0,0,0,0,0,0,0,0,0,0,0,0,0,0,0,0,0,0],"sum_hessian":[6.2840894E5,5.3566706E5,9.274185E4,5.311473E5,4.519765E3,8.761381E4,5.128044E3,6.1518305E4,4.69629E5,4.327661E3,1.921038E2,4.389849E2,8.717483E4,5.7210633E4,4.3076724E3,4.4918916E5,2.0439838E4,4.3239146E3,3.7465897E0,8.691937E4,2.554587E2,7.091638E3,5.0118996E4,3.7151348E3,5.9253754E2,4.4415866E5,5.030516E3,1.4599755E4,5.8400825E3,8.683768E4,8.168871E1,4.346534E3,2.7451042E3,4.6150656E4,3.9683381E3,4.9339703E1,3.6657952E3,4.3706988E5,7.0887827E3,4.4888022E3,5.41714E2,1.328721E4,1.3125448E3,1.0989694E3,4.7411133E3,8.674466E4,9.302327E1],"tree_param":{"num_deleted":"0","num_feature":"78","num_nodes":"47","size_leaf_vector":"1"}},{"base_weights":[1.3348788E-3,-2.3038942E-1,2.2433846E0,-3.0328578E-1,1.5698081E0,-5.0162774E-2,2.2437425E0,-3.979972E-1,6.021373E-1,-3.511854E-1,2.0847907E0,2.2442029E0,9.33278E-1,-4.2821717E-1,2.2409992E0,2.5774436E0,-1.3418345E-1,-5.259681E-1,2.2516699E-1,2.2215457E0,-4.0556532E-1,2.2443688E-1,1.6488738E0,2.1129036E-1,-5.0737906E-1,-4.46574E-1,1.4073814E0,2.2515488E-1,5.049297E-1,2.8334873E0,2.2472571E-1,-3.4684378E-1,2.5610585E0,2.0140753E0,-5.857885E-1,2.2431128E0,1.9151609E0,-5.760627E-1,2.217685E-1,-3.8292874E-2,2.11947E-1,-5.383994E-2,-1.3824361E-2,-4.5695424E-2,1.8273002E-1,2.1714078E-1,-2.1399325E-2,-5.111843E-2,2.1597917E-1,2.928157E-1,2.2466953E-1,2.5731823E-1,-4.5548078E-2,2.9077336E-1,2.2386277E-1,2.3802726E-1,8.907073E-2,-5.8670383E-2,1.4631385E-1,2.243818E-1,5.931306E-2,-4.805861E-2,2.2436798E-1,-5.8902886E-2,1.8800634E-1],"categories":[],"categories_nodes":[],"categories_segments":[],"categories_sizes":[],"default_left":[0,0,0,0,0,0,0,0,0,0,0,0,0,0,0,0,0,0,0,0,0,0,0,0,0,0,0,0,0,0,0,0,0,0,0,0,0,0,0,0,0,0,0,0,0,0,0,0,0,0,0,0,0,0,0,0,0,0,0,0,0,0,0,0,0],"id":6,"left_children":[1,3,5,7,9,-1,11,13,15,17,19,21,23,25,27,29,31,33,-1,35,37,-1,39,-1,41,43,45,-1,47,49,-1,51,53,55,57,59,61,63,-1,-1,-1,-1,-1,-1,-1,-1,-1,-1,-1,-1,-1,-1,-1,-1,-1,-1,-1,-1,-1,-1,-1,-1,-1,-1,-1],"loss_changes":[3.248649E5,7.437039E4,5.8625E1,4.670772E4,2.1819941E4,0E0,3.325E1,3.9325047E4,7.502107E4,2.1228076E3,5.924453E3,2.0625E0,3.8947327E1,1.642761E4,1.0111133E2,1.17775E3,2.153761E4,6.653281E2,0E0,1.0464844E2,4.0660434E2,0E0,2.0016403E1,0E0,4.969263E-2,1.1393734E4,5.980367E3,0E0,5.9973194E1,4.314414E2,0E0,1.10493E4,3.006621E2,3.934494E1,8.869019E0,1.6578125E1,8.598496E2,2.8232208E1,0E0,0E0,0E0,0E0,0E0,0E0,0E0,0E0,0E0,0E0,0E0,0E0,0E0,0E0,0E0,0E0,0E0,0E0,0E0,0E0,0E0,0E0,0E0,0E0,0E0,0E0,0E0],"parents":[2147483647,0,0,1,1,2,2,3,3,4,4,6,6,7,7,8,8,9,9,10,10,11,11,12,12,13,13,14,14,15,15,16,16,17,17,19,19,20,20,22,22,24,24,25,25,26,26,28,28,29,29,31,31,32,32,33,33,34,34,35,35,36,36,37,37],"right_children":[2,4,6,8,10,-1,12,14,16,18,20,22,24,26,28,30,32,34,-1,36,38,-1,40,-1,42,44,46,-1,48,50,-1,52,54,56,58,60,62,64,-1,-1,-1,-1,-1,-1,-1,-1,-1,-1,-1,-1,-1,-1,-1,-1,-1,-1,-1,-1,-1,-1,-1,-1,-1,-1,-1],"split_conditions":[1.1E1,1.701E4,1.8E1,3.2771E4,8.345621E-2,-5.0162774E-2,1.23E7,3.0016E4,4E0,8.1E1,1.5251705E3,6.079349E6,1.375E3,8.154E3,4E1,5.4048E4,5.7735026E-1,1.36E2,2.2516699E-1,8.08E3,8.1E1,2.2443688E-1,2.4E1,2.1129036E-1,9.2E1,2.92E4,1.858649E6,2.2515488E-1,4.4E1,2.92E4,2.2472571E-1,2.37E2,5.4048E4,3.8466135E6,3.0016E4,2.85E7,8.081E3,1.3E1,2.217685E-1,-3.8292874E-2,2.11947E-1,-5.383994E-2,-1.3824361E-2,-4.5695424E-2,1.8273002E-1,2.1714078E-1,-2.1399325E-2,-5.111843E-2,2.1597917E-1,2.928157E-1,2.2466953E-1,2.5731823E-1,-4.5548078E-2,2.9077336E-1,2.2386277E-1,2.3802726E-1,8.907073E-2,-5.8670383E-2,1.4631385E-1,2.243818E-1,5.931306E-2,-4.805861E-2,2.2436798E-1,-5.8902886E-2,1.8800634E-1],"split_indices":[11,72,5,0,37,0,14,66,11,0,13,14,12,19,69,0,17,34,0,0,0,0,35,0,18,67,23,0,34,67,0,66,0,22,66,22,0,3,0,0,0,0,0,0,0,0,0,0,0,0,0,0,0,0,0,0,0,0,0,0,0,0,0,0,0],"split_type":[0,0,0,0,0,0,0,0,0,0,0,0,0,0,0,0,0,0,0,0,0,0,0,0,0,0,0,0,0,0,0,0,0,0,0,0,0,0,0,0,0,0,0,0,0,0,0,0,0,0,0,0,0,0,0,0,0,0,0,0,0,0,0,0,0],"sum_hessian":[6.252945E5,5.6672244E5,5.8572004E4,5.4466775E5,2.2054693E4,7.448164E0,5.8564555E4,4.9308897E5,5.1578816E4,4.6625845E3,1.739211E4,5.854327E4,2.1286974E1,4.875072E5,5.581756E3,1.4005139E4,3.757368E4,4.3699395E3,2.926451E2,1.648686E4,9.052498E2,5.8524184E4,1.9085365E1,1.1447232E1,9.839742E0,4.826809E5,4.8262793E3,5.5477466E3,3.4009304E1,7.8839434E3,6.1211953E3,3.4826652E4,2.747026E3,9.9796425E1,4.2701426E3,1.53967295E4,1.0901296E3,8.507369E2,5.451299E1,3.62419E0,1.5461175E1,8.653963E0,1.1857781E0,4.8048828E5,2.1926274E3,3.2802273E3,1.5460521E3,2.1499401E1,1.2509904E1,6.785259E3,1.0986843E3,1.2484052E3,3.357825E4,1.3198812E3,1.4271448E3,7.4418495E1,2.537793E1,4.268949E3,1.1934967E0,1.5389793E4,6.936638E0,1.3140277E2,9.587268E2,8.470255E2,3.7113512E0],"tree_param":{"num_deleted":"0","num_feature":"78","num_nodes":"65","size_leaf_vector":"1"}},{"base_weights":[-3.1203846E-4,-4.9104723E-1,1.4318188E0,1.3963964E0,-5.9207976E-2,2.245372E0,5.4060984E-1,-5.9277732E-2,2.1765516E0,2.2471707E0,-5.8083113E-2,1.9078288E0,-5.932715E-2,2.2081633E0,-5.9593767E-2,-5.569845E-2,2.2477043E0,-5.9530985E-2,2.0856338E0,-5.936894E-2,2.2249517E0,2.2478933E0,-5.0613172E-2,2.1670508E0,-6.1077643E-2,-5.8832046E-2,2.2341554E-1,2.1131375E-1,2.249441E-1,2.2116183E-1,-5.98274E-2],"categories":[],"categories_nodes":[],"categories_segments":[],"categories_sizes":[],"default_left":[0,0,0,0,0,0,0,0,0,0,0,0,0,0,0,0,0,0,0,0,0,0,0,0,0,0,0,0,0,0,0],"id":7,"left_children":[1,3,5,7,-1,9,11,-1,13,15,-1,17,-1,19,-1,-1,21,-1,23,-1,25,27,-1,29,-1,-1,-1,-1,-1,-1,-1],"loss_changes":[4.3987622E5,8.889418E4,1.15813625E5,3.6757777E4,0E0,4.2578125E2,1.1817842E5,0E0,1.4923906E3,1.261875E2,0E0,1.5382664E4,0E0,7.9259375E2,0E0,0E0,4.4625E1,0E0,7.085172E3,0E0,4.3428125E2,1.265625E1,0E0,3.8615938E3,0E0,0E0,0E0,0E0,0E0,0E0,0E0],"parents":[2147483647,0,0,1,1,2,2,3,3,5,5,6,6,8,8,9,9,11,11,13,13,16,16,18,18,20,20,21,21,23,23],"right_children":[2,4,6,8,-1,10,12,-1,14,16,-1,18,-1,20,-1,-1,22,-1,24,-1,26,28,-1,30,-1,-1,-1,-1,-1,-1,-1],"split_conditions":[8.08E3,2.4E1,8.081E3,1.761E3,-5.9207976E-2,4E1,2.4E1,-5.9277732E-2,5.101E3,1.2960784E-1,-5.8083113E-2,2.37E2,-5.932715E-2,2.37E2,-5.9593767E-2,-5.569845E-2,4.5E1,-5.9530985E-2,2.57E2,-5.936894E-2,8.833333E0,4.724E3,-5.0613172E-2,5.4048E4,-6.1077643E-2,-5.8832046E-2,2.2341554E-1,2.1131375E-1,2.249441E-1,2.2116183E-1,-5.98274E-2],"split_indices":[0,34,0,0,0,69,34,0,0,37,0,66,0,66,0,0,12,0,67,0,52,66,0,0,0,0,0,0,0,0,0],"split_type":[0,0,0,0,0,0,0,0,0,0,0,0,0,0,0,0,0,0,0,0,0,0,0,0,0,0,0,0,0,0,0],"sum_hessian":[6.258916E5,4.6615812E5,1.5973348E5,2.3684377E4,4.4247375E5,8.350406E4,7.622943E4,6.672258E3,1.701212E4,8.3451164E4,5.2902744E1,3.455853E4,4.1670895E4,1.6820537E4,1.9158247E2,1.5680786E1,8.3435484E4,2.2918271E3,3.2266703E4,9.9983246E1,1.6720555E4,8.342994E4,5.54439E0,3.132117E4,9.4553406E2,5.4318073E1,1.6666236E4,9.6271875E2,8.246722E4,3.0824584E4,4.9658612E2],"tree_param":{"num_deleted":"0","num_feature":"78","num_nodes":"31","size_leaf_vector":"1"}},{"base_weights":[-2.2231546E-4,-3.4238365E-1,2.2308238E0,1.1204451E0,-5.6636816E-1,2.2443738E0,-5.830205E-1,1.8530004E0,-3.7854964E-1,-5.827076E-1,1.587177E0,-5.931632E-2,2.248663E0,-5.9222573E-1,5.5900437E-1,2.1165595E0,-5.9717186E-2,-5.6863254E-1,1.5302114E0,-5.8558375E-1,2.761614E-1,2.2453043E0,-5.9714574E-2,2.2505534E0,1.214953E0,-5.9533615E-2,2.7475128E-2,1.2639056E-1,-3.4854174E-2,2.1913152E0,1.0272086E0,-5.801784E-1,2.1396396E0,2.1621084E0,-5.9214395E-2,-5.8597594E-1,2.1928566E0,2.2313707E0,-3.819629E-1,-4.562397E-2,2.2487352E0,2.2506236E-1,9.2114043E-1,-4.054682E-1,2.2899286E-1,-5.7706643E-2,2.2151008E-1,-5.3138316E-2,2.2763868E-1,-5.8423232E-2,2.1115122E-2,2.316097E-1,-5.0486475E-2,2.1999E-1,-5.664745E-2,-5.87033E-2,-2.9545933E-2,2.3290709E-2,2.2256266E-1,2.2492754E-1,-4.2609323E-2,2.7016512E-1,-4.4177026E-2,2.249928E-1,-3.1862166E-2,-4.101045E-2,1.786037E-1,1.880993E-1,-5.829203E-2],"categories":[],"categories_nodes":[],"categories_segments":[],"categories_sizes":[],"default_left":[0,0,0,0,0,0,0,0,0,0,0,0,0,0,0,0,0,0,0,0,0,0,0,0,0,0,0,0,0,0,0,0,0,0,0,0,0,0,0,0,0,0,0,0,0,0,0,0,0,0,0,0,0,0,0,0,0,0,0,0,0,0,0,0,0,0,0,0,0],"id":8,"left_children":[1,3,5,7,9,11,13,15,17,19,21,-1,23,25,27,29,-1,31,33,35,37,39,-1,41,43,-1,-1,-1,-1,45,47,49,51,53,-1,55,57,59,61,-1,63,-1,65,67,-1,-1,-1,-1,-1,-1,-1,-1,-1,-1,-1,-1,-1,-1,-1,-1,-1,-1,-1,-1,-1,-1,-1,-1,-1],"loss_changes":[4.7776878E5,1.7779733E5,3.174375E3,7.9124234E4,1.6559734E4,1.00934375E3,4.5321503E0,3.1257375E4,8.583269E3,1.1538906E3,5.0958037E3,0E0,1.5884375E2,1.2338867E0,2.8138094E0,3.5565469E3,0E0,6.73938E2,2.8746816E3,5.0854688E2,2.0075483E3,2.6270508E1,0E0,5.65625E0,2.6765628E2,0E0,0E0,0E0,0E0,2.6940312E3,5.46874E3,6.884668E1,4.3884735E1,1.7151465E2,0E0,1.4275E2,3.7149658E0,1.9651978E1,2.1652676E2,0E0,9.045898E0,0E0,7.701392E0,2.6218967E1,0E0,0E0,0E0,0E0,0E0,0E0,0E0,0E0,0E0,0E0,0E0,0E0,0E0,0E0,0E0,0E0,0E0,0E0,0E0,0E0,0E0,0E0,0E0,0E0,0E0],"parents":[2147483647,0,0,1,1,2,2,3,3,4,4,5,5,6,6,7,7,8,8,9,9,10,10,12,12,13,13,14,14,15,15,17,17,18,18,19,19,20,20,21,21,23,23,24,24,29,29,30,30,31,31,32,32,33,33,35,35,36,36,37,37,38,38,40,40,42,42,43,43],"right_children":[2,4,6,8,10,12,14,16,18,20,22,-1,24,26,28,30,-1,32,34,36,38,40,-1,42,44,-1,-1,-1,-1,46,48,50,52,54,-1,56,58,60,62,-1,64,-1,66,68,-1,-1,-1,-1,-1,-1,-1,-1,-1,-1,-1,-1,-1,-1,-1,-1,-1,-1,-1,-1,-1,-1,-1,-1,-1],"split_conditions":[1.5251705E3,8.345621E-2,2.43E2,7.75E0,1E0,2.29E2,3.832E3,8.1E1,0E0,1.0938329E3,8.1E1,-5.931632E-2,2.5330838E2,1E2,3.51E2,5.31E2,-5.9717186E-2,3.56E2,8.1E1,1.983E3,1.767767E1,1.54E2,-5.9714574E-2,8.1E1,5.097005E6,-5.9533615E-2,2.7475128E-2,1.2639056E-1,-3.4854174E-2,6.4E1,6.901036E5,1.87E2,8.1E1,3.0016E4,-5.9214395E-2,9.3351996E2,1.7467248E4,1.76E2,3.62E2,-4.562397E-2,2.36E2,2.2506236E-1,4.44E2,5.028865E6,2.2899286E-1,-5.7706643E-2,2.2151008E-1,-5.3138316E-2,2.2763868E-1,-5.8423232E-2,2.1115122E-2,2.316097E-1,-5.0486475E-2,2.1999E-1,-5.664745E-2,-5.87033E-2,-2.9545933E-2,2.3290709E-2,2.2256266E-1,2.2492754E-1,-4.2609323E-2,2.7016512E-1,-4.4177026E-2,2.249928E-1,-3.1862166E-2,-4.101045E-2,1.786037E-1,1.880993E-1,-5.829203E-2],"split_indices":[13,37,67,52,43,67,4,0,67,13,0,0,9,19,67,66,0,7,0,7,9,67,0,0,1,0,0,0,0,34,17,7,0,66,0,13,15,35,66,0,67,0,0,1,0,0,0,0,0,0,0,0,0,0,0,0,0,0,0,0,0,0,0,0,0,0,0,0,0],"split_type":[0,0,0,0,0,0,0,0,0,0,0,0,0,0,0,0,0,0,0,0,0,0,0,0,0,0,0,0,0,0,0,0,0,0,0,0,0,0,0,0,0,0,0,0,0,0,0,0,0,0,0,0,0,0,0,0,0,0,0,0,0,0,0,0,0,0,0,0,0],"sum_hessian":[6.258596E5,5.426394E5,8.32203E4,7.2054164E4,4.705852E5,8.282167E4,3.9862354E2,4.840065E4,2.365352E4,4.6704234E5,3.5428188E3,1.2479846E2,8.2696875E4,3.9591373E2,2.7098212E0,4.370007E4,4.7005767E3,2.1511965E4,2.141555E3,4.6548388E5,1.5584822E3,2.72251E3,8.2030884E2,8.254475E4,1.5212344E2,3.948106E2,1.1031064E0,1.304184E0,1.4056371E0,4.089283E4,2.8072417E3,2.1421428E4,9.0537865E1,1.6502122E3,4.9134265E2,4.6541897E5,6.491168E1,3.918756E2,1.1666066E3,3.2858028E0,2.7192244E3,8.2539695E4,5.052628E0,6.091812E1,9.120532E1,3.481535E2,4.0544676E4,1.2491989E3,1.558043E3,2.1312506E4,1.08921684E2,8.499094E1,5.5469284E0,1.6278596E3,2.2352571E1,4.6373075E5,1.6882162E3,1.2007856E0,6.37109E1,3.8940558E2,2.4700274E0,2.135565E1,1.145251E3,2.7180852E3,1.1391394E0,2.196941E0,2.8556874E0,3.695954E0,5.7222168E1],"tree_param":{"num_deleted":"0","num_feature":"78","num_nodes":"69","size_leaf_vector":"1"}},{"base_weights":[-3.2501918E-4,2.206459E0,-5.921614E-2,2.2337477E0,-5.9206676E-2,-4.9433538E-1,2.2406948E0,-5.9490215E-2,2.1209608E-1,2.2434013E0,-5.8708142E-2,2.2458682E0,-5.944233E-2,2.246844E-1,-6.284166E-2],"categories":[],"categories_nodes":[],"categories_segments":[],"categories_sizes":[],"default_left":[0,0,0,0,0,0,0,0,0,0,0,0,0,0,0],"id":9,"left_children":[1,3,-1,5,-1,7,9,-1,-1,11,-1,13,-1,-1,-1],"loss_changes":[8.174558E5,1.01094375E4,0E0,2.4854375E3,0E0,8.904889E1,1.002E3,0E0,0E0,9.158125E2,0E0,3.675E2,0E0,0E0,0E0],"parents":[2147483647,0,0,1,1,3,3,5,5,6,6,9,9,11,11],"right_children":[2,4,-1,6,-1,8,10,-1,-1,12,-1,14,-1,-1,-1],"split_conditions":[2.3E1,2E0,-5.921614E-2,2.8E1,-5.9206676E-2,2.47E2,2.94E2,-5.9490215E-2,2.1209608E-1,3.4E1,-5.8708142E-2,3.061E3,-5.944233E-2,2.246844E-1,-6.284166E-2],"split_indices":[0,11,0,69,0,67,67,0,0,2,0,29,0,0,0],"split_type":[0,0,0,0,0,0,0,0,0,0,0,0,0,0,0],"sum_hessian":[6.258949E5,1.3236011E5,4.9353475E5,1.3108212E5,1.2779843E3,3.327763E2,1.3074935E5,3.2119772E2,1.1578582E1,1.3062454E5,1.2481756E2,1.3051129E5,1.1324413E2,1.3046721E5,4.4082996E1],"tree_param":{"num_deleted":"0","num_feature":"78","num_nodes":"15","size_leaf_vector":"1"}},{"base_weights":[-3.3951114E-4,-5.7257545E-1,1.1451045E0,-5.7899415E-1,4.362407E-2,-5.9228994E-2,2.2179706E0,-3.1364813E-1,-5.8495176E-1,-5.9085526E-2,2.0153205E0,2.2496557E-1,-5.9905034E-2,-5.9089786E-1,2.2477332E-1,-5.8766574E-1,-2.2783794E-1,2.1646261E0,-5.838522E-2,-5.9269704E-2,1.0772852E0,-5.909505E-1,-5.532359E-1,-5.917836E-2,1.6900308E0,-5.730638E-2,2.2416418E0,-4.292606E-2,1.755337E-1,-5.912295E-2,-5.605619E-2,-5.8453567E-2,2.2445743E-1,2.2940771E-1,-5.8727015E-2,2.2468685E-1,-3.8012486E-2],"categories":[],"categories_nodes":[],"categories_segments":[],"categories_sizes":[],"default_left":[0,0,0,0,0,0,0,0,0,0,0,0,0,0,0,0,0,0,0,0,0,0,0,0,0,0,0,0,0,0,0,0,0,0,0,0,0],"id":10,"left_children":[1,3,5,7,9,-1,11,13,15,-1,17,-1,-1,19,-1,21,23,25,-1,-1,27,29,31,-1,33,-1,35,-1,-1,-1,-1,-1,-1,-1,-1,-1,-1],"loss_changes":[4.1025506E5,1.6508594E3,3.8867206E5,6.528281E2,5.3852886E3,0E0,1.15076875E4,6.444486E3,3.9145312E2,0E0,4.0796338E2,0E0,0E0,2.5212158E1,0E0,4.5015625E1,2.1291252E3,2.1029248E2,0E0,0E0,1.0126741E1,2.78125E0,3.0608008E3,0E0,6.7064624E2,0E0,1.4068359E1,0E0,0E0,0E0,0E0,0E0,0E0,0E0,0E0,0E0,0E0],"parents":[2147483647,0,0,1,1,2,2,3,3,4,4,6,6,7,7,8,8,10,10,13,13,15,15,16,16,17,17,20,20,21,21,22,22,24,24,26,26],"right_children":[2,4,6,8,10,-1,12,14,16,-1,18,-1,-1,20,-1,22,24,26,-1,-1,28,30,32,-1,34,-1,36,-1,-1,-1,-1,-1,-1,-1,-1,-1,-1],"split_conditions":[9.950249E3,4E1,1E0,3.2E1,0E0,-5.9228994E-2,2E0,1E0,2.92E4,-5.9085526E-2,9.88E2,2.2496557E-1,-5.9905034E-2,3.8232E4,2.2477332E-1,1.4349261E2,2E0,2E0,-5.838522E-2,-5.9269704E-2,8.49971E5,1.30317E6,2.896E4,-5.917836E-2,6E0,-5.730638E-2,4.4E1,-4.292606E-2,1.755337E-1,-5.912295E-2,-5.605619E-2,-5.8453567E-2,2.2445743E-1,2.2940771E-1,-5.8727015E-2,2.2468685E-1,-3.8012486E-2],"split_indices":[37,69,46,34,67,0,2,46,67,0,19,0,0,24,0,37,38,11,0,0,73,29,67,0,5,0,69,0,0,0,0,0,0,0,0,0,0],"split_type":[0,0,0,0,0,0,0,0,0,0,0,0,0,0,0,0,0,0,0,0,0,0,0,0,0,0,0,0,0,0,0,0,0,0,0,0,0],"sum_hessian":[6.25898E5,4.1738375E5,2.0851425E5,4.130809E5,4.302833E3,7.960413E4,1.2891012E5,9.072052E3,4.0400888E5,3.2558284E3,1.0470044E3,1.274765E5,1.4336188E3,8.1866763E3,8.8537524E2,4.0096097E5,3.0478901E3,9.9028613E2,5.671825E1,8.1785005E3,8.175815E0,3.6602462E5,3.4936344E4,2.5623376E3,4.8555228E2,2.6919909E1,9.633662E2,2.6514804E0,5.5243344E0,3.6267612E5,3.3484954E3,3.455061E4,3.857345E2,3.8375513E2,1.0179713E2,9.615922E2,1.7739674E0],"tree_param":{"num_deleted":"0","num_feature":"78","num_nodes":"37","size_leaf_vector":"1"}},{"base_weights":[-1.3472447E-4,-4.680489E-1,2.1095285E0,-4.9687043E-1,2.1549847E0,2.229556E0,-5.9155047E-2,-7.2914116E-2,-5.5491537E-1,2.2484999E0,-5.900851E-2,-5.914527E-2,2.2404258E0,-2.5668344E-1,1.903342E0,-5.8959746E-1,1.5405054E-1,2.2504187E-1,-4.6691217E-2,2.2471185E0,-5.9724428E-2,9.8207146E-1,-4.5879087E-1,2.2191265E0,-5.9646506E-2,-5.915978E-1,-4.1586456E-1,-5.022088E-1,1.5222086E0,2.2491663E0,-5.8574524E-2,-6.0124565E-2,1.833309E-1,-5.2418083E-2,2.5058722E-2,-5.847146E-2,2.2489181E-1,-5.9210707E-2,-5.60192E-2,-5.421857E-2,5.326311E-2,-5.5994064E-2,5.5388547E-3,1.9375531E-1,-6.0819577E-2,2.249444E-1,-5.824092E-2],"categories":[],"categories_nodes":[],"categories_segments":[],"categories_sizes":[],"default_left":[0,0,0,0,0,0,0,0,0,0,0,0,0,0,0,0,0,0,0,0,0,0,0,0,0,0,0,0,0,0,0,0,0,0,0,0,0,0,0,0,0,0,0,0,0,0,0],"id":11,"left_children":[1,3,5,7,9,11,-1,13,15,17,-1,-1,19,21,23,25,27,-1,-1,29,-1,31,33,35,-1,37,39,41,43,45,-1,-1,-1,-1,-1,-1,-1,-1,-1,-1,-1,-1,-1,-1,-1,-1,-1],"loss_changes":[6.177868E5,3.872517E4,3.6833938E4,1.2468094E4,1.4304766E3,3.336875E3,0E0,2.2159793E4,1.0957781E4,2.9103516E1,0E0,0E0,2.05925E3,1.397696E4,4.0992207E3,1.4739062E2,1.8662613E4,0E0,0E0,6.284375E2,0E0,1.0555346E4,2.226458E3,3.8632422E2,0E0,6.375E0,5.8013336E2,4.5223853E2,5.9633555E3,8.6375E1,0E0,0E0,0E0,0E0,0E0,0E0,0E0,0E0,0E0,0E0,0E0,0E0,0E0,0E0,0E0,0E0,0E0],"parents":[2147483647,0,0,1,1,2,2,3,3,4,4,5,5,7,7,8,8,9,9,12,12,13,13,14,14,15,15,16,16,19,19,21,21,22,22,23,23,25,25,26,26,27,27,28,28,29,29],"right_children":[2,4,6,8,10,12,-1,14,16,18,-1,-1,20,22,24,26,28,-1,-1,30,-1,32,34,36,-1,38,40,42,44,46,-1,-1,-1,-1,-1,-1,-1,-1,-1,-1,-1,-1,-1,-1,-1,-1,-1],"split_conditions":[2.896E4,5.032E3,2.92E4,1E0,1.15E2,4.1E2,-5.9155047E-2,1.048E3,1.915E2,8.1E1,-5.900851E-2,-5.914527E-2,2.3152E4,2.51E2,1.196E3,1.7469362E2,8.27E2,2.2504187E-1,-4.6691217E-2,2E0,-5.9724428E-2,2.37E2,1.439E3,1.439E3,-5.9646506E-2,1.5568358E2,8.27E2,1.1632E4,6.05E2,4E0,-5.8574524E-2,-6.0124565E-2,1.833309E-1,-5.2418083E-2,2.5058722E-2,-5.847146E-2,2.2489181E-1,-5.9210707E-2,-5.60192E-2,-5.421857E-2,5.326311E-2,-5.5994064E-2,5.5388547E-3,1.9375531E-1,-6.0819577E-2,2.249444E-1,-5.824092E-2],"split_indices":[67,34,67,39,3,24,0,67,9,0,0,0,24,66,67,9,29,0,0,3,0,66,66,66,0,9,29,5,6,2,0,0,0,0,0,0,0,0,0,0,0,0,0,0,0,0,0],"split_type":[0,0,0,0,0,0,0,0,0,0,0,0,0,0,0,0,0,0,0,0,0,0,0,0,0,0,0,0,0,0,0,0,0,0,0,0,0,0,0,0,0,0,0,0,0,0,0],"sum_hessian":[6.2583225E5,5.1222394E5,1.1360827E5,5.066577E5,5.566274E3,1.0877483E5,4.833446E3,6.1014457E4,4.4564322E5,5.383072E3,1.8320192E2,4.1731314E2,1.08357516E5,5.58243E4,5.1901543E3,4.2485956E5,2.0783654E4,5.379442E3,3.629931E0,1.0810277E5,2.5474815E2,7.8298433E3,4.7994457E4,4.6081494E3,5.8200525E2,4.2002106E5,4.8384956E3,1.40466045E4,6.737051E3,1.0802489E5,7.787859E1,2.737793E3,5.0920503E3,4.3943996E4,4.0504631E3,4.82524E1,4.559897E3,4.1330106E5,6.7200054E3,4.2702144E3,5.6828107E2,1.2728711E4,1.3178934E3,5.637962E3,1.0990887E3,1.0801449E5,1.0395241E1],"tree_param":{"num_deleted":"0","num_feature":"78","num_nodes":"47","size_leaf_vector":"1"}},{"base_weights":[2.3939582E-3,-2.1953267E-1,1.8130567E0,-2.909865E-1,1.328888E0,-4.91987E-2,1.8133065E0,-3.8524252E-1,5.4190195E-1,-3.3903223E-1,1.7048172E0,1.8136432E0,7.9305756E-1,-4.1555315E-1,1.8166354E0,2.0165765E0,-1.264389E-1,-5.159689E-1,1.8271312E-1,1.8004519E0,-3.9385617E-1,1.8139255E-1,1.5821439E0,1.7396659E-1,-5.089194E-1,-4.3748823E-1,9.848106E-1,1.8238553E-1,4.7136515E-1,2.1621227E0,1.8173973E-1,-3.3427972E-1,2.0049877E0,1.6624589E0,-5.7786334E-1,1.8155725E0,1.5812174E0,-5.6783783E-1,1.8006238E-1,-2.3897447E-2,1.8141161E-1,-5.3907223E-2,-1.4829235E-2,-4.4803876E-2,1.5129909E-1,1.9822139E-1,-6.55322E-3,-5.0081164E-2,1.8079773E-1,2.214392E-1,1.8152307E-1,2.0155238E-1,-4.4319775E-2,2.2010075E-1,1.8098313E-1,1.8349701E-1,2.7774155E-2,-5.7882752E-2,1.3709867E-1,1.816061E-1,5.4284703E-2,1.8162926E-1,-4.5201354E-2,-5.8133822E-2,1.6026011E-1,-3.6704138E-2,1.284594E-1],"categories":[],"categories_nodes":[],"categories_segments":[],"categories_sizes":[],"default_left":[0,0,0,0,0,0,0,0,0,0,0,0,0,0,0,0,0,0,0,0,0,0,0,0,0,0,0,0,0,0,0,0,0,0,0,0,0,0,0,0,0,0,0,0,0,0,0,0,0,0,0,0,0,0,0,0,0,0,0,0,0,0,0,0,0,0,0],"id":12,"left_children":[1,3,5,7,9,-1,11,13,15,17,19,21,23,25,27,29,31,33,-1,35,37,-1,39,-1,41,43,45,-1,47,49,-1,51,53,55,57,59,61,63,-1,65,-1,-1,-1,-1,-1,-1,-1,-1,-1,-1,-1,-1,-1,-1,-1,-1,-1,-1,-1,-1,-1,-1,-1,-1,-1,-1,-1],"loss_changes":[2.4858267E5,6.0971812E4,3.978125E1,4.1354055E4,1.5242527E4,0E0,2.175E1,3.1583375E4,5.278146E4,1.7149257E3,3.9822344E3,1.546875E0,3.0546772E1,1.433893E4,6.1554688E1,4.802578E2,1.6326239E4,5.584983E2,0E0,6.001953E1,3.3143317E2,0E0,3.358313E1,0E0,3.8642883E-2,9.458477E3,7.54223E3,0E0,4.7232174E1,1.7085547E2,0E0,8.594986E3,1.212793E2,2.6841705E1,8.350098E0,1.0042969E1,5.8962085E2,2.4449066E1,0E0,6.016214E0,0E0,0E0,0E0,0E0,0E0,0E0,0E0,0E0,0E0,0E0,0E0,0E0,0E0,0E0,0E0,0E0,0E0,0E0,0E0,0E0,0E0,0E0,0E0,0E0,0E0,0E0,0E0],"parents":[2147483647,0,0,1,1,2,2,3,3,4,4,6,6,7,7,8,8,9,9,10,10,11,11,12,12,13,13,14,14,15,15,16,16,17,17,19,19,20,20,22,22,24,24,25,25,26,26,28,28,29,29,31,31,32,32,33,33,34,34,35,35,36,36,37,37,39,39],"right_children":[2,4,6,8,10,-1,12,14,16,18,20,22,24,26,28,30,32,34,-1,36,38,-1,40,-1,42,44,46,-1,48,50,-1,52,54,56,58,60,62,64,-1,66,-1,-1,-1,-1,-1,-1,-1,-1,-1,-1,-1,-1,-1,-1,-1,-1,-1,-1,-1,-1,-1,-1,-1,-1,-1,-1,-1],"split_conditions":[1.1E1,1.701E4,1.8E1,3.2771E4,8.345621E-2,-4.91987E-2,1.23E7,3.0016E4,4E0,8.1E1,1.5251705E3,1.375E3,1.375E3,9.88E2,4E1,5.4048E4,5.7735026E-1,1.36E2,1.8271312E-1,8.08E3,8.1E1,1.8139255E-1,8.1E1,1.7396659E-1,9.2E1,2.92E4,6.4E1,1.8238553E-1,4.4E1,2.92E4,1.8173973E-1,2.37E2,5.4048E4,1E0,3.0016E4,2.85E7,2.92E4,1.3E1,1.8006238E-1,2E0,1.8141161E-1,-5.3907223E-2,-1.4829235E-2,-4.4803876E-2,1.5129909E-1,1.9822139E-1,-6.55322E-3,-5.0081164E-2,1.8079773E-1,2.214392E-1,1.8152307E-1,2.0155238E-1,-4.4319775E-2,2.2010075E-1,1.8098313E-1,1.8349701E-1,2.7774155E-2,-5.7882752E-2,1.3709867E-1,1.816061E-1,5.4284703E-2,1.8162926E-1,-4.5201354E-2,-5.8133822E-2,1.6026011E-1,-3.6704138E-2,1.284594E-1],"split_indices":[11,72,5,0,37,0,14,66,11,0,13,12,12,19,69,0,17,34,0,0,0,0,0,0,18,67,34,0,34,67,0,66,0,47,66,22,66,3,0,3,0,0,0,0,0,0,0,0,0,0,0,0,0,0,0,0,0,0,0,0,0,0,0,0,0,0,0],"split_type":[0,0,0,0,0,0,0,0,0,0,0,0,0,0,0,0,0,0,0,0,0,0,0,0,0,0,0,0,0,0,0,0,0,0,0,0,0,0,0,0,0,0,0,0,0,0,0,0,0,0,0,0,0,0,0,0,0,0,0,0,0,0,0,0,0,0,0],"sum_hessian":[6.186179E5,5.510754E5,6.754251E4,5.267678E5,2.4307559E4,7.1014724E0,6.753541E4,4.732157E5,5.3552156E4,4.470954E3,1.9836604E4,6.751234E4,2.3066795E1,4.6679072E5,6.4249404E3,1.6700648E4,3.6851508E4,4.134039E3,3.3691504E2,1.89722E4,8.6440436E2,6.742331E4,8.9026024E1,1.3161497E1,9.905299E0,4.5959244E5,7.1983022E3,6.3902886E3,3.4651756E1,9.643786E3,7.056862E3,3.357807E4,3.2734395E3,1.1349856E2,4.0205408E3,1.7741303E4,1.2308971E3,8.01594E2,6.2810337E1,1.1349008E1,7.767702E1,8.684361E0,1.2209373E0,4.5712053E5,2.471886E3,3.6917432E3,3.5065588E3,2.0422724E1,1.4229033E1,8.376278E3,1.2675079E3,1.4866877E3,3.209138E4,1.6279802E3,1.6454594E3,1.0063594E2,1.2862615E1,4.0192551E3,1.2854968E0,1.7734068E4,7.233711E0,1.1034291E3,1.2746797E2,7.9736646E2,4.227552E0,9.561148E0,1.7878602E0],"tree_param":{"num_deleted":"0","num_feature":"78","num_nodes":"67","size_leaf_vector":"1"}},{"base_weights":[-5.900212E-4,-4.814141E-1,1.2213678E0,1.1906239E0,-5.849406E-2,1.8177897E0,4.8964655E-1,-5.8621157E-2,1.7663668E0,1.8190356E0,-5.7291307E-2,1.5715195E0,-5.8587044E-2,1.7895955E0,-5.9493333E-2,-5.4974414E-2,1.8194093E0,-5.8853623E-2,1.6988561E0,-5.9332933E-2,1.8019702E0,1.8195459E0,-5.0277997E-2,1.7585622E0,-6.0832113E-2,-5.8726527E-2,1.8087095E-1,2.0973161E-1,1.8190193E-1,-6.2164873E-2,1.7930351E-1],"categories":[],"categories_nodes":[],"categories_segments":[],"categories_sizes":[],"default_left":[0,0,0,0,0,0,0,0,0,0,0,0,0,0,0,0,0,0,0,0,0,0,0,0,0,0,0,0,0,0,0],"id":13,"left_children":[1,3,5,7,-1,9,11,-1,13,15,-1,17,-1,19,-1,-1,21,-1,23,-1,25,27,-1,29,-1,-1,-1,-1,-1,-1,-1],"loss_changes":[3.633536E5,7.682203E4,7.620939E4,2.647266E4,0E0,2.87625E2,9.124906E4,0E0,1.0730469E3,8.609375E1,0E0,1.0754273E4,0E0,5.7177734E2,0E0,0E0,3.140625E1,0E0,5.08675E3,0E0,3.1107812E2,1.025E1,0E0,2.9540312E3,0E0,0E0,0E0,0E0,0E0,0E0,0E0],"parents":[2147483647,0,0,1,1,2,2,3,3,5,5,6,6,8,8,9,9,11,11,13,13,16,16,18,18,20,20,21,21,23,23],"right_children":[2,4,6,8,-1,10,12,-1,14,16,-1,18,-1,20,-1,-1,22,-1,24,-1,26,28,-1,30,-1,-1,-1,-1,-1,-1,-1],"split_conditions":[8.08E3,2.4E1,8.081E3,1.761E3,-5.849406E-2,4E1,2.4E1,-5.8621157E-2,5.101E3,1.2960784E-1,-5.7291307E-2,2.37E2,-5.8587044E-2,2.37E2,-5.9493333E-2,-5.4974414E-2,4.5E1,-5.8853623E-2,2.57E2,-5.9332933E-2,8.833333E0,2.51E2,-5.0277997E-2,2.56E2,-6.0832113E-2,-5.8726527E-2,1.8087095E-1,2.0973161E-1,1.8190193E-1,-6.2164873E-2,1.7930351E-1],"split_indices":[0,34,0,0,0,69,34,0,0,37,0,66,0,66,0,0,12,0,67,0,52,66,0,67,0,0,0,0,0,0,0],"split_type":[0,0,0,0,0,0,0,0,0,0,0,0,0,0,0,0,0,0,0,0,0,0,0,0,0,0,0,0,0,0,0],"sum_hessian":[6.18423E5,4.4379584E5,1.7462714E5,2.5875457E4,4.179204E5,9.620748E4,7.841966E4,6.3324575E3,1.9543E4,9.61576E4,4.987405E1,3.9094082E4,3.9325574E4,1.9352863E4,1.9013588E2,1.4931034E1,9.614267E4,2.176123E3,3.6917957E4,9.973991E1,1.9253123E4,9.6137234E4,5.4403243E0,3.598691E4,9.310463E2,5.3911377E1,1.9199213E4,1.7435818E2,9.5962875E4,5.135202E2,3.547339E4],"tree_param":{"num_deleted":"0","num_feature":"78","num_nodes":"31","size_leaf_vector":"1"}},{"base_weights":[-3.8462173E-4,-3.3176863E-1,1.8070916E0,9.6993417E-1,-5.5822605E-1,1.8168546E0,-5.7999706E-1,1.4666723E0,-5.7131535E-1,-5.750547E-1,1.3261635E0,-5.9131175E-2,1.8199682E0,-5.8929306E-1,5.1643044E-1,1.6621248E0,-5.8949914E-2,1.7525059E0,-5.8817923E-1,-5.7802176E-1,2.3975511E-1,1.817523E0,-5.9432365E-2,1.821254E0,1.0639284E0,-5.9246134E-2,2.7071318E-2,1.137444E-1,-3.4309763E-2,-5.937204E-1,1.7261776E0,1.8155031E-1,-4.618569E-2,-5.069152E-1,-5.887965E-1,-5.784269E-1,1.7843223E0,1.8122163E0,-3.775679E-1,-4.4870205E-2,1.8199568E0,1.821302E-1,8.221163E-1,-3.953402E-1,1.878543E-1,-5.8421265E-2,-6.358047E-2,-4.732972E-2,1.7611587E-1,-5.480984E-2,1.8547876E-1,-5.960371E-2,-5.8568865E-2,-5.789038E-2,1.1673909E-2,2.190011E-2,1.8072818E-1,1.8253371E-1,-4.2416483E-2,-4.5296382E-2,2.0382479E-1,1.8208186E-1,-3.144902E-2,-4.050345E-2,1.5374732E-1,1.6041596E-1,-5.7608735E-2],"categories":[],"categories_nodes":[],"categories_segments":[],"categories_sizes":[],"default_left":[0,0,0,0,0,0,0,0,0,0,0,0,0,0,0,0,0,0,0,0,0,0,0,0,0,0,0,0,0,0,0,0,0,0,0,0,0,0,0,0,0,0,0,0,0,0,0,0,0,0,0,0,0,0,0,0,0,0,0,0,0,0,0,0,0,0,0],"id":14,"left_children":[1,3,5,7,9,11,13,15,17,19,21,-1,23,25,27,29,-1,31,33,35,37,39,-1,41,43,-1,-1,-1,-1,45,47,-1,-1,49,51,53,55,57,59,-1,61,-1,63,65,-1,-1,-1,-1,-1,-1,-1,-1,-1,-1,-1,-1,-1,-1,-1,-1,-1,-1,-1,-1,-1,-1,-1],"loss_changes":[3.70403E5,1.5404956E5,2.2339688E3,5.9290742E4,1.41171875E4,7.1653125E2,4.2898254E0,2.3538156E4,7.4077686E2,1.0668125E3,3.7195679E3,0E0,9.06875E1,1.2181091E0,2.429484E0,7.7290312E3,0E0,1.9845306E1,6.4160156E-1,4.2176562E2,1.5552855E3,1.8125E1,0E0,3.03125E0,1.9593332E2,0E0,0E0,0E0,0E0,2.1972656E-1,4.0022656E3,0E0,0E0,1.5457832E1,6.982422E-2,1.4576562E2,2.3221283E0,1.4027222E1,2.1054156E2,0E0,6.338867E0,0E0,6.2329283E0,2.248198E1,0E0,0E0,0E0,0E0,0E0,0E0,0E0,0E0,0E0,0E0,0E0,0E0,0E0,0E0,0E0,0E0,0E0,0E0,0E0,0E0,0E0,0E0,0E0],"parents":[2147483647,0,0,1,1,2,2,3,3,4,4,5,5,6,6,7,7,8,8,9,9,10,10,12,12,13,13,14,14,15,15,17,17,18,18,19,19,20,20,21,21,23,23,24,24,29,29,30,30,33,33,34,34,35,35,36,36,37,37,38,38,40,40,42,42,43,43],"right_children":[2,4,6,8,10,12,14,16,18,20,22,-1,24,26,28,30,-1,32,34,36,38,40,-1,42,44,-1,-1,-1,-1,46,48,-1,-1,50,52,54,56,58,60,-1,62,-1,64,66,-1,-1,-1,-1,-1,-1,-1,-1,-1,-1,-1,-1,-1,-1,-1,-1,-1,-1,-1,-1,-1,-1,-1],"split_conditions":[1.5251705E3,8.345621E-2,2.43E2,6.3798086E3,1E0,2.29E2,3.832E3,8.1E1,3E0,1.0938329E3,8.1E1,-5.9131175E-2,2.5330838E2,1E2,3.51E2,7E1,-5.8949914E-2,8.1E1,1.3029316E4,1.983E3,1.767767E1,1.54E2,-5.9432365E-2,8.1E1,5.097005E6,-5.9246134E-2,2.7071318E-2,1.137444E-1,-3.4309763E-2,0E0,6E1,1.8155031E-1,-4.618569E-2,1E0,3.2863352E0,2.16E2,1.7467248E4,1.76E2,2E0,-4.4870205E-2,2.36E2,1.821302E-1,4.44E2,5.028865E6,1.878543E-1,-5.8421265E-2,-6.358047E-2,-4.732972E-2,1.7611587E-1,-5.480984E-2,1.8547876E-1,-5.960371E-2,-5.8568865E-2,-5.789038E-2,1.1673909E-2,2.190011E-2,1.8072818E-1,1.8253371E-1,-4.2416483E-2,-4.5296382E-2,2.0382479E-1,1.8208186E-1,-3.144902E-2,-4.050345E-2,1.5374732E-1,1.6041596E-1,-5.7608735E-2],"split_indices":[13,37,67,14,43,67,4,0,52,13,0,0,9,19,67,0,0,0,14,7,9,67,0,0,1,0,0,0,0,66,34,0,0,43,9,7,15,35,51,0,67,0,0,1,0,0,0,0,0,0,0,0,0,0,0,0,0,0,0,0,0,0,0,0,0,0,0],"split_type":[0,0,0,0,0,0,0,0,0,0,0,0,0,0,0,0,0,0,0,0,0,0,0,0,0,0,0,0,0,0,0,0,0,0,0,0,0,0,0,0,0,0,0,0,0,0,0,0,0,0,0,0,0,0,0,0,0,0,0,0,0,0,0,0,0,0,0],"sum_hessian":[6.1839925E5,5.225883E5,9.5810914E4,7.744165E4,4.451467E5,9.542088E4,3.9002518E2,5.8566094E4,1.8875553E4,4.4120712E5,3.9395388E3,1.2297193E2,9.5297914E4,3.872048E2,2.820366E0,5.3482434E4,5.083661E3,1.3525067E2,1.8740303E4,4.3960662E5,1.6004989E3,3.1369893E3,8.0254956E2,9.513472E4,1.631994E2,3.8609357E2,1.111261E0,1.4496503E0,1.3707156E0,1.4764321E3,5.2006E4,1.3168445E2,3.566214E0,1.4747693E2,1.8592826E4,4.39532E5,7.462536E1,4.5065167E2,1.1498473E3,3.1686292E0,3.1338206E3,9.512933E4,5.390834E0,5.8650284E1,1.0454911E2,1.2164852E3,2.5994687E2,8.139748E2,5.1192027E4,1.4570407E2,1.7728529E0,5.526545E3,1.306628E4,4.3923088E5,3.0112186E2,1.231097E0,7.3394264E1,4.4820587E2,2.445812E0,1.1158353E3,3.4011932E1,3.1327026E3,1.1179258E0,2.145007E0,3.245827E0,4.209367E0,5.4440918E1],"tree_param":{"num_deleted":"0","num_feature":"78","num_nodes":"67","size_leaf_vector":"1"}},{"base_weights":[-5.8762357E-4,1.790466E0,-5.8502592E-2,1.8095003E0,-5.8526188E-2,-4.9396655E-1,1.8145534E0,-5.933369E-2,1.7498623E-1,1.8164287E0,-5.794186E-2,1.8182441E0,-5.9409976E-2,1.8190466E-1,-6.092834E-2],"categories":[],"categories_nodes":[],"categories_segments":[],"categories_sizes":[],"default_left":[0,0,0,0,0,0,0,0,0,0,0,0,0,0,0],"id":15,"left_children":[1,3,-1,5,-1,7,9,-1,-1,11,-1,13,-1,-1,-1],"loss_changes":[6.473057E5,6.881E3,0E0,1.7577188E3,0E0,7.487637E1,6.7715625E2,0E0,0E0,6.59625E2,0E0,2.939375E2,0E0,0E0,0E0],"parents":[2147483647,0,0,1,1,3,3,5,5,6,6,9,9,11,11],"right_children":[2,4,-1,6,-1,8,10,-1,-1,12,-1,14,-1,-1,-1],"split_conditions":[2.3E1,2E0,-5.8502592E-2,2.8E1,-5.8526188E-2,2.47E2,2.94E2,-5.933369E-2,1.7498623E-1,3.4E1,-5.794186E-2,2E0,-5.9409976E-2,1.8190466E-1,-6.092834E-2],"split_indices":[0,11,0,69,0,67,67,0,0,2,0,51,0,0,0],"split_type":[0,0,0,0,0,0,0,0,0,0,0,0,0,0,0],"sum_hessian":[6.183876E5,1.5214036E5,4.6624725E5,1.5093133E5,1.2090305E3,3.3015723E2,1.5060117E5,3.168603E2,1.3296921E1,1.5048355E5,1.1763831E2,1.5037053E5,1.1300341E2,1.5032111E5,4.9433254E1],"tree_param":{"num_deleted":"0","num_feature":"78","num_nodes":"15","size_leaf_vector":"1"}},{"base_weights":[-6.131781E-4,-5.6476647E-1,9.9569315E-1,-5.713843E-1,4.372231E-2,-5.85141E-2,1.7973022E0,-3.043877E-1,-5.7752156E-1,-5.831766E-2,1.6568193E0,1.8205164E-1,-5.980831E-2,-5.840026E-1,1.8208598E-1,-5.8033603E-1,-2.1701822E-1,1.7628385E0,-5.7620388E-2,-5.858747E-2,9.6149725E-1,-5.837452E-1,-5.4468685E-1,-5.8503E-2,1.4717723E0,-5.6458306E-2,1.8166043E0,-4.2473298E-2,1.5222423E-1,-5.840371E-2,-5.520634E-2,-5.769174E-2,1.8178193E-1,1.9272141E-1,-5.795327E-2,1.8202959E-1,-3.708708E-2],"categories":[],"categories_nodes":[],"categories_segments":[],"categories_sizes":[],"default_left":[0,0,0,0,0,0,0,0,0,0,0,0,0,0,0,0,0,0,0,0,0,0,0,0,0,0,0,0,0,0,0,0,0,0,0,0,0],"id":16,"left_children":[1,3,5,7,9,-1,11,13,15,-1,17,-1,-1,19,-1,21,23,25,-1,-1,27,29,31,-1,33,-1,35,-1,-1,-1,-1,-1,-1,-1,-1,-1,-1],"loss_changes":[3.4757428E5,1.5899062E3,2.8330397E5,6.398281E2,4.2974604E3,0E0,8.250031E3,5.217495E3,3.8727344E2,0E0,2.8258105E2,0E0,0E0,2.3009766E1,0E0,4.5710938E1,1.8400198E3,1.431377E2,0E0,0E0,8.237009E0,2.8828125E0,2.5199863E3,0E0,4.9605066E2,0E0,9.640625E0,0E0,0E0,0E0,0E0,0E0,0E0,0E0,0E0,0E0,0E0],"parents":[2147483647,0,0,1,1,2,2,3,3,4,4,6,6,7,7,8,8,10,10,13,13,15,15,16,16,17,17,20,20,21,21,22,22,24,24,26,26],"right_children":[2,4,6,8,10,-1,12,14,16,-1,18,-1,-1,20,-1,22,24,26,-1,-1,28,30,32,-1,34,-1,36,-1,-1,-1,-1,-1,-1,-1,-1,-1,-1],"split_conditions":[9.950249E3,4E1,1E0,3.2E1,0E0,-5.85141E-2,2E0,1E0,2.92E4,-5.831766E-2,9.88E2,1.8205164E-1,-5.980831E-2,3.8232E4,1.8208598E-1,1.4349261E2,2E0,2E0,-5.7620388E-2,-5.858747E-2,8.49971E5,1.30317E6,2.896E4,-5.8503E-2,6E0,-5.6458306E-2,4.4E1,-4.2473298E-2,1.5222423E-1,-5.840371E-2,-5.520634E-2,-5.769174E-2,1.8178193E-1,1.9272141E-1,-5.795327E-2,1.8202959E-1,-3.708708E-2],"split_indices":[37,69,46,34,67,0,2,46,67,0,19,0,0,24,0,37,38,11,0,0,73,29,67,0,5,0,69,0,0,0,0,0,0,0,0,0,0],"split_type":[0,0,0,0,0,0,0,0,0,0,0,0,0,0,0,0,0,0,0,0,0,0,0,0,0,0,0,0,0,0,0,0,0,0,0,0,0],"sum_hessian":[6.1838106E5,3.948179E5,2.2356316E5,3.905702E5,4.2477017E3,7.52213E4,1.4834186E5,8.777164E3,3.8179303E5,3.0593738E3,1.1883279E3,1.4691828E5,1.4235831E3,7.757278E3,1.0198858E3,3.7883478E5,2.9582505E3,1.1346669E3,5.366096E1,7.748513E3,8.764893E0,3.4575497E5,3.3079832E4,2.4294846E3,5.2876605E2,2.5405582E1,1.1092614E3,2.5942197E0,6.170673E0,3.4258056E5,3.174389E3,3.2635357E4,4.444731E2,4.3274597E2,9.602007E1,1.10756E3,1.7013001E0],"tree_param":{"num_deleted":"0","num_feature":"78","num_nodes":"37","size_leaf_vector":"1"}},{"base_weights":[-2.1937783E-4,-5.101351E-1,1.5615137E0,-5.415175E-1,2.9123953E-1,1.7651501E0,-5.86082E-2,-2.4546011E-1,-5.822076E-1,-4.6292552E-1,1.3343525E0,-5.9018034E-2,1.800053E0,8.600456E-1,-4.4687423E-1,-5.8433354E-1,-3.9888144E-1,-5.411208E-1,1.7858063E-1,1.6344198E0,-6.2096477E-2,1.8097062E0,-5.9516538E-2,1.5261799E0,-5.94234E-2,-5.1401985E-1,2.3430511E-1,-5.848782E-2,-5.507139E-1,-5.3135234E-1,4.9792698E-1,-2.4537519E-1,-5.630139E-1,-5.9798874E-2,1.4249578E0,-5.959323E-2,1.8845967E0,1.8132211E0,-5.8624703E-2,-6.2632255E-2,1.9431607E-1,-5.418994E-2,-1.3145304E-2,2.5474572E-1,-6.0211565E-2,-8.087403E-3,-5.8523428E-2,2.7136017E-2,-5.8591533E-2,2.1481335E-1,-6.0849976E-2,-5.8838744E-2,2.7504882E-1,-1.3940821E-2,-5.8851868E-2,2.5580567E-1,-5.9236307E-2,1.9108824E-1,-6.1280098E-2,-5.7929307E-2,1.8152724E-1],"categories":[],"categories_nodes":[],"categories_segments":[],"categories_sizes":[],"default_left":[0,0,0,0,0,0,0,0,0,0,0,0,0,0,0,0,0,0,0,0,0,0,0,0,0,0,0,0,0,0,0,0,0,0,0,0,0,0,0,0,0,0,0,0,0,0,0,0,0,0,0,0,0,0,0,0,0,0,0,0,0],"id":17,"left_children":[1,3,5,7,9,11,-1,13,15,17,19,-1,21,23,25,27,29,31,33,35,-1,37,-1,39,-1,41,43,-1,45,47,49,51,53,-1,55,-1,57,59,-1,-1,-1,-1,-1,-1,-1,-1,-1,-1,-1,-1,-1,-1,-1,-1,-1,-1,-1,-1,-1,-1,-1],"loss_changes":[4.9251022E5,1.172543E4,6.657441E4,5.4046875E3,1.3822987E4,1.14315625E4,0E0,1.2072056E4,1.535E2,5.11677E2,4.3270195E3,0E0,3.1690625E3,8.095313E3,2.0976777E3,6.8125E0,5.378281E2,5.8721436E1,1.0740627E3,3.5679902E3,0E0,1.1503125E3,0E0,5.1450127E3,0E0,4.451787E2,7.964293E3,0E0,1.0104578E2,1.7285693E2,1.0655543E3,6.4730853E2,9.135498E1,0E0,9.751485E2,0E0,3.785E2,6.6978125E2,0E0,0E0,0E0,0E0,0E0,0E0,0E0,0E0,0E0,0E0,0E0,0E0,0E0,0E0,0E0,0E0,0E0,0E0,0E0,0E0,0E0,0E0,0E0],"parents":[2147483647,0,0,1,1,2,2,3,3,4,4,5,5,7,7,8,8,9,9,10,10,12,12,13,13,14,14,15,15,16,16,17,17,18,18,19,19,21,21,23,23,25,25,26,26,28,28,29,29,30,30,31,31,32,32,34,34,36,36,37,37],"right_children":[2,4,6,8,10,12,-1,14,16,18,20,-1,22,24,26,28,30,32,34,36,-1,38,-1,40,-1,42,44,-1,46,48,50,52,54,-1,56,-1,58,60,-1,-1,-1,-1,-1,-1,-1,-1,-1,-1,-1,-1,-1,-1,-1,-1,-1,-1,-1,-1,-1,-1,-1],"split_conditions":[1.048E3,1.915E2,8.1E1,1E0,8.27E2,2.8E1,-5.86082E-2,2.51E2,1.7469362E2,1.1632E4,5.013654E6,-5.9018034E-2,2.3152E4,8.1E1,1.439E3,1.5568358E2,8.27E2,3.612E3,5.8E1,1.36E2,-6.2096477E-2,6.055884E6,-5.9516538E-2,2.35E2,-5.94234E-2,2.3255814E4,1.484E3,-5.848782E-2,2.5218E4,2.521E3,3.74E2,5.005024E6,1.3185E4,-5.9798874E-2,1.8089038E6,-5.959323E-2,6.05E2,2.3E1,-5.8624703E-2,-6.2632255E-2,1.9431607E-1,-5.418994E-2,-1.3145304E-2,2.5474572E-1,-6.0211565E-2,-8.087403E-3,-5.8523428E-2,2.7136017E-2,-5.8591533E-2,2.1481335E-1,-6.0849976E-2,-5.8838744E-2,2.7504882E-1,-1.3940821E-2,-5.8851868E-2,2.5580567E-1,-5.9236307E-2,1.9108824E-1,-6.1280098E-2,-5.7929307E-2,1.8152724E-1],"split_indices":[67,9,0,39,29,69,0,66,9,5,18,0,24,0,66,9,29,21,29,35,0,18,0,67,0,37,66,0,28,21,6,28,25,0,27,0,6,0,0,0,0,0,0,0,0,0,0,0,0,0,0,0,0,0,0,0,0,0,0,0,0],"split_type":[0,0,0,0,0,0,0,0,0,0,0,0,0,0,0,0,0,0,0,0,0,0,0,0,0,0,0,0,0,0,0,0,0,0,0,0,0,0,0,0,0,0,0,0,0,0,0,0,0,0,0,0,0,0,0,0,0,0,0,0,0],"sum_hessian":[6.1845575E5,4.6622953E5,1.5222622E5,4.4866E5,1.7569525E4,1.3904231E5,1.3183911E4,5.4213633E4,3.9444638E5,1.0197409E4,7.3721157E3,2.0301047E3,1.370122E5,8.354555E3,4.585908E4,3.8992247E5,4.523905E3,9.0896045E3,1.1078052E3,6.391436E3,9.8068E2,1.3646248E5,5.497236E2,5.7299126E3,2.6246418E3,4.1744465E4,4.1146133E3,3.8369047E5,6.2319883E3,3.9420217E3,5.818833E2,6.2733685E2,8.462268E3,6.828611E2,4.249441E2,6.44477E2,5.746959E3,1.3626283E5,1.9965489E2,9.2978015E2,4.8001323E3,3.8908582E4,2.835882E3,1.0921598E3,3.0224536E3,4.2677014E2,5.8052183E3,2.5064467E2,3.691377E3,2.3317194E2,3.4871133E2,5.636098E2,6.372707E1,4.809355E2,7.9813315E3,2.719345E2,1.5300958E2,5.687333E3,5.9625664E1,1.164854E2,1.3614634E5],"tree_param":{"num_deleted":"0","num_feature":"78","num_nodes":"61","size_leaf_vector":"1"}},{"base_weights":[3.591277E-3,-2.0927875E-1,1.533213E0,-2.7914813E-1,1.156877E0,-4.8252705E-2,1.5334028E0,-3.7263855E-1,4.9486524E-1,-3.291455E-1,1.4503409E0,1.533673E0,6.847676E-1,-4.0290636E-1,1.5384605E0,1.6708609E0,-1.1902732E-1,-5.0716937E-1,1.5427284E-1,1.5192506E0,-4.8207295E-1,1.5337686E-1,1.1783463E0,1.4860265E-1,-5.103677E-1,-4.2502803E-1,8.698806E-1,1.5438539E-1,4.420513E-1,1.764747E0,1.5374896E-1,-3.2202828E-1,1.6637704E0,1.4222829E0,-5.7083064E-1,1.5228117E0,5.5482876E-1,-5.688814E-1,1.4985518E-1,-3.9331634E-2,1.4841534E-1,-5.3964477E-2,-1.579737E-2,-2.3756532E-2,-5.2381486E-2,1.6394623E-1,-5.6742546E-3,-4.9054604E-2,1.557316E-1,1.7979486E-1,1.534725E-1,-4.186411E-2,2.1462682E-1,-6.1266612E-2,1.6731629E-1,1.5064344E-1,-3.294968E-2,-5.7184376E-2,1.2843478E-1,1.3599585E-1,1.5347122E-1,-3.96046E-2,1.5079467E-1,-5.760029E-2,1.1947756E-1],"categories":[],"categories_nodes":[],"categories_segments":[],"categories_sizes":[],"default_left":[0,0,0,0,0,0,0,0,0,0,0,0,0,0,0,0,0,0,0,0,0,0,0,0,0,0,0,0,0,0,0,0,0,0,0,0,0,0,0,0,0,0,0,0,0,0,0,0,0,0,0,0,0,0,0,0,0,0,0,0,0,0,0,0,0],"id":18,"left_children":[1,3,5,7,9,-1,11,13,15,17,19,21,23,25,27,29,31,33,-1,35,37,-1,39,-1,41,43,45,-1,47,49,-1,51,53,55,57,59,61,63,-1,-1,-1,-1,-1,-1,-1,-1,-1,-1,-1,-1,-1,-1,-1,-1,-1,-1,-1,-1,-1,-1,-1,-1,-1,-1,-1],"loss_changes":[1.9809602E5,5.097771E4,2.9203125E1,3.6766062E4,1.1332273E4,0E0,1.6015625E1,2.6222938E4,3.9530176E4,1.4290709E3,2.8903047E3,7.03125E-1,2.5144974E1,1.2565211E4,4.111328E1,2.324414E2,1.3020797E4,4.8164935E2,0E0,7.111328E1,1.2944673E2,0E0,1.2244793E1,0E0,2.7879E-2,8.1228438E3,5.436833E3,0E0,3.820643E1,8.1359375E1,0E0,7.7033623E3,7.966406E1,1.8970596E1,7.8585205E0,3.8371094E1,7.188085E1,9.696732E0,0E0,0E0,0E0,0E0,0E0,0E0,0E0,0E0,0E0,0E0,0E0,0E0,0E0,0E0,0E0,0E0,0E0,0E0,0E0,0E0,0E0,0E0,0E0,0E0,0E0,0E0,0E0],"parents":[2147483647,0,0,1,1,2,2,3,3,4,4,6,6,7,7,8,8,9,9,10,10,11,11,12,12,13,13,14,14,15,15,16,16,17,17,19,19,20,20,22,22,24,24,25,25,26,26,28,28,29,29,31,31,32,32,33,33,34,34,35,35,36,36,37,37],"right_children":[2,4,6,8,10,-1,12,14,16,18,20,22,24,26,28,30,32,34,-1,36,38,-1,40,-1,42,44,46,-1,48,50,-1,52,54,56,58,60,62,64,-1,-1,-1,-1,-1,-1,-1,-1,-1,-1,-1,-1,-1,-1,-1,-1,-1,-1,-1,-1,-1,-1,-1,-1,-1,-1,-1],"split_conditions":[1.1E1,1.701E4,1.8E1,3.2771E4,8.345621E-2,-4.8252705E-2,1.23E7,3.0016E4,4E0,8.1E1,1.757579E3,6.079349E6,1.375E3,9.88E2,4E1,5.4048E4,5.7735026E-1,1.36E2,1.5427284E-1,1.5251705E3,8.1E1,1.5337686E-1,2.4E1,1.4860265E-1,9.2E1,2.8E1,6.4E1,1.5438539E-1,4.4E1,2.92E4,1.5374896E-1,2.57E2,6.5235806E-1,2E0,3.0016E4,3.62E1,8.1E1,1E1,1.4985518E-1,-3.9331634E-2,1.4841534E-1,-5.3964477E-2,-1.579737E-2,-2.3756532E-2,-5.2381486E-2,1.6394623E-1,-5.6742546E-3,-4.9054604E-2,1.557316E-1,1.7979486E-1,1.534725E-1,-4.186411E-2,2.1462682E-1,-6.1266612E-2,1.6731629E-1,1.5064344E-1,-3.294968E-2,-5.7184376E-2,1.2843478E-1,1.3599585E-1,1.5347122E-1,-3.96046E-2,1.5079467E-1,-5.760029E-2,1.1947756E-1],"split_indices":[11,72,5,0,37,0,14,66,11,0,13,14,12,19,69,0,17,34,0,13,0,0,35,0,18,69,34,0,34,67,0,67,14,38,66,52,0,3,0,0,0,0,0,0,0,0,0,0,0,0,0,0,0,0,0,0,0,0,0,0,0,0,0,0,0],"split_type":[0,0,0,0,0,0,0,0,0,0,0,0,0,0,0,0,0,0,0,0,0,0,0,0,0,0,0,0,0,0,0,0,0,0,0,0,0,0,0,0,0,0,0,0,0,0,0,0,0,0,0,0,0,0,0,0,0,0,0,0,0,0,0,0,0],"sum_hessian":[6.083811E5,5.3405956E5,7.432161E4,5.0807578E5,2.5983752E4,6.760168E0,7.431485E4,4.533212E5,5.475459E4,4.285089E3,2.1698662E4,7.429038E4,2.446599E1,4.4625425E5,7.0669443E3,1.8779037E4,3.597555E4,3.913615E3,3.7147385E2,2.095174E4,7.4692365E2,7.4267125E4,2.3262234E1,1.4500782E1,9.965207E0,4.3863128E5,7.622961E3,7.0319453E3,3.4999184E1,1.1013734E4,7.7653027E3,3.2298637E4,3.6769136E3,1.24321594E2,3.7892935E3,2.0874086E4,7.765384E1,7.1624426E2,3.0679363E1,3.742402E0,1.9519833E1,8.710192E0,1.255015E0,1.5137608E5,2.8725522E5,4.1639424E3,3.4590186E3,1.9365597E1,1.5633586E1,9.618568E3,1.3951663E3,3.1082838E4,1.2157982E3,1.4844224E1,3.6620693E3,1.1875686E2,5.5647426E0,3.7879165E3,1.3768638E0,1.429353E3,1.9444732E4,3.916524E1,3.8488598E1,7.140344E2,2.2098174E0],"tree_param":{"num_deleted":"0","num_feature":"78","num_nodes":"65","size_leaf_vector":"1"}},{"base_weights":[-8.84707E-4,-5.6347287E-1,9.111243E-1,6.210672E-2,-5.783478E-1,-5.649266E-1,1.156031E0,-5.800742E-2,1.4764351E0,-5.7784468E-2,-5.810594E-1,-5.789295E-1,1.2529424E0,6.118266E-1,1.4772705E0,1.5018525E0,-6.6989265E-2,-5.7736676E-2,-5.8666724E-1,-5.9324887E-2,-5.7792284E-2,-5.6887638E-2,1.8220815E-1,-5.7933766E-2,1.5346226E0,-5.824251E-2,1.5058458E0,-6.19948E-2,1.524447E0,-5.921308E-1,-5.7776507E-2,1.5386355E0,-5.7447758E-2,1.5212327E0,-6.0276706E-2,-5.5262435E-2,1.5339881E-1,-5.9565812E-2,-5.772986E-2,-5.251005E-2,1.5390156E-1,1.527701E-1,-6.1874498E-2],"categories":[],"categories_nodes":[],"categories_segments":[],"categories_sizes":[],"default_left":[0,0,0,0,0,0,0,0,0,0,0,0,0,0,0,0,0,0,0,0,0,0,0,0,0,0,0,0,0,0,0,0,0,0,0,0,0,0,0,0,0,0,0],"id":19,"left_children":[1,3,5,7,9,11,13,-1,15,-1,17,19,21,23,25,27,-1,-1,29,-1,-1,-1,-1,-1,31,-1,33,-1,35,37,-1,39,-1,41,-1,-1,-1,-1,-1,-1,-1,-1,-1],"loss_changes":[3.113267E5,3.4921719E3,8.368531E4,7.918073E3,1.640625E-1,8.3933887E2,3.471003E4,0E0,1.4952002E2,0E0,8.4375E-1,1.2890625E-1,2.6247726E2,8.101358E4,7.34925E3,1.2994238E2,0E0,0E0,7.597656E-1,0E0,0E0,0E0,0E0,0E0,3.52375E2,0E0,3.9963125E3,0E0,5.3615723E1,3.881836E-1,0E0,3.3328125E1,0E0,1.6931562E3,0E0,0E0,0E0,0E0,0E0,0E0,0E0,0E0,0E0],"parents":[2147483647,0,0,1,1,2,2,3,3,4,4,5,5,6,6,8,8,10,10,11,11,12,12,13,13,14,14,15,15,18,18,24,24,26,26,28,28,29,29,31,31,33,33],"right_children":[2,4,6,8,10,12,14,-1,16,-1,18,20,22,24,26,28,-1,-1,30,-1,-1,-1,-1,-1,32,-1,34,-1,36,38,-1,40,-1,42,-1,-1,-1,-1,-1,-1,-1,-1,-1],"split_conditions":[2.629E3,2.4E1,2.5714285E0,1.761E3,1.23E2,5.0286E4,2.37E2,-5.800742E-2,2.57E2,-5.7784468E-2,2E0,2.8E1,1.2513609E1,6.31E2,2.37E2,2.56E2,-6.6989265E-2,-5.7736676E-2,5.000728E6,-5.9324887E-2,-5.7792284E-2,-5.6887638E-2,1.8220815E-1,-5.7933766E-2,8.081E3,-5.824251E-2,5.4048E4,-6.19948E-2,8.833333E0,3.0016E4,-5.7776507E-2,1.026E3,-5.7447758E-2,1.6417E4,-6.0276706E-2,-5.5262435E-2,1.5339881E-1,-5.9565812E-2,-5.772986E-2,-5.251005E-2,1.5390156E-1,1.527701E-1,-6.1874498E-2],"split_indices":[0,34,40,0,0,19,67,0,67,0,2,69,37,29,66,67,0,0,74,0,0,0,0,0,0,0,0,0,52,66,0,66,0,67,0,0,0,0,0,0,0,0,0],"split_type":[0,0,0,0,0,0,0,0,0,0,0,0,0,0,0,0,0,0,0,0,0,0,0,0,0,0,0,0,0,0,0,0,0,0,0,0,0,0,0,0,0,0,0],"sum_hessian":[6.0677156E5,3.7527638E5,2.3149519E5,8.715957E3,3.6656044E5,3.2943523E4,1.9855166E5,5.994653E3,2.7213042E3,3.093744E5,5.718601E4,3.2692379E4,2.5114458E2,7.37004E4,1.24851266E5,2.6897515E3,3.1552576E1,3.4543996E4,2.2642012E4,2.1085957E3,3.0583783E4,5.9782093E1,1.9136249E2,3.217221E4,4.152819E4,1.7081666E3,1.2314309E5,2.8062054E1,2.6616895E3,1.3990325E4,8.6516875E3,4.1449594E4,7.859606E1,1.2225129E5,8.918086E2,1.1910434E1,2.649779E3,1.1270761E4,2.7195637E3,7.3792844E0,4.1442215E4,1.2188317E5,3.6811832E2],"tree_param":{"num_deleted":"0","num_feature":"78","num_nodes":"43","size_leaf_vector":"1"}},{"base_weights":[-5.7232263E-4,-3.2221395E-1,1.5306561E0,8.574494E-1,-5.506594E-1,1.5381725E0,-5.7452357E-1,1.2631633E0,-5.6594664E-1,-5.6792223E-1,1.1450831E0,-5.896684E-2,1.5406367E0,-5.8403987E-1,4.7639614E-1,1.4166135E0,-5.8426093E-2,1.4881244E0,-5.830678E-1,-5.709745E-1,2.1054028E-1,1.5388911E0,-5.9139937E-2,1.5416055E0,9.445109E-1,-5.8732368E-2,2.6934445E-2,1.0311866E-1,-3.385657E-2,-5.8619976E-1,1.4655079E0,1.5372168E-1,-4.558038E-2,-4.9916583E-1,-5.837104E-1,-5.7189107E-1,4.137743E-1,1.538011E0,-3.7270966E-1,-4.405221E-2,1.5407641E0,1.541642E-1,7.388105E-1,-3.833928E-1,1.5831864E-1,-5.7747073E-2,-6.242041E-2,-4.656161E-2,1.4925562E-1,-5.4140892E-2,1.6259064E-1,-5.9394654E-2,-5.7915866E-2,-5.720339E-2,1.8947808E-1,2.0445934E-1,-5.903728E-2,1.5484768E-1,-4.223665E-2,-4.4711232E-2,1.6735272E-1,1.541443E-1,-3.104495E-2,-4.005448E-2,1.3485196E-1,1.4109263E-1,-5.6862634E-2],"categories":[],"categories_nodes":[],"categories_segments":[],"categories_sizes":[],"default_left":[0,0,0,0,0,0,0,0,0,0,0,0,0,0,0,0,0,0,0,0,0,0,0,0,0,0,0,0,0,0,0,0,0,0,0,0,0,0,0,0,0,0,0,0,0,0,0,0,0,0,0,0,0,0,0,0,0,0,0,0,0,0,0,0,0,0,0],"id":20,"left_children":[1,3,5,7,9,11,13,15,17,19,21,-1,23,25,27,29,-1,31,33,35,37,39,-1,41,43,-1,-1,-1,-1,45,47,-1,-1,49,51,53,55,57,59,-1,61,-1,63,65,-1,-1,-1,-1,-1,-1,-1,-1,-1,-1,-1,-1,-1,-1,-1,-1,-1,-1,-1,-1,-1,-1,-1],"loss_changes":[2.988826E5,1.3515295E5,1.6677812E3,4.6987676E4,1.2299852E4,5.5134375E2,4.033684E0,1.795039E4,6.3558154E2,9.88375E2,2.8965703E3,0E0,5.9078125E1,1.2023468E0,2.1217453E0,5.7257734E3,0E0,1.4965118E1,6.7333984E-1,3.7417188E2,1.2588433E3,1.34765625E1,0E0,1.921875E0,1.4707378E2,0E0,0E0,0E0,0E0,1.01989746E-1,2.981586E3,0E0,0E0,1.3712208E1,4.8339844E-1,1.4685938E2,6.3302844E2,1.083606E1,1.7276706E2,0E0,4.8129883E0,0E0,5.1756077E0,1.9711338E1,0E0,0E0,0E0,0E0,0E0,0E0,0E0,0E0,0E0,0E0,0E0,0E0,0E0,0E0,0E0,0E0,0E0,0E0,0E0,0E0,0E0,0E0,0E0],"parents":[2147483647,0,0,1,1,2,2,3,3,4,4,5,5,6,6,7,7,8,8,9,9,10,10,12,12,13,13,14,14,15,15,17,17,18,18,19,19,20,20,21,21,23,23,24,24,29,29,30,30,33,33,34,34,35,35,36,36,37,37,38,38,40,40,42,42,43,43],"right_children":[2,4,6,8,10,12,14,16,18,20,22,-1,24,26,28,30,-1,32,34,36,38,40,-1,42,44,-1,-1,-1,-1,46,48,-1,-1,50,52,54,56,58,60,-1,62,-1,64,66,-1,-1,-1,-1,-1,-1,-1,-1,-1,-1,-1,-1,-1,-1,-1,-1,-1,-1,-1,-1,-1,-1,-1],"split_conditions":[1.5251705E3,8.345621E-2,2.43E2,6.3798086E3,1E0,2.29E2,3.832E3,8.1E1,3E0,1.0938329E3,8.1E1,-5.896684E-2,2.5330838E2,1E2,3.51E2,7E1,-5.8426093E-2,8.1E1,1.3029316E4,2.16E2,1.767767E1,1.54E2,-5.9139937E-2,8.1E1,5.097005E6,-5.8732368E-2,2.6934445E-2,1.0311866E-1,-3.385657E-2,0E0,6E1,1.5372168E-1,-4.558038E-2,1E0,3.2863352E0,7.25E2,8.1E1,1.76E2,2E0,-4.405221E-2,2.36E2,1.541642E-1,4.44E2,5.028865E6,1.5831864E-1,-5.7747073E-2,-6.242041E-2,-4.656161E-2,1.4925562E-1,-5.4140892E-2,1.6259064E-1,-5.9394654E-2,-5.7915866E-2,-5.720339E-2,1.8947808E-1,2.0445934E-1,-5.903728E-2,1.5484768E-1,-4.223665E-2,-4.4711232E-2,1.6735272E-1,1.541443E-1,-3.104495E-2,-4.005448E-2,1.3485196E-1,1.4109263E-1,-5.6862634E-2],"split_indices":[13,37,67,14,43,67,4,0,52,13,0,0,9,19,67,0,0,0,14,7,9,67,0,0,1,0,0,0,0,66,34,0,0,43,9,11,0,35,51,0,67,0,0,1,0,0,0,0,0,0,0,0,0,0,0,0,0,0,0,0,0,0,0,0,0,0,0],"split_type":[0,0,0,0,0,0,0,0,0,0,0,0,0,0,0,0,0,0,0,0,0,0,0,0,0,0,0,0,0,0,0,0,0,0,0,0,0,0,0,0,0,0,0,0,0,0,0,0,0,0,0,0,0,0,0,0,0,0,0,0,0,0,0,0,0,0,0],"sum_hessian":[6.068578E5,5.0151338E5,1.05344414E5,8.136291E4,4.2015047E5,1.049699E5,3.7451324E2,6.3315934E4,1.8046973E4,4.1591706E5,4.233407E3,1.2115001E2,1.0484875E5,3.7159265E2,2.9205732E0,5.846035E4,4.855582E3,1.4847227E2,1.78985E4,4.142929E5,1.6241528E3,3.450907E3,7.8250006E2,1.04677055E5,1.7169998E2,3.7047882E2,1.113838E0,1.5797973E0,1.340776E0,1.3929132E3,5.7067438E4,1.4501917E2,3.4531205E0,1.4194301E2,1.7756559E4,4.139081E5,3.848257E2,4.9527505E2,1.1288778E3,3.0408905E0,3.4478662E3,1.0467138E5,5.672852E0,5.5891903E1,1.15808075E2,1.1459102E3,2.4700311E2,7.88049E2,5.6279387E4,1.399071E2,2.0359027E0,5.4255815E3,1.2330976E4,4.138849E5,2.3190605E1,1.462566E2,2.3856912E2,4.92854E2,2.42106E0,1.0900251E3,3.8852615E1,3.4467693E3,1.0966985E0,2.0970948E0,3.5757573E0,4.610821E0,5.1281082E1],"tree_param":{"num_deleted":"0","num_feature":"78","num_nodes":"67","size_leaf_vector":"1"}},{"base_weights":[-8.653433E-4,1.5180553E0,-5.7843757E-1,1.5324899E0,-5.7917144E-2,-5.8117145E-1,-5.7814475E-2,-4.9411255E-1,1.5364939E0,-5.786838E-2,-5.9077775E-1,-5.9190776E-2,1.4960198E-1,1.5379477E0,-5.9370007E-2,-5.9668858E-2,-5.812771E-2,1.5393621E0,-5.722791E-2,1.540028E-1,-6.6626586E-2],"categories":[],"categories_nodes":[],"categories_segments":[],"categories_sizes":[],"default_left":[0,0,0,0,0,0,0,0,0,0,0,0,0,0,0,0,0,0,0,0,0],"id":21,"left_children":[1,3,5,7,-1,9,-1,11,13,-1,15,-1,-1,17,-1,-1,-1,19,-1,-1,-1],"loss_changes":[5.3223294E5,5.0605625E3,3.125E-2,1.3477188E3,0E0,6.689453E-1,0E0,6.473632E1,5.139375E2,0E0,1.394043E-1,0E0,0E0,4.95E2,0E0,0E0,0E0,2.440625E2,0E0,0E0,0E0],"parents":[2147483647,0,0,1,1,2,2,3,3,5,5,7,7,8,8,10,10,13,13,17,17],"right_children":[2,4,6,8,-1,10,-1,12,14,-1,16,-1,-1,18,-1,-1,-1,20,-1,-1,-1],"split_conditions":[2.3E1,2E0,1E0,2.8E1,-5.7917144E-2,6.3798086E3,-5.7814475E-2,2.47E2,3.4E1,-5.786838E-2,3.2771E4,-5.9190776E-2,1.4960198E-1,2.94E2,-5.9370007E-2,-5.9668858E-2,-5.812771E-2,3.061E3,-5.722791E-2,1.540028E-1,-6.6626586E-2],"split_indices":[0,11,3,69,0,14,0,67,2,0,0,0,0,67,0,0,0,29,0,0,0],"split_type":[0,0,0,0,0,0,0,0,0,0,0,0,0,0,0,0,0,0,0,0,0],"sum_hessian":[6.0667894E5,1.6713625E5,4.395427E5,1.6599403E5,1.1422205E3,4.233851E4,3.9720416E5,3.2707025E2,1.6566697E5,3.367842E4,8.660088E3,3.1242047E2,1.4649783E1,1.6555427E5,1.1270489E2,5.300577E3,3.359511E3,1.6544364E5,1.1062031E2,1.65394E5,4.9637703E1],"tree_param":{"num_deleted":"0","num_feature":"78","num_nodes":"21","size_leaf_vector":"1"}},{"base_weights":[-8.860297E-4,-5.575483E-1,8.858147E-1,-5.6433827E-1,4.1492373E-2,-5.7850815E-2,1.5226253E0,-2.959827E-1,-5.7063717E-1,-5.7659503E-2,1.4168882E0,1.5411595E-1,-5.9715766E-2,-5.7753193E-1,1.5426475E-1,-5.735539E-1,-2.0627122E-1,1.498199E0,-5.690473E-2,-5.7948496E-2,8.8692814E-1,-5.7708746E-1,-5.366764E-1,-5.786996E-2,1.3169768E0,-5.5694472E-2,1.5390453E0,-4.1776102E-2,1.3687474E-1,-5.7739336E-2,-5.4404624E-2,-5.6979477E-2,1.553003E-1,1.6799963E-1,-5.7233926E-2,1.541879E-1,-3.6145583E-2],"categories":[],"categories_nodes":[],"categories_segments":[],"categories_sizes":[],"default_left":[0,0,0,0,0,0,0,0,0,0,0,0,0,0,0,0,0,0,0,0,0,0,0,0,0,0,0,0,0,0,0,0,0,0,0,0,0],"id":22,"left_children":[1,3,5,7,9,-1,11,13,15,-1,17,-1,-1,19,-1,21,23,25,-1,-1,27,29,31,-1,33,-1,35,-1,-1,-1,-1,-1,-1,-1,-1,-1,-1],"loss_changes":[2.994404E5,1.5159219E3,2.1817583E5,6.2275E2,3.5525012E3,0E0,6.4071875E3,4.376927E3,3.8254688E2,0E0,2.10073E2,0E0,0E0,2.148291E1,0E0,4.6234375E1,1.6237545E3,1.05366455E2,0E0,0E0,6.9583206E0,2.984375E0,2.1634375E3,0E0,3.866637E2,0E0,7.1330566E0,0E0,0E0,0E0,0E0,0E0,0E0,0E0,0E0,0E0,0E0],"parents":[2147483647,0,0,1,1,2,2,3,3,4,4,6,6,7,7,8,8,10,10,13,13,15,15,16,16,17,17,20,20,21,21,22,22,24,24,26,26],"right_children":[2,4,6,8,10,-1,12,14,16,-1,18,-1,-1,20,-1,22,24,26,-1,-1,28,30,32,-1,34,-1,36,-1,-1,-1,-1,-1,-1,-1,-1,-1,-1],"split_conditions":[9.950249E3,4E1,1E0,3.2E1,0E0,-5.7850815E-2,2E0,1E0,2.92E4,-5.7659503E-2,9.88E2,1.5411595E-1,-5.9715766E-2,3.8232E4,1.5426475E-1,1.4349261E2,2E0,2E0,-5.690473E-2,-5.7948496E-2,8.49971E5,1.30317E6,2.896E4,-5.786996E-2,6E0,-5.5694472E-2,4.4E1,-4.1776102E-2,1.3687474E-1,-5.7739336E-2,-5.4404624E-2,-5.6979477E-2,1.553003E-1,1.6799963E-1,-5.7233926E-2,1.541879E-1,-3.6145583E-2],"split_indices":[37,69,46,34,67,0,2,46,67,0,19,0,0,24,0,37,38,11,0,0,73,29,67,0,5,0,69,0,0,0,0,0,0,0,0,0,0],"split_type":[0,0,0,0,0,0,0,0,0,0,0,0,0,0,0,0,0,0,0,0,0,0,0,0,0,0,0,0,0,0,0,0,0,0,0,0,0],"sum_hessian":[6.066526E5,3.7268494E5,2.3396769E5,3.6850806E5,4.1768877E3,7.091085E4,1.6305684E5,8.452413E3,3.6005566E5,2.882228E3,1.2946599E3,1.616438E5,1.4130433E3,7.3305693E3,1.1218435E3,3.5719575E5,2.8599026E3,1.2439731E3,5.0686775E1,7.32141E3,9.159504E0,3.259491E5,3.1246666E4,2.2985388E3,5.6136395E2,2.3996124E1,1.219977E3,2.506164E0,6.6533403E0,3.2294253E5,3.0065513E3,3.0759893E4,4.8677258E2,4.7097922E2,9.038472E1,1.2183491E3,1.6278982E0],"tree_param":{"num_deleted":"0","num_feature":"78","num_nodes":"37","size_leaf_vector":"1"}},{"base_weights":[-3.9249836E-4,-5.0132114E-1,1.340987E0,-5.333654E-1,2.6421022E-1,1.4980632E0,-5.799193E-2,-2.3536955E-1,-5.7543445E-1,-4.5488226E-1,1.1538463E0,-5.8551777E-2,1.5249705E0,7.6436305E-1,-4.3523812E-1,-5.776485E-1,-3.879635E-1,-5.343579E-1,1.6253014E-1,1.388325E0,-6.1122485E-2,1.5338533E0,-3.1813875E-1,1.3038732E0,-5.8785986E-2,-5.041266E-1,2.255247E-1,-5.782214E-1,-5.424006E-1,-5.2245516E-1,4.4503307E-1,-2.3825598E-1,-5.568256E-1,-5.9141185E-2,1.2036507E0,-5.9143778E-2,1.5797766E0,1.5364425E0,-5.7833064E-2,-6.0392346E-2,1.2819071E0,-6.165197E-2,1.6207069E-1,-5.330828E-2,-1.21147195E-2,2.07375E-1,-5.9432425E-2,-5.9713345E-2,-5.7814296E-2,-7.2259232E-3,-5.7853997E-2,2.562818E-2,-5.7937812E-2,1.7306283E-1,-6.013542E-2,-5.827107E-2,2.1082385E-1,-1.2903312E-2,-5.8333304E-2,-5.8835935E-2,2.0053902E-1,-6.539145E-2,1.600296E-1,-5.721581E-2,1.5379903E-1,1.6596715E-1,-5.6631412E-2],"categories":[],"categories_nodes":[],"categories_segments":[],"categories_sizes":[],"default_left":[0,0,0,0,0,0,0,0,0,0,0,0,0,0,0,0,0,0,0,0,0,0,0,0,0,0,0,0,0,0,0,0,0,0,0,0,0,0,0,0,0,0,0,0,0,0,0,0,0,0,0,0,0,0,0,0,0,0,0,0,0,0,0,0,0,0,0],"id":23,"left_children":[1,3,5,7,9,11,-1,13,15,17,19,-1,21,23,25,27,29,31,33,35,-1,37,39,41,-1,43,45,47,49,51,53,55,57,-1,59,-1,61,63,-1,-1,65,-1,-1,-1,-1,-1,-1,-1,-1,-1,-1,-1,-1,-1,-1,-1,-1,-1,-1,-1,-1,-1,-1,-1,-1,-1,-1],"loss_changes":[4.0785053E5,1.08413125E4,4.9797938E4,5.3176094E3,1.1359912E4,8.554156E3,0E0,1.0486026E4,1.5405469E2,4.8195483E2,3.2858887E3,0E0,2.466375E3,6.3796167E3,1.9908525E3,7.1015625E0,4.8665344E2,5.7749268E1,8.8039484E2,2.6567393E3,0E0,8.206875E2,3.314922E2,3.803996E3,0E0,4.3914746E2,6.2589307E3,1.953125E-1,1.00052734E2,1.6587946E2,8.136999E2,4.986034E2,9.161865E1,0E0,6.7792194E2,0E0,2.938916E2,4.8946875E2,0E0,0E0,7.768747E1,0E0,0E0,0E0,0E0,0E0,0E0,0E0,0E0,0E0,0E0,0E0,0E0,0E0,0E0,0E0,0E0,0E0,0E0,0E0,0E0,0E0,0E0,0E0,0E0,0E0,0E0],"parents":[2147483647,0,0,1,1,2,2,3,3,4,4,5,5,7,7,8,8,9,9,10,10,12,12,13,13,14,14,15,15,16,16,17,17,18,18,19,19,21,21,22,22,23,23,25,25,26,26,27,27,28,28,29,29,30,30,31,31,32,32,34,34,36,36,37,37,40,40],"right_children":[2,4,6,8,10,12,-1,14,16,18,20,-1,22,24,26,28,30,32,34,36,-1,38,40,42,-1,44,46,48,50,52,54,56,58,-1,60,-1,62,64,-1,-1,66,-1,-1,-1,-1,-1,-1,-1,-1,-1,-1,-1,-1,-1,-1,-1,-1,-1,-1,-1,-1,-1,-1,-1,-1,-1,-1],"split_conditions":[1.048E3,1.915E2,8.1E1,1E0,8.27E2,2.8E1,-5.799193E-2,2.51E2,1.7469362E2,1.1632E4,5.013654E6,-5.8551777E-2,6.414E3,8.1E1,1.439E3,1.5568358E2,8.27E2,3.612E3,5.8E1,1.36E2,-6.1122485E-2,6.055884E6,1.29E2,2.35E2,-5.8785986E-2,2.3255814E4,1.484E3,6E0,2.5218E4,2.521E3,3.74E2,5.005024E6,1.3185E4,-5.9141185E-2,2.57E2,-5.9143778E-2,2.32E2,2.3E1,-5.7833064E-2,-6.0392346E-2,1.3E2,-6.165197E-2,1.6207069E-1,-5.330828E-2,-1.21147195E-2,2.07375E-1,-5.9432425E-2,-5.9713345E-2,-5.7814296E-2,-7.2259232E-3,-5.7853997E-2,2.562818E-2,-5.7937812E-2,1.7306283E-1,-6.013542E-2,-5.827107E-2,2.1082385E-1,-1.2903312E-2,-5.8333304E-2,-5.8835935E-2,2.0053902E-1,-6.539145E-2,1.600296E-1,-5.721581E-2,1.5379903E-1,1.6596715E-1,-5.6631412E-2],"split_indices":[67,9,0,39,29,69,0,66,9,5,18,0,24,0,66,9,29,21,29,35,0,18,19,67,0,37,66,39,28,21,6,28,25,0,67,0,67,0,0,0,19,0,0,0,0,0,0,0,0,0,0,0,0,0,0,0,0,0,0,0,0,0,0,0,0,0,0],"split_type":[0,0,0,0,0,0,0,0,0,0,0,0,0,0,0,0,0,0,0,0,0,0,0,0,0,0,0,0,0,0,0,0,0,0,0,0,0,0,0,0,0,0,0,0,0,0,0,0,0,0,0,0,0,0,0,0,0,0,0,0,0,0,0,0,0,0,0],"sum_hessian":[6.0697675E5,4.419386E5,1.6503819E5,4.2418306E5,1.7755516E4,1.5256305E5,1.2475155E4,5.247598E4,3.717071E5,9.819171E3,7.9363438E3,1.9448063E3,1.5061823E5,8.742686E3,4.3733297E4,3.6736625E5,4.340841E3,8.699477E3,1.1196945E3,7.005871E3,9.3047296E2,1.4989598E5,7.2224664E2,6.249353E3,2.493332E3,3.9604523E4,4.1287705E3,3.6147606E5,5.890178E3,3.7377366E3,6.031041E2,6.143642E2,8.0851123E3,6.496636E2,4.7003094E2,6.1757404E2,6.388297E3,1.4971273E5,1.8325914E2,6.133233E2,1.0892331E2,8.84893E2,5.36446E3,3.682024E4,2.7842847E3,1.2682234E3,2.8605469E3,1.4612692E3,3.600148E5,4.2066696E2,5.469511E3,2.5436644E2,3.48337E3,2.7032632E2,3.327778E2,5.36378E2,7.7986176E1,4.7209213E2,7.6130205E3,1.4537091E2,3.2466003E2,5.786972E1,6.3304272E3,1.0953477E2,1.4960319E5,9.052302E1,1.8400295E1],"tree_param":{"num_deleted":"0","num_feature":"78","num_nodes":"67","size_leaf_vector":"1"}},{"base_weights":[4.936959E-3,1.1376135E0,-2.3752145E-1,1.3508013E0,-5.766982E-1,-3.1573054E-1,1.085048E0,1.2867312E0,1.6486716E0,-5.770422E-2,1.2827493E-1,-3.463025E-1,1.3524135E0,1.2724048E0,-5.470686E-1,1.337595E0,-5.5807585E-1,2.0792193E0,1.4514165E0,-3.7063655E-1,9.9014616E-1,1.3563944E0,6.1189216E-1,1.3182425E0,-4.26829E-1,-5.696063E-1,1.3115197E-1,1.337478E0,2.3091977E0,-5.656417E-1,4.5977616E-1,2.6633015E0,1.3373806E-1,1.54119E0,1.3438584E-1,-3.851856E-1,1.327928E0,-2.372977E-1,1.4325974E0,1.3427848E0,1.5842851E0,-4.8030686E-1,1.3428001E-1,1.323369E0,-4.2817292E-1,-5.5309493E-2,1.3374169E-1,-5.7139516E-2,1.0819544E-1,1.5129638E-1,1.3371906E-1,2.4576537E-1,7.098844E-2,-5.733499E-2,-1.2887272E-2,1.27214E-1,-2.1477586E-2,2.7839085E-1,1.674648E-1,1.6962685E-1,1.5069352E-1,-4.058636E-2,7.785738E-2,6.464186E-2,1.5904407E-1,-5.7284243E-2,1.315908E-1,1.7250083E-1,1.3390012E-1,1.3801898E-1,1.3356315E-1,1.3500498E-1,1.7292567E-1,3.218056E-2,-5.425304E-2,1.3266312E-1,4.166349E-2,-5.58992E-2,1.2519787E-1],"categories":[],"categories_nodes":[],"categories_segments":[],"categories_sizes":[],"default_left":[0,0,0,0,0,0,0,0,0,0,0,0,0,0,0,0,0,0,0,0,0,0,0,0,0,0,0,0,0,0,0,0,0,0,0,0,0,0,0,0,0,0,0,0,0,0,0,0,0,0,0,0,0,0,0,0,0,0,0,0,0,0,0,0,0,0,0,0,0,0,0,0,0,0,0,0,0,0,0],"id":24,"left_children":[1,3,5,7,9,11,13,15,17,-1,-1,19,21,23,25,27,29,31,33,35,37,39,41,43,45,47,-1,49,51,53,55,57,-1,59,-1,61,63,65,67,69,71,73,-1,75,77,-1,-1,-1,-1,-1,-1,-1,-1,-1,-1,-1,-1,-1,-1,-1,-1,-1,-1,-1,-1,-1,-1,-1,-1,-1,-1,-1,-1,-1,-1,-1,-1,-1,-1],"loss_changes":[1.6348122E5,3.835992E4,5.0718223E4,1.7794219E3,8.166016E0,2.3610234E4,8.372078E3,7.209961E3,1.400082E3,0E0,0E0,1.4785172E4,2.3732422E1,1.9133398E3,1.18861145E2,5.40625E0,1.6140625E1,2.2446309E3,1.0736328E2,1.1034406E4,4.4155977E3,2.3575195E1,3.7664665E1,2.1466016E2,1.4460349E2,8.851013E0,0E0,1.75E0,6.481552E-2,6.819153E0,8.913174E0,3.4136328E2,0E0,3.0223633E1,0E0,1.0653547E4,6.774072E2,1.1238513E3,1.6124512E2,2.5097656E-1,1.3334351E1,1.1392679E0,0E0,6.997266E1,1.624923E1,0E0,0E0,0E0,0E0,0E0,0E0,0E0,0E0,0E0,0E0,0E0,0E0,0E0,0E0,0E0,0E0,0E0,0E0,0E0,0E0,0E0,0E0,0E0,0E0,0E0,0E0,0E0,0E0,0E0,0E0,0E0,0E0,0E0,0E0],"parents":[2147483647,0,0,1,1,2,2,3,3,4,4,5,5,6,6,7,7,8,8,11,11,12,12,13,13,14,14,15,15,16,16,17,17,18,18,19,19,20,20,21,21,22,22,23,23,24,24,25,25,27,27,28,28,29,29,30,30,31,31,33,33,35,35,36,36,37,37,38,38,39,39,40,40,41,41,43,43,44,44],"right_children":[2,4,6,8,10,12,14,16,18,-1,-1,20,22,24,26,28,30,32,34,36,38,40,42,44,46,48,-1,50,52,54,56,58,-1,60,-1,62,64,66,68,70,72,74,-1,76,78,-1,-1,-1,-1,-1,-1,-1,-1,-1,-1,-1,-1,-1,-1,-1,-1,-1,-1,-1,-1,-1,-1,-1,-1,-1,-1,-1,-1,-1,-1,-1,-1,-1,-1],"split_conditions":[2.29E2,9.3351996E2,1.0028E4,1.23E2,8.1E1,3.0016E4,1.7548314E3,0E0,3.2771E4,-5.770422E-2,1.2827493E-1,5.4048E4,4E1,4E1,8.1E1,5.652174E5,6E0,1.1E1,5.4048E4,2.92E4,1E0,7.8125E3,4.4E1,3.35E7,8.1E1,9E0,1.3115197E-1,1E0,4.9E1,2.105263E4,2.27E2,9.88E2,1.3373806E-1,2.4E1,1.3438584E-1,9.88E2,1.026E3,2E0,2.4E1,6E0,8.833333E0,3.5E1,1.3428001E-1,1.5251705E3,1E0,-5.5309493E-2,1.3374169E-1,-5.7139516E-2,1.0819544E-1,1.5129638E-1,1.3371906E-1,2.4576537E-1,7.098844E-2,-5.733499E-2,-1.2887272E-2,1.27214E-1,-2.1477586E-2,2.7839085E-1,1.674648E-1,1.6962685E-1,1.5069352E-1,-4.058636E-2,7.785738E-2,6.464186E-2,1.5904407E-1,-5.7284243E-2,1.315908E-1,1.7250083E-1,1.3390012E-1,1.3801898E-1,1.3356315E-1,1.3500498E-1,1.7292567E-1,3.218056E-2,-5.425304E-2,1.3266312E-1,4.166349E-2,-5.58992E-2,1.2519787E-1],"split_indices":[66,13,73,0,0,66,13,66,0,0,0,0,69,69,0,36,12,11,0,67,47,37,34,17,0,3,0,3,0,36,67,19,0,34,0,19,66,2,34,8,52,19,0,13,5,0,0,0,0,0,0,0,0,0,0,0,0,0,0,0,0,0,0,0,0,0,0,0,0,0,0,0,0,0,0,0,0,0,0],"split_type":[0,0,0,0,0,0,0,0,0,0,0,0,0,0,0,0,0,0,0,0,0,0,0,0,0,0,0,0,0,0,0,0,0,0,0,0,0,0,0,0,0,0,0,0,0,0,0,0,0,0,0,0,0,0,0,0,0,0,0,0,0,0,0,0,0,0,0,0,0,0,0,0,0,0,0,0,0,0,0],"sum_hessian":[5.952827E5,1.04957266E5,4.9032544E5,9.3348836E4,1.1608435E4,4.6295003E5,2.737542E4,7.682875E4,1.6520086E4,1.1606978E4,1.4575858E0,4.5461903E5,8.330977E3,2.4556688E4,2.8187332E3,7.4767586E4,2.061165E3,5.187599E3,1.1332486E4,4.4649006E5,8.1289707E3,8.285603E3,4.537336E1,2.3911875E4,6.448121E2,2.7856472E3,3.3085964E1,7.476096E4,6.621119E0,2.0463982E3,1.4766855E1,2.9009585E3,2.2866409E3,6.1696484E3,5.162838E3,4.426989E5,3.7911567E3,2.1539546E3,5.975016E3,7.825175E3,4.604282E2,1.8328243E1,2.7045115E1,2.384213E4,6.974467E1,6.0238617E2,4.242589E1,2.7832866E3,2.360574E0,1.1369091E2,7.464727E4,5.5676136E0,1.0535058E0,2.0106018E3,3.579646E1,6.297211E0,8.469644E0,2.583926E3,3.1703244E2,1.1074572E3,5.0621914E3,4.3497088E5,7.728033E3,1.055204E3,2.7359526E3,1.7718143E3,3.8214035E2,1.444552E3,4.530464E3,1.22543E3,6.5997446E3,1.7996506E2,2.8046313E2,1.0191255E0,1.7309118E1,2.37562E4,8.5932014E1,6.5325615E1,4.4190507E0],"tree_param":{"num_deleted":"0","num_feature":"78","num_nodes":"79","size_leaf_vector":"1"}},{"base_weights":[-1.0510742E-3,-5.570578E-1,8.238359E-1,5.6976646E-2,-5.7229143E-1,-5.5813146E-1,1.0305945E0,-5.743871E-2,1.2926308E0,-5.716263E-2,-5.7584804E-1,-5.7271E-1,1.1543682E0,5.625162E-1,1.2933145E0,1.3141748E0,-6.6524975E-2,-5.709027E-2,-5.831605E-1,-5.8898132E-2,-5.7153802E-2,-5.6215275E-2,1.6256575E-1,-5.7310057E-1,1.3380405E0,-5.7879884E-2,1.3168503E0,-6.1800618E-2,1.3333769E0,-5.900301E-1,-5.715253E-2,-5.7094213E-2,-5.8007675E-1,1.3412645E0,-5.6844026E-2,1.3294736E0,-5.9799332E-2,-5.5200834E-2,1.3415E-1,-5.9435274E-2,-5.709541E-2,-5.9544403E-2,-5.7495743E-2,-5.2619446E-2,1.3415857E-1,1.3347493E-1,-6.1150935E-2],"categories":[],"categories_nodes":[],"categories_segments":[],"categories_sizes":[],"default_left":[0,0,0,0,0,0,0,0,0,0,0,0,0,0,0,0,0,0,0,0,0,0,0,0,0,0,0,0,0,0,0,0,0,0,0,0,0,0,0,0,0,0,0,0,0,0,0],"id":25,"left_children":[1,3,5,7,9,11,13,-1,15,-1,17,19,21,23,25,27,-1,-1,29,-1,-1,-1,-1,31,33,-1,35,-1,37,39,-1,-1,41,43,-1,45,-1,-1,-1,-1,-1,-1,-1,-1,-1,-1,-1],"loss_changes":[2.713416E5,3.3057969E3,6.806542E4,6.6759775E3,4.921875E-1,7.7463965E2,2.548064E4,0E0,1.2293555E2,0E0,1.6269531E0,2.5E-1,2.1288333E2,6.5606875E4,5.848547E3,1.0703418E2,0E0,0E0,1.4072266E0,0E0,0E0,0E0,0E0,1.25E-1,2.7283594E2,0E0,3.1689688E3,0E0,4.4155273E1,7.895508E-1,0E0,0E0,2.1484375E-1,2.7203125E1,0E0,1.3342031E3,0E0,0E0,0E0,0E0,0E0,0E0,0E0,0E0,0E0,0E0,0E0],"parents":[2147483647,0,0,1,1,2,2,3,3,4,4,5,5,6,6,8,8,10,10,11,11,12,12,13,13,14,14,15,15,18,18,23,23,24,24,26,26,28,28,29,29,32,32,33,33,35,35],"right_children":[2,4,6,8,10,12,14,-1,16,-1,18,20,22,24,26,28,-1,-1,30,-1,-1,-1,-1,32,34,-1,36,-1,38,40,-1,-1,42,44,-1,46,-1,-1,-1,-1,-1,-1,-1,-1,-1,-1,-1],"split_conditions":[2.629E3,2.4E1,2.5714285E0,1.761E3,1.23E2,5.0286E4,2.37E2,-5.743871E-2,2.57E2,-5.716263E-2,2E0,2.8E1,1.2513609E1,6.31E2,2.37E2,2.56E2,-6.6524975E-2,-5.709027E-2,5.000728E6,-5.8898132E-2,-5.7153802E-2,-5.6215275E-2,1.6256575E-1,3.4285715E0,8.081E3,-5.7879884E-2,5.4048E4,-6.1800618E-2,8.833333E0,3.0016E4,-5.715253E-2,-5.7094213E-2,3.2771E4,8.08E3,-5.6844026E-2,1.6417E4,-5.9799332E-2,-5.5200834E-2,1.3415E-1,-5.9435274E-2,-5.709541E-2,-5.9544403E-2,-5.7495743E-2,-5.2619446E-2,1.3415857E-1,1.3347493E-1,-6.1150935E-2],"split_indices":[0,34,40,0,0,19,67,0,67,0,2,69,37,29,66,67,0,0,74,0,0,0,0,40,0,0,0,0,52,66,0,0,0,0,0,67,0,0,0,0,0,0,0,0,0,0,0],"split_type":[0,0,0,0,0,0,0,0,0,0,0,0,0,0,0,0,0,0,0,0,0,0,0,0,0,0,0,0,0,0,0,0,0,0,0,0,0,0,0,0,0,0,0,0,0,0,0],"sum_hessian":[5.916167E5,3.5340675E5,2.382099E5,8.555379E3,3.4485138E5,3.1000682E4,2.0720923E5,5.6625864E3,2.8927922E3,2.9065847E5,5.4192902E4,3.073966E4,2.610212E2,7.449228E4,1.3271695E5,2.8616323E3,3.1159819E1,3.237613E4,2.181677E4,2.0316176E3,2.8708043E4,5.6186623E1,2.0483458E2,3.022842E4,4.426386E4,1.6474838E3,1.3106947E5,2.785246E1,2.8337798E3,1.3686449E4,8.130321E3,2.3148988E4,7.079431E3,4.4189426E4,7.443164E1,1.30211375E5,8.5808997E2,1.1869405E1,2.8219104E3,1.1133438E4,2.5530115E3,1.7402428E3,5.3391885E3,7.314439E0,4.4182113E4,1.2985873E5,3.526494E2],"tree_param":{"num_deleted":"0","num_feature":"78","num_nodes":"47","size_leaf_vector":"1"}},{"base_weights":[-6.517231E-4,-3.1359145E-1,1.3377186E0,7.7068275E-1,-5.436226E-1,1.3438592E0,-5.696434E-1,1.1146272E0,-5.6110394E-1,-5.6128126E-1,1.0141342E0,-5.882399E-2,1.3459296E0,8.734028E-2,-5.761667E-1,1.2410038E0,-5.794992E-2,1.3038315E0,-5.784252E-1,-5.644135E-1,1.8447715E-1,1.346574E0,-5.8859486E-2,1.3467054E0,8.530028E-1,-5.794511E-1,2.9619327E-2,-5.792272E-1,1.2802749E0,1.3444024E-1,-4.4998575E-2,-5.901562E-1,-5.72947E-1,-5.653596E-1,3.8074413E-1,1.3474106E0,-3.6892995E-1,-4.3250438E-2,1.3481046E0,1.3467354E-1,6.6810215E-1,-3.724187E-1,1.3770892E-1,-5.828468E-2,2.677075E-2,-5.7120126E-2,-6.1355747E-2,-4.578231E-2,1.3023426E-1,-5.9105452E-2,-3.4969248E-2,6.4785625E-3,-5.733511E-2,-5.6658752E-2,-2.5437796E-2,1.7061077E-1,-5.834762E-2,1.35628E-1,-4.209147E-2,2.0681293E-1,-4.298834E-2,1.3486712E-1,-3.0576287E-2,-3.961461E-2,1.19977586E-1,1.2606113E-1,-5.6171138E-2],"categories":[],"categories_nodes":[],"categories_segments":[],"categories_sizes":[],"default_left":[0,0,0,0,0,0,0,0,0,0,0,0,0,0,0,0,0,0,0,0,0,0,0,0,0,0,0,0,0,0,0,0,0,0,0,0,0,0,0,0,0,0,0,0,0,0,0,0,0,0,0,0,0,0,0,0,0,0,0,0,0,0,0,0,0,0,0],"id":26,"left_children":[1,3,5,7,9,11,13,15,17,19,21,-1,23,-1,25,27,-1,29,31,33,35,37,-1,39,41,43,-1,45,47,-1,-1,49,51,53,55,57,59,-1,61,-1,63,65,-1,-1,-1,-1,-1,-1,-1,-1,-1,-1,-1,-1,-1,-1,-1,-1,-1,-1,-1,-1,-1,-1,-1,-1,-1],"loss_changes":[2.4787864E5,1.19640164E5,1.314375E3,3.845673E4,1.0886117E4,4.4804688E2,3.897911E0,1.42859375E4,5.5741113E2,9.1410156E2,2.3643345E3,0E0,4.1578125E1,0E0,1.2019806E0,4.439203E3,0E0,1.1910309E1,7.5878906E-1,3.4866406E2,1.0542242E3,1.0588379E1,0E0,1.359375E0,1.1497752E2,1.1876068E0,0E0,1.1016846E-2,2.3318672E3,0E0,0E0,9.6032715E-1,3.0454102E0,1.4851562E2,4.997235E2,8.854126E0,1.658007E2,0E0,3.8515625E0,0E0,4.3766584E0,1.7455755E1,0E0,0E0,0E0,0E0,0E0,0E0,0E0,0E0,0E0,0E0,0E0,0E0,0E0,0E0,0E0,0E0,0E0,0E0,0E0,0E0,0E0,0E0,0E0,0E0,0E0],"parents":[2147483647,0,0,1,1,2,2,3,3,4,4,5,5,6,6,7,7,8,8,9,9,10,10,12,12,14,14,15,15,17,17,18,18,19,19,20,20,21,21,23,23,24,24,25,25,27,27,28,28,31,31,32,32,33,33,34,34,35,35,36,36,38,38,40,40,41,41],"right_children":[2,4,6,8,10,12,14,16,18,20,22,-1,24,-1,26,28,-1,30,32,34,36,38,-1,40,42,44,-1,46,48,-1,-1,50,52,54,56,58,60,-1,62,-1,64,66,-1,-1,-1,-1,-1,-1,-1,-1,-1,-1,-1,-1,-1,-1,-1,-1,-1,-1,-1,-1,-1,-1,-1,-1,-1],"split_conditions":[1.5251705E3,8.345621E-2,2.43E2,6.3798086E3,1E0,2.29E2,1E0,8.1E1,3E0,1.0938329E3,8.1E1,-5.882399E-2,2.5330838E2,8.734028E-2,5.1936585E6,7E1,-5.794992E-2,8.1E1,3.2863352E0,2.16E2,1.767767E1,1.54E2,-5.8859486E-2,8.1E1,5.097005E6,1E2,2.9619327E-2,0E0,6E1,1.3444024E-1,-4.4998575E-2,4.4689148E2,3.4641016E0,9.3351996E2,8.1E1,1.76E2,3.62E2,-4.3250438E-2,2.36E2,1.3467354E-1,4.44E2,5.028865E6,1.3770892E-1,-5.828468E-2,2.677075E-2,-5.7120126E-2,-6.1355747E-2,-4.578231E-2,1.3023426E-1,-5.9105452E-2,-3.4969248E-2,6.4785625E-3,-5.733511E-2,-5.6658752E-2,-2.5437796E-2,1.7061077E-1,-5.834762E-2,1.35628E-1,-4.209147E-2,2.0681293E-1,-4.298834E-2,1.3486712E-1,-3.0576287E-2,-3.961461E-2,1.19977586E-1,1.2606113E-1,-5.6171138E-2],"split_indices":[13,37,67,14,43,67,46,0,52,13,0,0,9,0,27,0,0,0,9,7,9,67,0,0,1,19,0,66,34,0,0,22,41,13,0,35,66,0,67,0,0,1,0,0,0,0,0,0,0,0,0,0,0,0,0,0,0,0,0,0,0,0,0,0,0,0,0],"split_type":[0,0,0,0,0,0,0,0,0,0,0,0,0,0,0,0,0,0,0,0,0,0,0,0,0,0,0,0,0,0,0,0,0,0,0,0,0,0,0,0,0,0,0,0,0,0,0,0,0,0,0,0,0,0,0,0,0,0,0,0,0,0,0,0,0,0,0],"sum_hessian":[5.9183494E5,4.796769E5,1.12158E5,8.395317E4,3.9572375E5,1.11798375E5,3.596237E2,6.6721875E4,1.7231293E4,3.9128875E5,4.434986E3,1.19374535E2,1.11679E5,1.0203296E0,3.5860336E2,6.20904E4,4.6314795E3,1.5788614E2,1.7073408E4,3.8965247E5,1.6363013E3,3.6732383E3,7.6174744E2,1.1150177E5,1.7723097E2,3.5759277E2,1.0105735E0,1.3110079E3,6.077939E4,1.5454451E2,3.3416283E0,5.401022E3,1.1672386E4,3.892632E5,3.8925858E2,5.271371E2,1.1091642E3,2.915534E0,3.6703228E3,1.11495875E5,5.8949194E0,5.3178383E1,1.2405259E2,3.564759E2,1.1168905E0,1.0768853E3,2.3412262E2,7.617578E2,6.0017633E4,5.3794673E3,2.155468E1,7.2901406E0,1.1665095E4,3.877314E5,1.5317955E3,1.6360577E2,2.2565282E2,5.2473816E2,2.3989081E0,2.6260944E1,1.0829032E3,3.6692507E3,1.0721445E0,2.048785E0,3.8461347E0,4.9359856E0,4.8242397E1],"tree_param":{"num_deleted":"0","num_feature":"78","num_nodes":"67","size_leaf_vector":"1"}},{"base_weights":[-1.3713993E-3,1.3244133E0,-5.723372E-1,1.3359964E0,-5.7377763E-2,-5.757518E-1,-5.719691E-1,-4.9413872E-1,1.339345E0,-5.7256777E-2,-5.876944E-1,-5.716033E-2,-5.7565385E-1,-5.90271E-2,1.3157919E-1,1.3405799E0,-5.9340913E-2,-5.954432E-2,-5.7464994E-2,-5.82025E-1,-5.718133E-2,1.3417051E0,-5.6566536E-2,-5.860421E-1,-5.7131927E-2,1.3423239E-1,-6.353186E-2,-5.893237E-2,-5.707636E-2],"categories":[],"categories_nodes":[],"categories_segments":[],"categories_sizes":[],"default_left":[0,0,0,0,0,0,0,0,0,0,0,0,0,0,0,0,0,0,0,0,0,0,0,0,0,0,0,0,0],"id":27,"left_children":[1,3,5,7,-1,9,11,13,15,-1,17,-1,19,-1,-1,21,-1,-1,-1,23,-1,25,-1,27,-1,-1,-1,-1,-1],"loss_changes":[4.4770578E5,3.9152188E3,1.875E-1,1.0850938E3,0E0,1.1875E0,1.796875E-1,5.7134552E1,4.224375E2,0E0,5.0683594E-1,0E0,4.892578E-1,0E0,0E0,3.79375E2,0E0,0E0,0E0,2.0605469E-1,0E0,2.16625E2,0E0,1.1987305E-1,0E0,0E0,0E0,0E0,0E0],"parents":[2147483647,0,0,1,1,2,2,3,3,5,5,6,6,7,7,8,8,10,10,12,12,15,15,19,19,21,21,23,23],"right_children":[2,4,6,8,-1,10,12,14,16,-1,18,-1,20,-1,-1,22,-1,-1,-1,24,-1,26,-1,28,-1,-1,-1,-1,-1],"split_conditions":[2.3E1,2E0,1E0,2.8E1,-5.7377763E-2,6.3798086E3,3.98E2,2.47E2,3.4E1,-5.7256777E-2,3.2771E4,-5.716033E-2,7.525802E6,-5.90271E-2,1.3157919E-1,2.94E2,-5.9340913E-2,-5.954432E-2,-5.7464994E-2,7.627E3,-5.718133E-2,2E0,-5.6566536E-2,3.0016E4,-5.7131927E-2,1.3423239E-1,-6.353186E-2,-5.893237E-2,-5.707636E-2],"split_indices":[0,11,3,69,0,14,4,67,2,0,0,0,1,0,0,67,0,0,0,0,0,51,0,66,0,0,0,0,0],"split_type":[0,0,0,0,0,0,0,0,0,0,0,0,0,0,0,0,0,0,0,0,0,0,0,0,0,0,0,0,0],"sum_hessian":[5.9143656E5,1.7803569E5,4.1340084E5,1.7695617E5,1.0795242E3,4.0079883E4,3.7332097E5,3.229092E2,1.7663327E5,3.168205E4,8.397834E3,3.3974938E5,3.3571598E4,3.0726318E2,1.5646047E1,1.7652077E5,1.1248592E2,5.2403193E3,3.1575142E3,1.2569468E4,2.1002129E4,1.7641694E5,1.0383332E2,9.100821E3,3.4686465E3,1.7636208E5,5.48664E1,7.460788E3,1.6400338E3],"tree_param":{"num_deleted":"0","num_feature":"78","num_nodes":"29","size_leaf_vector":"1"}},{"base_weights":[-1.1206184E-3,-5.5091137E-1,8.0210596E-1,-5.578506E-1,3.9217558E-2,-5.7234723E-2,1.3300686E0,-2.885048E-1,-5.6429607E-1,-5.704661E-2,1.2431976E0,1.345714E-1,-5.9590377E-2,-5.715705E-1,1.3490604E-1,-5.672758E-1,-2.0882317E-1,1.3087444E0,-5.6229066E-2,-5.736087E-2,8.2512295E-1,-5.7092947E-1,-5.292247E-1,-5.7538696E-2,1.1621398E0,-5.4970115E-2,1.3414693E0,-4.1073453E-2,1.24613754E-1,-5.712514E-2,-5.3634554E-2,-5.6314737E-2,1.3636927E-1,1.4514591E-1,-5.6585312E-2,1.3437904E-1,-3.5414346E-2],"categories":[],"categories_nodes":[],"categories_segments":[],"categories_sizes":[],"default_left":[0,0,0,0,0,0,0,0,0,0,0,0,0,0,0,0,0,0,0,0,0,0,0,0,0,0,0,0,0,0,0,0,0,0,0,0,0],"id":28,"left_children":[1,3,5,7,9,-1,11,13,15,-1,17,-1,-1,19,-1,21,23,25,-1,-1,27,29,31,-1,33,-1,35,-1,-1,-1,-1,-1,-1,-1,-1,-1,-1],"loss_changes":[2.6116064E5,1.4377109E3,1.743819E5,6.022578E2,2.996529E3,0E0,5.2323125E3,3.7608667E3,3.5884375E2,0E0,1.6313574E2,0E0,0E0,2.0163818E1,0E0,4.640625E1,1.4172047E3,8.128955E1,0E0,0E0,5.9695344E0,3.1015625E0,1.8922344E3,0E0,2.9828326E2,0E0,5.5996094E0,0E0,0E0,0E0,0E0,0E0,0E0,0E0,0E0,0E0,0E0],"parents":[2147483647,0,0,1,1,2,2,3,3,4,4,6,6,7,7,8,8,10,10,13,13,15,15,16,16,17,17,20,20,21,21,22,22,24,24,26,26],"right_children":[2,4,6,8,10,-1,12,14,16,-1,18,-1,-1,20,-1,22,24,26,-1,-1,28,30,32,-1,34,-1,36,-1,-1,-1,-1,-1,-1,-1,-1,-1,-1],"split_conditions":[9.950249E3,4E1,1E0,3.2E1,0E0,-5.7234723E-2,2E0,1E0,2.92E4,-5.704661E-2,9.88E2,1.345714E-1,-5.9590377E-2,3.8232E4,1.3490604E-1,1.4349261E2,2E0,2E0,-5.6229066E-2,-5.736087E-2,8.49971E5,1.30317E6,2.896E4,-5.7538696E-2,6E0,-5.4970115E-2,4.4E1,-4.1073453E-2,1.24613754E-1,-5.712514E-2,-5.3634554E-2,-5.6314737E-2,1.3636927E-1,1.4514591E-1,-5.6585312E-2,1.3437904E-1,-3.5414346E-2],"split_indices":[37,69,46,34,67,0,2,46,67,0,19,0,0,24,0,37,38,11,0,0,73,29,67,0,5,0,69,0,0,0,0,0,0,0,0,0,0],"split_type":[0,0,0,0,0,0,0,0,0,0,0,0,0,0,0,0,0,0,0,0,0,0,0,0,0,0,0,0,0,0,0,0,0,0,0,0,0],"sum_hessian":[5.9138556E5,3.5107966E5,2.4030592E5,3.469994E5,4.080237E3,6.669021E4,1.7361572E5,8.11072E3,3.388887E5,2.7089683E3,1.3712688E3,1.7221703E5,1.398678E3,6.9159043E3,1.194816E3,3.3607097E5,2.8177227E3,1.3234954E3,4.777336E1,6.906415E3,9.489248E0,3.0661578E5,2.9455207E4,2.2237292E3,5.9399347E2,2.2628395E1,1.300867E3,2.417442E0,7.071806E0,3.037727E5,2.8430684E3,2.8937328E4,5.1787897E2,5.0894107E2,8.505239E1,1.2992959E3,1.5711282E0],"tree_param":{"num_deleted":"0","num_feature":"78","num_nodes":"37","size_leaf_vector":"1"}},{"base_weights":[-7.7290303E-4,-4.9311382E-1,1.1802E0,-5.257302E-1,2.4131453E-1,1.3072115E0,-5.7401545E-2,-2.2636521E-1,-5.691277E-1,-4.4745553E-1,1.0202008E0,-5.8323205E-2,1.3295952E0,6.895826E-1,-4.24062E-1,-5.7142955E-1,-3.777036E-1,-5.279497E-1,1.4881814E-1,-5.8886643E-2,1.2148E0,1.3371396E0,-3.2775134E-1,1.1434447E0,-5.82115E-2,-4.945433E-1,2.1994072E-1,-5.720347E-1,-5.343035E-1,-5.1379985E-1,4.017629E-1,-3.9485618E-1,-5.799639E-2,-5.8538534E-2,1.0461462E0,1.3665388E0,-6.0778763E-2,1.339205E0,-5.7165463E-2,-6.0337927E-2,1.1134574E0,-6.0723957E-2,1.397339E-1,-5.2464273E-2,-1.1156922E-2,1.7691876E-1,-5.872192E-2,-5.959024E-2,-5.7193097E-2,-6.369196E-3,-5.7226527E-2,2.4245996E-2,-5.7331096E-2,1.4527847E-1,-5.948303E-2,-1.5326476E-3,-5.7387974E-2,-5.81368E-2,1.6539364E-1,-6.509437E-2,1.3834855E-1,-5.6554317E-2,1.3404362E-1,1.4270577E-1,-5.6485523E-2],"categories":[],"categories_nodes":[],"categories_segments":[],"categories_sizes":[],"default_left":[0,0,0,0,0,0,0,0,0,0,0,0,0,0,0,0,0,0,0,0,0,0,0,0,0,0,0,0,0,0,0,0,0,0,0,0,0,0,0,0,0,0,0,0,0,0,0,0,0,0,0,0,0,0,0,0,0,0,0,0,0,0,0,0,0],"id":29,"left_children":[1,3,5,7,9,11,-1,13,15,17,19,-1,21,23,25,27,29,31,33,-1,35,37,39,41,-1,43,45,47,49,51,53,55,-1,-1,57,59,-1,61,-1,-1,63,-1,-1,-1,-1,-1,-1,-1,-1,-1,-1,-1,-1,-1,-1,-1,-1,-1,-1,-1,-1,-1,-1,-1,-1],"loss_changes":[3.4419766E5,1.0008172E4,3.880833E4,5.196961E3,9.531587E3,6.8735312E3,0E0,9.171987E3,1.5373438E2,4.5265076E2,2.6115361E3,0E0,2.0075E3,5.1905596E3,1.891021E3,7.4453125E0,4.4091132E2,5.7285156E1,7.399999E2,0E0,2.0580664E3,6.3071875E2,2.899347E2,2.946541E3,0E0,4.3279004E2,5.14082E3,5.15625E-1,9.915784E1,1.5933679E2,6.482846E2,1.5882065E2,0E0,0E0,5.0089502E2,2.3569238E2,0E0,3.750625E2,0E0,0E0,6.252092E1,0E0,0E0,0E0,0E0,0E0,0E0,0E0,0E0,0E0,0E0,0E0,0E0,0E0,0E0,0E0,0E0,0E0,0E0,0E0,0E0,0E0,0E0,0E0,0E0],"parents":[2147483647,0,0,1,1,2,2,3,3,4,4,5,5,7,7,8,8,9,9,10,10,12,12,13,13,14,14,15,15,16,16,17,17,18,18,20,20,21,21,22,22,23,23,25,25,26,26,27,27,28,28,29,29,30,30,31,31,34,34,35,35,37,37,40,40],"right_children":[2,4,6,8,10,12,-1,14,16,18,20,-1,22,24,26,28,30,32,34,-1,36,38,40,42,-1,44,46,48,50,52,54,56,-1,-1,58,60,-1,62,-1,-1,64,-1,-1,-1,-1,-1,-1,-1,-1,-1,-1,-1,-1,-1,-1,-1,-1,-1,-1,-1,-1,-1,-1,-1,-1],"split_conditions":[1.048E3,1.915E2,8.1E1,1E0,8.27E2,2.8E1,-5.7401545E-2,2.51E2,1.7469362E2,1.1632E4,1.36E2,-5.8323205E-2,6.414E3,8.1E1,1.439E3,1.5568358E2,8.27E2,5E0,5.8E1,-5.8886643E-2,5.013654E6,6.055884E6,1.29E2,2.35E2,-5.82115E-2,2.3255814E4,1.484E3,6E0,2.5218E4,2.521E3,3.74E2,6E0,-5.799639E-2,-5.8538534E-2,2.57E2,2.32E2,-6.0778763E-2,2.3E1,-5.7165463E-2,-6.0337927E-2,1.3E2,-6.0723957E-2,1.397339E-1,-5.2464273E-2,-1.1156922E-2,1.7691876E-1,-5.872192E-2,-5.959024E-2,-5.7193097E-2,-6.369196E-3,-5.7226527E-2,2.4245996E-2,-5.7331096E-2,1.4527847E-1,-5.948303E-2,-1.5326476E-3,-5.7387974E-2,-5.81368E-2,1.6539364E-1,-6.509437E-2,1.3834855E-1,-5.6554317E-2,1.3404362E-1,1.4270577E-1,-5.6485523E-2],"split_indices":[67,9,0,39,29,69,0,66,9,5,35,0,24,0,66,9,29,24,29,0,18,18,19,67,0,37,66,39,28,21,6,3,0,0,67,67,0,0,0,0,19,0,0,0,0,0,0,0,0,0,0,0,0,0,0,0,0,0,0,0,0,0,0,0,0],"split_type":[0,0,0,0,0,0,0,0,0,0,0,0,0,0,0,0,0,0,0,0,0,0,0,0,0,0,0,0,0,0,0,0,0,0,0,0,0,0,0,0,0,0,0,0,0,0,0,0,0,0,0,0,0,0,0,0,0,0,0,0,0,0,0,0,0],"sum_hessian":[5.919711E5,4.1779525E5,1.7417589E5,4.0003E5,1.7765262E4,1.6241661E5,1.1759292E4,5.064898E4,3.49381E5,9.428263E3,8.336998E3,1.9002926E3,1.6051631E5,8.990884E3,4.1658098E4,3.4522766E5,4.153362E3,8.306975E3,1.1212881E3,8.992674E2,7.437731E3,1.5978912E5,7.2718646E2,6.626148E3,2.3647363E3,3.7548883E4,4.109214E3,3.3967628E5,5.551357E3,3.5362644E3,6.170972E2,2.336626E3,5.970349E3,6.1688983E2,5.0439825E2,6.8663276E3,5.714032E2,1.5961672E5,1.724127E2,6.10929E2,1.1625744E2,8.3907306E2,5.7870747E3,3.481247E4,2.7364119E3,1.4071554E3,2.7020583E3,1.4461251E3,3.3823016E5,4.145735E2,5.136783E3,2.5774905E2,3.2785154E3,3.0012415E2,3.1697308E2,7.492668E2,1.5873593E3,1.3716017E2,3.672381E2,5.6884377E1,6.8094434E3,1.028084E2,1.595139E5,9.808039E1,1.817705E1],"tree_param":{"num_deleted":"0","num_feature":"78","num_nodes":"65","size_leaf_vector":"1"}},{"base_weights":[6.427476E-3,1.0217162E0,-2.2691892E-1,1.1993136E0,-5.702344E-1,-3.0342984E-1,9.7882885E-1,1.1497418E0,1.4210584E0,-5.7059556E-2,1.1763853E-1,-3.335464E-1,1.2060986E0,1.1363255E0,-5.405233E-1,1.1921186E0,-5.508241E-1,1.712415E0,1.2779007E0,-3.575868E-1,8.966295E-1,1.2093644E0,5.729475E-1,1.1745272E0,-4.190077E-1,-5.635684E-1,1.1711259E-1,1.1919541E0,1.5762895E0,-5.586158E-1,4.3064663E-1,2.0670655E0,1.19190864E-1,1.3437071E0,1.1971563E-1,-3.720606E-1,1.1665566E0,-2.2990073E-1,1.2658777E0,1.1988688E0,1.3802696E0,-4.6998858E-1,1.2082706E-1,1.1787872E0,-4.1935298E-1,-5.4665018E-2,1.1907959E-1,-5.6542344E-2,9.879818E-2,1.19210005E-1,1.0414219E-1,2.1507195E-1,1.1507817E-1,-5.6673504E-2,-1.1644087E-2,1.1422902E-1,-2.0314388E-2,2.1344863E-1,1.4432259E-1,1.3140708E-1,1.4453147E-1,-3.9284073E-2,7.000487E-2,-6.2209655E-2,1.24690786E-1,-5.665145E-2,1.17396526E-1,1.4830302E-1,1.1935275E-1,1.2355172E-1,1.1906012E-1,1.2015658E-1,1.4934961E-1,3.0989697E-2,-5.350234E-2,1.1815866E-1,3.82053E-2,-5.529895E-2,1.1459669E-1],"categories":[],"categories_nodes":[],"categories_segments":[],"categories_sizes":[],"default_left":[0,0,0,0,0,0,0,0,0,0,0,0,0,0,0,0,0,0,0,0,0,0,0,0,0,0,0,0,0,0,0,0,0,0,0,0,0,0,0,0,0,0,0,0,0,0,0,0,0,0,0,0,0,0,0,0,0,0,0,0,0,0,0,0,0,0,0,0,0,0,0,0,0,0,0,0,0,0,0],"id":30,"left_children":[1,3,5,7,9,11,13,15,17,-1,-1,19,21,23,25,27,29,31,33,35,37,39,41,43,45,47,-1,49,51,53,55,57,-1,59,-1,61,63,65,67,69,71,73,-1,75,77,-1,-1,-1,-1,-1,-1,-1,-1,-1,-1,-1,-1,-1,-1,-1,-1,-1,-1,-1,-1,-1,-1,-1,-1,-1,-1,-1,-1,-1,-1,-1,-1,-1,-1],"loss_changes":[1.3744058E5,3.0652492E4,4.351723E4,1.0705E3,7.534668E0,2.0165781E4,6.735957E3,5.745633E3,7.409219E2,0E0,0E0,1.2861777E4,1.7248047E1,1.5158164E3,1.04966736E2,3.03125E0,1.5068298E1,1.0805488E3,6.188867E1,9.410352E3,3.467872E3,1.3827148E1,3.1329308E1,1.6950781E2,1.2643113E2,8.070374E0,0E0,4.609375E-1,4.904854E0,6.841797E0,7.374753E0,1.4362402E2,0E0,1.7904297E1,0E0,9.413961E3,5.775078E2,9.7353E2,9.687109E1,9.951172E-1,8.176575E0,1.0937057E0,0E0,5.491797E1,1.4667875E1,0E0,0E0,0E0,0E0,0E0,0E0,0E0,0E0,0E0,0E0,0E0,0E0,0E0,0E0,0E0,0E0,0E0,0E0,0E0,0E0,0E0,0E0,0E0,0E0,0E0,0E0,0E0,0E0,0E0,0E0,0E0,0E0,0E0,0E0],"parents":[2147483647,0,0,1,1,2,2,3,3,4,4,5,5,6,6,7,7,8,8,11,11,12,12,13,13,14,14,15,15,16,16,17,17,18,18,19,19,20,20,21,21,22,22,23,23,24,24,25,25,27,27,28,28,29,29,30,30,31,31,33,33,35,35,36,36,37,37,38,38,39,39,40,40,41,41,43,43,44,44],"right_children":[2,4,6,8,10,12,14,16,18,-1,-1,20,22,24,26,28,30,32,34,36,38,40,42,44,46,48,-1,50,52,54,56,58,-1,60,-1,62,64,66,68,70,72,74,-1,76,78,-1,-1,-1,-1,-1,-1,-1,-1,-1,-1,-1,-1,-1,-1,-1,-1,-1,-1,-1,-1,-1,-1,-1,-1,-1,-1,-1,-1,-1,-1,-1,-1,-1,-1],"split_conditions":[2.29E2,9.3351996E2,1.0028E4,1.23E2,8.1E1,3.0016E4,1.7548314E3,0E0,3.2771E4,-5.7059556E-2,1.1763853E-1,5.4048E4,4E1,4E1,8.1E1,4.081633E4,6E0,1.1E1,5.4048E4,2.92E4,1E0,7.8125E3,4.4E1,3.35E7,8.1E1,9E0,1.1711259E-1,8.49971E5,4.9E1,2.105263E4,2.27E2,9.88E2,1.19190864E-1,4E0,1.1971563E-1,9.88E2,2.3E1,2E0,2.4E1,8.1E1,3.2771E4,3.5E1,1.2082706E-1,1.5251705E3,1E0,-5.4665018E-2,1.1907959E-1,-5.6542344E-2,9.879818E-2,1.19210005E-1,1.0414219E-1,2.1507195E-1,1.1507817E-1,-5.6673504E-2,-1.1644087E-2,1.1422902E-1,-2.0314388E-2,2.1344863E-1,1.4432259E-1,1.3140708E-1,1.4453147E-1,-3.9284073E-2,7.000487E-2,-6.2209655E-2,1.24690786E-1,-5.665145E-2,1.17396526E-1,1.4830302E-1,1.1935275E-1,1.2355172E-1,1.1906012E-1,1.2015658E-1,1.4934961E-1,3.0989697E-2,-5.350234E-2,1.1815866E-1,3.82053E-2,-5.529895E-2,1.1459669E-1],"split_indices":[66,13,73,0,0,66,13,66,0,0,0,0,69,69,0,36,12,11,0,67,47,37,34,17,0,3,0,73,0,36,67,19,0,11,0,19,0,2,34,0,0,19,0,13,5,0,0,0,0,0,0,0,0,0,0,0,0,0,0,0,0,0,0,0,0,0,0,0,0,0,0,0,0,0,0,0,0,0,0],"split_type":[0,0,0,0,0,0,0,0,0,0,0,0,0,0,0,0,0,0,0,0,0,0,0,0,0,0,0,0,0,0,0,0,0,0,0,0,0,0,0,0,0,0,0,0,0,0,0,0,0,0,0,0,0,0,0,0,0,0,0,0,0,0,0,0,0,0,0,0,0,0,0,0,0,0,0,0,0,0,0],"sum_hessian":[5.801267E5,1.08414125E5,4.7171256E5,9.753356E4,1.0880562E4,4.4356672E5,2.8145854E4,7.9718414E4,1.7815146E4,1.0878985E4,1.575912E0,4.34891E5,8.675715E3,2.5502504E4,2.6433486E3,7.778048E4,1.9379377E3,5.865875E3,1.1949272E4,4.2655584E5,8.335147E3,8.63029E3,4.5425247E1,2.4891373E4,6.111308E2,2.608894E3,3.445459E1,7.775129E4,2.91928E1,1.9231014E3,1.4836323E1,3.487008E3,2.378867E3,6.57502E3,5.3742524E3,4.2254397E5,4.0118743E3,2.0577097E3,6.277438E3,8.138501E3,4.9178867E2,1.7294731E1,2.8130516E1,2.4825283E4,6.6090096E1,5.6684564E2,4.4285164E1,2.6064133E3,2.4806476E0,7.7669086E4,8.220263E1,1.0697216E1,1.8495584E1,1.8881494E3,3.4951916E1,6.6109676E0,8.225355E0,3.1447239E3,3.422842E2,5.101094E3,1.4739254E3,4.1451038E5,8.033592E3,1.7218639E2,3.8396877E3,1.6602239E3,3.9748584E2,1.5639355E3,4.7135024E3,1.4706951E3,6.6678057E3,1.9524625E2,2.9654242E2,1.0413966E0,1.6253334E1,2.473788E4,8.7403564E1,6.1487434E1,4.6026607E0],"tree_param":{"num_deleted":"0","num_feature":"78","num_nodes":"79","size_leaf_vector":"1"}},{"base_weights":[-1.4319306E-3,-5.5107903E-1,7.5324285E-1,5.1870007E-2,-5.666347E-1,-5.5223346E-1,9.326099E-1,-5.6908894E-1,1.1533718E0,-5.6580532E-2,